svm_type epsilon_svr
kernel_type rbf
gamma 1
nr_class 2
total_sv 2887
rho -5.90831
SV
-25.1902677566323 1:-0.912 2:0.85800004 3:1 4:0.898 5:0.78400004 
100 1:-0.972 2:0.80999994 3:0.96599996 4:0.87 5:0.83399999 
-100 1:-1 2:0.74600005 3:0.86399996 4:0.72399998 5:0.75999999 
-100 1:-0.99 2:0.73800004 3:0.83200002 4:0.69200003 5:0.71599996 
-100 1:-0.972 2:0.73800004 3:0.82000005 4:0.67400002 5:0.68200004 
-100 1:-0.972 2:0.72399998 3:0.79400003 4:0.65400004 5:0.64400005 
-100 1:-0.978 2:0.70799994 3:0.77600002 4:0.62600005 5:0.62199998 
-100 1:-0.99 2:0.676 3:0.73000002 4:0.57799995 5:0.59399998 
-100 1:-0.99 2:0.64400005 3:0.66799998 4:0.50600004 5:0.50399995 
100 1:-0.972 2:0.63600004 3:0.65400004 4:0.528 5:0.43599999 
100 1:-0.978 2:0.66799998 3:0.73000002 4:0.54999995 5:0.34200001 
-100 1:-0.966 2:0.70799994 3:0.79400003 4:0.59800005 5:0.26999998 
-100 1:-0.96 2:0.74600005 3:0.87 4:0.65799999 5:0.27400005 
28.40089729977776 1:-0.96 2:0.75399995 3:0.88999999 4:0.67400002 5:0.30200005 
100 1:-0.96 2:0.76999998 3:0.92799997 4:0.69599998 5:0.426 
100 1:-0.948 2:0.78600001 3:0.94000006 4:0.71200001 5:0.50399995 
-100 1:-0.918 2:0.81799996 3:0.99800003 4:0.80599999 5:0.78400004 
-100 1:-0.904 2:0.83399999 3:0.99800003 4:0.82599998 5:0.82200003 
-100 1:-0.948 2:0.85000002 3:0.99800003 4:0.88600004 5:0.99000001 
-60.24790470747698 1:-0.96 2:0.83399999 3:0.99199998 4:0.89199996 5:1 
-100 1:-0.778 2:0.91400003 3:0.99800003 4:0.95200002 5:0.79400003 
-100 1:-0.772 2:0.91400003 3:0.99199998 4:0.95200002 5:0.778 
-67.16163137969194 1:-0.78399999 2:0.90600002 3:0.98599994 4:0.95200002 5:0.76600003 
-100 1:-0.78399999 2:0.898 3:0.98599994 4:0.95200002 5:0.75999999 
-100 1:-0.796 2:0.88999999 3:0.98599994 4:0.94599998 5:0.75999999 
100 1:-0.874 2:0.84200001 3:0.94000006 4:0.91400003 5:0.80599999 
100 1:-0.898 2:0.81799996 3:0.92799997 4:0.898 5:0.83399999 
100 1:-0.918 2:0.80200005 3:0.92200005 4:0.88600004 5:0.83800006 
-24.95565486187664 1:-0.954 2:0.70799994 3:0.76199996 4:0.68599999 5:0.80599999 
100 1:-0.96 2:0.61199999 3:0.61000001 4:0.55999994 5:0.71599996 
100 1:-0.96 2:0.50199997 3:0.44400001 4:0.37600005 5:0.37600005 
100 1:-0.954 2:0.47800004 3:0.41199994 4:0.33200002 5:0.28600001 
100 1:-0.954 2:0.46200001 3:0.40600002 4:0.31200004 5:0.25199997 
55.20936428326495 1:-0.966 2:0.44599998 3:0.41199994 4:0.29400003 5:0.20200002 
-100 1:-0.972 2:0.43799996 3:0.41999996 4:0.278 5:0.16199994 
-100 1:-0.978 2:0.48599994 3:0.45799994 4:0.33800006 5:0.13 
-100 1:-0.984 2:0.51800001 3:0.50199997 4:0.38800001 5:0.12399995 
-100 1:-0.99 2:0.65199995 3:0.71200001 4:0.50199997 5:0.10800004 
-100 1:-0.972 2:0.70000005 3:0.78799999 4:0.54999995 5:0.13 
-100 1:-0.942 2:0.76999998 3:0.87800002 4:0.61600006 5:0.23599994 
-100 1:-0.936 2:0.78600001 3:0.90199995 4:0.63199997 5:0.33000004 
-100 1:-0.918 2:0.81799996 3:0.94799995 4:0.71200001 5:0.61600006 
34.32222105459797 1:-0.68599999 2:0.91400003 3:1 4:0.87 5:0.93400002 
-100 1:-0.56600001 2:0.91400003 3:1 4:0.88199997 5:0.96800005 
100 1:-0.64399999 2:0.92799997 3:0.96000004 4:0.86000001 5:0.92799997 
-100 1:-0.62 2:0.90600002 3:0.954 4:0.87 5:0.84399998 
-100 1:-0.59599999 2:0.898 3:0.954 4:0.86399996 5:0.82200003 
-100 1:-0.602 2:0.88999999 3:0.94799995 4:0.87 5:0.80999994 
-100 1:-0.632 2:0.898 3:0.94000006 4:0.86399996 5:0.79400003 
-33.93941046092504 1:-0.76000001 2:0.84200001 3:0.85800004 4:0.778 5:0.75999999 
100 1:-0.78399999 2:0.70799994 3:0.63600004 4:0.57799995 5:0.68799996 
100 1:-0.796 2:0.676 3:0.59800005 4:0.54999995 5:0.64400005 
100 1:-0.814 2:0.64400005 3:0.57200003 4:0.52199996 5:0.57599998 
100 1:-0.874 2:0.50999999 3:0.39400005 4:0.30599999 5:0.20799994 
-100 1:-0.904 2:0.454 3:0.35599995 4:0.23599994 5:0.15199995 
-100 1:-0.924 2:0.42200005 3:0.36800003 4:0.19200003 5:0.102 
-100 1:-0.844 2:0.70000005 3:0.67999995 4:0.48000002 5:0.052000046 
-100 1:-0.808 2:0.76999998 3:0.76999998 4:0.51199996 5:0.074000001 
-100 1:-0.772 2:0.84200001 3:0.87800002 4:0.59399998 5:0.090000033 
-100 1:-0.748 2:0.87399995 3:0.92200005 4:0.648 5:0.16799998 
-100 1:-0.78399999 2:0.86600006 3:0.92200005 4:0.66999996 5:0.27400005 
35.53981717809455 1:-0.81999999 2:0.85000002 3:0.92200005 4:0.67999995 5:0.33599997 
100 1:-1 2:0.82599998 3:0.972 4:0.83800006 5:0.83800006 
100 1:-1 2:0.81799996 3:0.96599996 4:0.83800006 5:0.83800006 
100 1:-1 2:0.80999994 3:0.96000004 4:0.83200002 5:0.83399999 
100 1:-1 2:0.80200005 3:0.954 4:0.82599998 5:0.82799995 
-100 1:-0.868 2:0.79400003 3:0.87800002 4:0.74000001 5:0.70000005 
-100 1:-0.862 2:0.74600005 3:0.78799999 4:0.67400002 5:0.64400005 
-36.6934948417707 1:-0.904 2:0.68400002 3:0.70599997 4:0.59800005 5:0.64400005 
-100 1:-0.924 2:0.63600004 3:0.65400004 4:0.56599998 5:0.65999997 
100 1:-0.948 2:0.52600002 3:0.48199999 4:0.37 5:0.40799999 
-100 1:-0.966 2:0.41400003 3:0.38199997 4:0.16999996 5:0.20200002 
-100 1:-0.904 2:0.398 3:0.324 4:0.039999962 5:-0.026000023 
-100 1:-0.862 2:0.46200001 3:0.35000002 4:0.10399997 5:0.011999965 
-100 1:-0.814 2:0.55599999 3:0.43799996 4:0.24600005 5:0.067999959 
100 1:-0.704 2:0.76999998 3:0.69200003 4:0.49600005 5:0.20200002 
-46.7747402076598 1:-0.778 2:0.81799996 3:0.82000005 4:0.64199996 5:0.16199994 
100 1:-0.796 2:0.83399999 3:0.87 4:0.69200003 5:0.25800002 
100 1:-0.802 2:0.84200001 3:0.88399994 4:0.70200002 5:0.30200005 
100 1:-0.814 2:0.86600006 3:0.92799997 4:0.75600004 5:0.50399995 
-100 1:-0.84999999 2:0.87399995 3:0.98599994 4:0.86000001 5:0.80599999 
100 1:-0.796 2:0.80200005 3:0.83200002 4:0.70799994 5:0.61000001 
100 1:-0.802 2:0.79400003 3:0.82599998 4:0.69599998 5:0.61000001 
100 1:-0.81999999 2:0.72399998 3:0.72399998 4:0.55599999 5:0.54799998 
100 1:-0.81999999 2:0.71599996 3:0.70599997 4:0.53400004 5:0.52600002 
100 1:-0.81999999 2:0.60399997 3:0.56599998 4:0.44599998 5:0.32000005 
100 1:-0.82600001 2:0.56400001 3:0.50199997 4:0.39199996 5:0.22399998 
-100 1:-0.766 2:0.49399996 3:0.34200001 4:0.15999997 5:0.052000046 
26.09676988864143 1:-0.62 2:0.59599996 3:0.45799994 4:0.28999996 5:0.24600005 
100 1:-0.65599999 2:0.72399998 3:0.63600004 4:0.50600004 5:0.47000003 
100 1:-0.85600001 2:0.78600001 3:0.80799997 4:0.69200003 5:0.38 
100 1:-0.898 2:0.80200005 3:0.87800002 4:0.76199996 5:0.47000003 
100 1:-0.942 2:0.80200005 3:0.91600001 4:0.80999994 5:0.63800001 
-4.417104122687538 1:-0.868 2:0.86600006 3:0.94799995 4:0.81599998 5:0.75600004 
-100 1:-0.838 2:0.86600006 3:0.93400002 4:0.79999995 5:0.72800004 
-100 1:-0.84999999 2:0.85800004 3:0.92200005 4:0.78799999 5:0.71000004 
100 1:-0.996 2:0.66799998 3:0.648 4:0.49600005 5:0.34200001 
44.17363256190557 1:-0.978 2:0.58800006 3:0.53999996 4:0.40799999 5:0.21399999 
-100 1:-0.96 2:0.454 3:0.38800001 4:0.21399999 5:0.074000001 
-100 1:-0.936 2:0.38199997 3:0.324 4:0.11000001 5:-0.015999973 
-100 1:-0.93 2:0.38199997 3:0.31200004 4:0.10000002 5:-0.026000023 
-100 1:-0.918 2:0.398 3:0.33000004 4:0.13800001 5:-0.015999973 
-100 1:-0.904 2:0.42999995 3:0.35000002 4:0.18599999 5:-0.022000015 
-100 1:-0.88 2:0.58800006 3:0.50800002 4:0.44599998 5:0.034000039 
-100 1:-0.868 2:0.64400005 3:0.58399999 4:0.50600004 5:0.080000043 
100 1:-0.82600001 2:0.73199999 3:0.70000005 4:0.56599998 5:0.16799998 
100 1:-0.814 2:0.76199996 3:0.73800004 4:0.58800006 5:0.23000002 
100 1:-0.79000001 2:0.81799996 3:0.81400001 4:0.648 5:0.38 
100 1:-0.778 2:0.85800004 3:0.87 4:0.71800005 5:0.48599994 
-100 1:-0.74200001 2:0.898 3:0.91600001 4:0.77199996 5:0.704 
-100 1:-0.72799999 2:0.90600002 3:0.92200005 4:0.77199996 5:0.722 
-100 1:-0.632 2:0.88999999 3:0.88399994 4:0.73399997 5:0.778 
-100 1:-0.632 2:0.88999999 3:0.87800002 4:0.73000002 5:0.778 
100 1:-0.65599999 2:0.93599999 3:0.83800006 4:0.68599999 5:0.83800006 
100 1:-0.65599999 2:0.93599999 3:0.84599996 4:0.67400002 5:0.83800006 
100 1:-0.62 2:0.88999999 3:0.852 4:0.69200003 5:0.86199999 
-100 1:-0.43199998 2:0.95200002 3:0.85800004 4:0.79400003 5:0.86199999 
-100 1:-0.426 2:0.92799997 3:0.84599996 4:0.78799999 5:0.79400003 
-100 1:-0.46200001 2:0.898 3:0.82599998 4:0.76800001 5:0.78799999 
-100 1:-0.49800003 2:0.86600006 3:0.80799997 4:0.75600004 5:0.78799999 
-100 1:-0.546 2:0.82599998 3:0.77600002 4:0.73000002 5:0.78799999 
-72.64232397495225 1:-0.63800001 2:0.76999998 3:0.71200001 4:0.63600004 5:0.778 
33.02104226202184 1:-0.69800001 2:0.74600005 3:0.648 4:0.59399998 5:0.78799999 
1.586166074402147 1:-0.704 2:0.73199999 3:0.63600004 4:0.59399998 5:0.78799999 
-100 1:-0.722 2:0.64400005 3:0.53400004 4:0.50600004 5:0.704 
-100 1:-0.72799999 2:0.53400004 3:0.39999998 4:0.36600006 5:0.44200003 
-100 1:-0.74200001 2:0.50199997 3:0.36199999 4:0.31200004 5:0.37 
-100 1:-0.72799999 2:0.454 3:0.29799998 4:0.21399999 5:0.27999997 
-100 1:-0.71000001 2:0.50199997 3:0.324 4:0.23599994 5:0.24199998 
100 1:-0.71000001 2:0.91400003 3:0.90199995 4:0.70799994 5:0.53199995 
100 1:-0.734 2:0.91400003 3:0.88999999 4:0.71200001 5:0.71000004 
-25.63464149426228 1:-0.838 2:0.83399999 3:0.852 4:0.66400003 5:0.722 
-100 1:-0.832 2:0.81799996 3:0.852 4:0.65400004 5:0.73800004 
54.13372774913488 1:-0.84999999 2:0.83399999 3:0.90199995 4:0.73399997 5:0.84399998 
100 1:-0.918 2:0.82599998 3:0.90799999 4:0.76800001 5:0.87800002 
100 1:-0.942 2:0.81799996 3:0.90799999 4:0.77199996 5:0.88999999 
-100 1:-1 2:0.79400003 3:0.87800002 4:0.778 5:0.82799995 
-100 1:-1 2:0.78600001 3:0.85800004 4:0.77199996 5:0.80599999 
-100 1:-1 2:0.78600001 3:0.852 4:0.778 5:0.79999995 
-100 1:-1 2:0.76999998 3:0.82000005 4:0.778 5:0.78400004 
-41.9036345177856 1:-0.81999999 2:0.58000004 3:0.45200002 4:0.398 5:0.62199998 
100 1:-0.85600001 2:0.54999995 3:0.40600002 4:0.35000002 5:0.55999994 
-100 1:-0.84999999 2:0.50199997 3:0.33599997 4:0.278 5:0.49199998 
99.8242320675012 1:-0.874 2:0.42200005 3:0.30400002 4:0.18599999 5:0.41999996 
100 1:-0.88 2:0.40600002 3:0.29799998 4:0.16999996 5:0.39199996 
100 1:-0.88 2:0.36800003 3:0.25399995 4:0.10399997 5:0.27999997 
100 1:-0.886 2:0.352 3:0.23399997 4:0.088000059 5:0.24199998 
25.86703847684635 1:-0.892 2:0.34399998 3:0.21599996 4:0.072000027 5:0.20200002 
-100 1:-0.88 2:0.34399998 3:0.222 4:0.065999985 5:0.16799998 
-100 1:-0.808 2:0.53400004 3:0.33599997 4:0.14199996 5:0.13600004 
-100 1:-0.772 2:0.61199999 3:0.39999998 4:0.20799994 5:0.13 
-100 1:-0.692 2:0.73199999 3:0.55999994 4:0.35399997 5:0.13 
-93.09536838542711 1:-0.59 2:0.85000002 3:0.82000005 4:0.59399998 5:0.24199998 
-100 1:-0.998 2:0.92999995 3:1 4:0.94000006 5:0.96000004 
-100 1:-0.99 2:0.92200005 3:1 4:0.93400002 5:0.94799995 
-12.26150145570896 1:-0.974 2:0.92200005 3:1 4:0.92799997 5:0.93799996 
100 1:-0.844 2:0.90600002 3:1 4:0.89199996 5:0.926 
100 1:-0.844 2:0.91400003 3:1 4:0.88 5:0.926 
100 1:-0.862 2:0.92200005 3:1 4:0.88 5:0.926 
100 1:-1 2:0.84000003 3:1 4:0.88 5:0.954 
100 1:-1 2:0.83200002 3:1 4:0.88 5:0.96599996 
-100 1:-0.964 2:0.88199997 3:1 4:0.91600001 5:0.97800004 
-100 1:-0.854 2:0.88999999 3:1 4:0.96000004 5:1 
-100 1:-0.87 2:0.898 3:1 4:0.96000004 5:1 
-100 1:-0.948 2:0.88199997 3:0.99399996 4:0.954 5:1 
100 1:-1 2:0.83200002 3:0.94200003 4:0.92799997 5:0.954 
100 1:-1 2:0.79999995 3:0.88999999 4:0.92200005 5:0.91999996 
-11.72132217486492 1:-1 2:0.75 3:0.77400005 4:0.86600006 5:0.83399999 
-100 1:-1 2:0.71000004 3:0.66400003 4:0.76199996 5:0.79400003 
-100 1:-1 2:0.65400004 3:0.56799996 4:0.70000005 5:0.72599995 
-100 1:-1 2:0.51400006 3:0.32000005 4:0.59000003 5:0.53799999 
100 1:-1 2:0.52999997 3:0.32000005 4:0.546 5:0.47399998 
-100 1:-0.888 2:0.81599998 3:0.73000002 4:0.75 5:0.73800004 
100 1:-0.93 2:0.94599998 3:1 4:0.88600004 5:0.90799999 
100 1:-0.922 2:0.954 3:1 4:0.898 5:0.926 
-100 1:-0.93 2:0.954 3:1 4:0.94000006 5:1 
-100 1:-1 2:0.92200005 3:1 4:0.97800004 5:1 
-100 1:-1 2:0.90600002 3:1 4:0.97800004 5:1 
-100 1:-1 2:0.90600002 3:1 4:0.96599996 5:1 
-100 1:-0.93 2:0.92999995 3:1 4:0.92799997 5:1 
-66.97434591359364 1:-0.854 2:0.92200005 3:1 4:0.93400002 5:1 
-100 1:-0.93 2:0.898 3:1 4:1 5:1 
12.92072643690809 1:-1 2:0.85599995 3:1 4:1 5:1 
100 1:-0.888 2:0.92999995 3:0.99399996 4:0.88 5:0.84599996 
100 1:-0.904 2:0.92999995 3:1 4:0.84800005 5:0.87399995 
100 1:-0.938 2:0.91400003 3:0.99399996 4:0.83599997 5:0.88 
-100 1:-0.914 2:0.898 3:1 4:1 5:1 
100 1:-0.76800001 2:0.84000003 3:1 4:1 5:1 
100 1:-0.78399999 2:0.83200002 3:1 4:1 5:1 
100 1:-1 2:0.824 3:1 4:1 5:1 
100 1:-1 2:0.79200006 3:1 4:1 5:1 
100 1:-1 2:0.78400004 3:1 4:1 5:1 
100 1:-1 2:0.77600002 3:1 4:1 5:1 
100 1:-1 2:0.75999999 3:1 4:1 5:1 
100 1:-1 2:0.76800001 3:0.99399996 4:1 5:1 
100 1:-1 2:0.77600002 3:0.98599994 4:1 5:1 
100 1:-1 2:0.79200006 3:0.98599994 4:1 5:1 
100 1:-1 2:0.79999995 3:1 4:1 5:1 
-100 1:-0.896 2:0.90600002 3:1 4:1 5:1 
-8.292526124611184 1:-0.878 2:0.898 3:1 4:1 5:1 
100 1:-0.588 2:0.85599995 3:1 4:1 5:1 
100 1:-0.56200001 2:0.86600006 3:1 4:1 5:1 
100 1:-0.53600001 2:0.87399995 3:1 4:1 5:1 
100 1:-0.47600001 2:0.87399995 3:1 4:1 5:1 
-100 1:-0.34799999 2:0.88999999 3:1 4:1 5:1 
-100 1:-0.296 2:0.88199997 3:1 4:1 5:1 
-100 1:-0.25400001 2:0.86600006 3:1 4:1 5:1 
-100 1:-0.25400001 2:0.87399995 3:1 4:1 5:1 
-53.36207827242928 1:-0.44199997 2:0.92200005 3:1 4:1 5:1 
100 1:-0.48400003 2:0.90600002 3:1 4:1 5:1 
100 1:-0.63800001 2:0.84800005 3:1 4:1 5:1 
100 1:-0.71599999 2:0.83200002 3:1 4:1 5:1 
21.29543594733526 1:-0.964 2:0.84800005 3:0.94200003 4:0.90999997 5:0.93799996 
68.14997490413376 1:-1 2:0.75 3:0.75999999 4:0.84800005 5:0.89199996 
100 1:-0.982 2:0.61199999 3:0.48199999 4:0.64600003 5:0.86800003 
-3.239015754559924 1:-1 2:0.44200003 3:0.20200002 4:0.42999995 5:0.72599995 
-100 1:-1 2:0.39199996 3:0.22399998 4:0.33800006 5:0.66400003 
-100 1:-1 2:0.38399994 3:0.24600005 4:0.33800006 5:0.66799998 
3.958025130438016 1:-1 2:0.39199996 3:0.39400005 4:0.40400004 5:0.704 
-100 1:-1 2:0.39199996 3:0.43799996 4:0.43599999 5:0.72000003 
100 1:-1 2:0.40799999 3:0.50999999 4:0.55200005 5:0.76600003 
-20.02100645507954 1:-1 2:0.40799999 3:0.55400002 4:0.63800001 5:0.79999995 
-100 1:-1 2:0.29400003 3:0.43799996 4:0.35000002 5:0.16600001 
-100 1:-1 2:0.33599997 3:0.24000001 4:0.15199995 5:0.036000013 
-100 1:-1 2:0.37600005 3:0.25399995 4:0.12800002 5:0.039999962 
100 1:-1 2:0.42400002 3:0.22399998 4:0.12199998 5:0.057999969 
100 1:-1 2:0.44200003 3:0.21800005 4:0.12199998 5:0.057999969 
100 1:-1 2:0.34399998 3:0.21800005 4:0.16400003 5:0.039999962 
100 1:-1 2:0.32000005 3:0.18200004 4:0.15199995 5:0.024000049 
100 1:-1 2:0.30999994 3:0.15999997 4:0.13999999 5:0.011999965 
100 1:-1 2:0.30200005 3:0.13800001 4:0.12800002 5:-0.0099999905 
100 1:-1 2:0.30999994 3:0.14400005 4:0.12199998 5:-0.037999988 
-100 1:-1 2:0.32000005 3:0.13 4:0.11000001 5:-0.055999994 
-100 1:-1 2:0.29400003 3:0.12199998 4:0.095999956 5:-0.055999994 
-87.4013674151944 1:-1 2:0.29400003 3:0.11600006 4:0.077999949 5:-0.055999994 
100 1:-1 2:0.28600001 3:0.10800004 4:0.065999985 5:-0.055999994 
100 1:-1 2:0.278 3:0.093999982 4:0.042000055 5:-0.061999977 
-100 1:-1 2:0.24600005 3:0.055999994 4:-0.0080000162 5:-0.083999991 
-100 1:-1 2:0.19599998 3:-0.023999989 4:-0.082000017 5:-0.148 
-100 1:-1 2:0.18799996 3:-0.037999988 4:-0.088 5:-0.15399998 
-100 1:-1 2:0.19599998 3:-0.046000004 4:-0.11199999 5:-0.18199998 
-100 1:-1 2:0.18799996 3:-0.046000004 4:-0.10600001 5:-0.18800002 
-100 1:-1 2:0.18799996 3:-0.046000004 4:-0.10000002 5:-0.18800002 
-100 1:-1 2:0.17200005 3:-0.060000002 4:-0.093999982 5:-0.204 
-100 1:-1 2:0.16400003 3:-0.060000002 4:-0.069999993 5:-0.18199998 
-100 1:-1 2:0.15600002 3:-0.060000002 4:-0.06400001 5:-0.17000002 
-100 1:-1 2:0.15600002 3:-0.060000002 4:-0.069999993 5:-0.15799999 
-100 1:-1 2:0.15600002 3:-0.068000019 4:-0.069999993 5:-0.16399997 
100 1:-0.956 2:0.40799999 3:0.21800005 4:0.13999999 5:0.070000052 
100 1:-0.802 2:0.58800006 3:0.68599999 4:0.66400003 5:0.852 
100 1:-0.77599999 2:0.63600004 3:0.80400002 4:0.74399996 5:0.96000004 
100 1:-0.77599999 2:0.64600003 3:0.824 4:0.75 5:0.97800004 
100 1:-0.76800001 2:0.66199994 3:0.84599996 4:0.75 5:0.98800004 
-26.07495416497551 1:-0.74200001 2:0.71000004 3:0.92799997 4:0.73800004 5:1 
-100 1:-0.74200001 2:0.71800005 3:0.94200003 4:0.73800004 5:1 
-100 1:-0.74200001 2:0.72599995 3:0.96399999 4:0.73800004 5:1 
-100 1:-0.76800001 2:0.78400004 3:1 4:0.77999997 5:1 
100 1:-0.794 2:0.79200006 3:1 4:1 5:1 
-100 1:-0.81 2:0.73399997 3:1 4:1 5:1 
-100 1:-0.836 2:0.74199998 3:1 4:1 5:1 
-100 1:-0.82799999 2:0.74199998 3:1 4:1 5:1 
4.756340247398108 1:-0.77599999 2:0.76800001 3:1 4:1 5:1 
100 1:-0.708 2:0.81599998 3:1 4:1 5:1 
100 1:-0.78399999 2:0.80799997 3:1 4:1 5:1 
100 1:-0.78399999 2:0.79999995 3:1 4:1 5:1 
100 1:-0.78399999 2:0.79200006 3:1 4:1 5:1 
100 1:-0.77599999 2:0.79200006 3:1 4:1 5:1 
100 1:-0.998 2:0.64600003 3:0.88399994 4:0.84800005 5:0.73800004 
100 1:-1 2:0.47399998 3:0.57599998 4:0.57200003 5:0.44000006 
100 1:-1 2:0.45000005 3:0.56799996 4:0.55799997 5:0.41799998 
100 1:-1 2:0.43400002 3:0.58399999 4:0.61399996 5:0.43400002 
29.37676303611649 1:-1 2:0.41600001 3:0.59800005 4:0.65799999 5:0.45200002 
-100 1:-1 2:0.38399994 3:0.58399999 4:0.676 5:0.45799994 
-100 1:-1 2:0.30999994 3:0.44400001 4:0.60800004 5:0.38399994 
-100 1:-1 2:0.28600001 3:0.41600001 4:0.58399999 5:0.35000002 
-23.46067575800425 1:-1 2:0.17999995 3:0.21800005 4:0.35000002 5:0.15999997 
-100 1:-1 2:0.17200005 3:0.21000004 4:0.33000004 5:0.14999998 
100 1:-1 2:0.16400003 3:0.18200004 4:0.30599999 5:0.12600005 
100 1:-1 2:0.16400003 3:0.16600001 4:0.28199995 5:0.11000001 
100 1:-1 2:0.17200005 3:0.13800001 4:0.20200002 5:0.092000008 
100 1:-1 2:0.24600005 3:0.21800005 4:0.21399999 5:0.17200005 
100 1:-1 2:0.26999998 3:0.24000001 4:0.21399999 5:0.19000006 
100 1:-1 2:0.34399998 3:0.27600002 4:0.21399999 5:0.21800005 
100 1:-1 2:0.352 3:0.30599999 4:0.16400003 5:0.21200001 
-100 1:-0.45599997 2:0.73599994 3:0.93799996 4:0.93599999 5:0.91799998 
-99.0987501492101 1:-0.44199997 2:0.73599994 3:0.93799996 4:0.94200003 5:0.92400002 
-100 1:-0.43400002 2:0.74199998 3:0.93799996 4:0.94200003 5:0.92400002 
-100 1:-0.43400002 2:0.73599994 3:0.93200004 4:0.94200003 5:0.91799998 
-100 1:-0.43400002 2:0.74199998 3:0.926 4:0.93599999 5:0.91799998 
-100 1:-0.43400002 2:0.73599994 3:0.926 4:0.93599999 5:0.91799998 
-100 1:-0.44199997 2:0.73599994 3:0.93200004 4:0.93599999 5:0.91799998 
100 1:-0.55000001 2:0.70000005 3:0.926 4:0.93599999 5:0.91799998 
100 1:-0.558 2:0.69200003 3:0.926 4:0.93599999 5:0.91799998 
100 1:-0.59999999 2:0.68599999 3:0.926 4:0.93599999 5:0.91400003 
100 1:-0.752 2:0.71399999 3:0.93799996 4:0.93599999 5:0.90999997 
100 1:-0.758 2:0.71399999 3:0.93799996 4:0.93599999 5:0.90999997 
100 1:-0.874 2:0.67799997 3:0.93200004 4:0.94799995 5:0.90999997 
63.38508448501381 1:-0.866 2:0.67799997 3:0.91999996 4:0.93200004 5:0.91400003 
100 1:-0.83 2:0.69200003 3:0.926 4:0.926 5:0.90999997 
100 1:-0.808 2:0.70000005 3:0.926 4:0.926 5:0.90999997 
100 1:-0.78 2:0.70599997 3:0.926 4:0.91999996 5:0.89999998 
100 1:-0.772 2:0.70599997 3:0.91999996 4:0.91999996 5:0.89999998 
100 1:-0.788 2:0.70000005 3:0.91999996 4:0.91400003 5:0.89600003 
100 1:-0.816 2:0.69200003 3:0.91999996 4:0.91400003 5:0.89600003 
-100 1:-0.91 2:0.65600002 3:0.90799999 4:0.90799999 5:0.88600004 
100 1:-0.974 2:0.64999998 3:0.90799999 4:0.91999996 5:0.89199996 
100 1:-0.966 2:0.64999998 3:0.91400003 4:0.926 5:0.88600004 
1.792738193569819 1:-0.96 2:0.64999998 3:0.91400003 4:0.93200004 5:0.89199996 
100 1:-0.96 2:0.65600002 3:0.926 4:0.94799995 5:0.89999998 
100 1:-0.96 2:0.66400003 3:0.926 4:0.94799995 5:0.89999998 
100 1:-0.96 2:0.65600002 3:0.93200004 4:0.954 5:0.90400004 
100 1:-0.938 2:0.65600002 3:0.91999996 4:0.954 5:0.91799998 
100 1:-0.952 2:0.64999998 3:0.89600003 4:0.91999996 5:0.89999998 
100 1:-0.974 2:0.64199996 3:0.88999999 4:0.91999996 5:0.89199996 
-100 1:-1 2:0.60599995 3:0.88399994 4:0.90799999 5:0.87800002 
-100 1:-1 2:0.60599995 3:0.88399994 4:0.90199995 5:0.87800002 
-100 1:-1 2:0.60000002 3:0.88399994 4:0.90199995 5:0.87800002 
-100 1:-1 2:0.60000002 3:0.87800002 4:0.90199995 5:0.87800002 
100 1:-1 2:0.62199998 3:0.87 4:0.89600003 5:0.88199997 
2.574464291285858 1:-1 2:0.62199998 3:0.87 4:0.89600003 5:0.88600004 
100 1:-1 2:0.62800002 3:0.87 4:0.88999999 5:0.88199997 
100 1:-1 2:0.63600004 3:0.86399996 4:0.88999999 5:0.88600004 
100 1:-1 2:0.64199996 3:0.86399996 4:0.89600003 5:0.90400004 
100 1:-1 2:0.64199996 3:0.86399996 4:0.90199995 5:0.93799996 
100 1:-1 2:0.64999998 3:0.89600003 4:1 5:1 
-100 1:-1 2:0.65600002 3:0.95599997 4:1 5:1 
-100 1:-1 2:0.65600002 3:0.97399998 4:1 5:1 
-100 1:-1 2:0.66400003 3:0.97399998 4:1 5:1 
-34.32658745089309 1:-1 2:0.67799997 3:0.98599994 4:1 5:1 
-100 1:-0.93 2:0.70000005 3:1 4:1 5:1 
-100 1:-0.966 2:0.66400003 3:1 4:1 5:0.92400002 
100 1:-0.996 2:0.64999998 3:0.97399998 4:1 5:0.92400002 
100 1:-0.996 2:0.64199996 3:0.96200001 4:1 5:0.92400002 
100 1:-1 2:0.61399996 3:0.926 4:1 5:0.89999998 
100 1:-1 2:0.60000002 3:0.90199995 4:1 5:0.89999998 
100 1:-1 2:0.57799995 3:0.84599996 4:1 5:0.91799998 
-100 1:-1 2:0.54999995 3:0.79200006 4:0.93200004 5:0.89199996 
-100 1:-1 2:0.47800004 3:0.68200004 4:0.80400002 5:0.75999999 
100 1:-0.988 2:0.62199998 3:0.88999999 4:0.93200004 5:0.83000004 
100 1:-0.938 2:0.64999998 3:0.91999996 4:0.94799995 5:0.87199998 
-100 1:-0.894 2:0.68599999 3:0.96800005 4:1 5:0.98399997 
-100 1:-0.93 2:0.68599999 3:0.98000002 4:1 5:1 
-100 1:-0.91 2:0.68599999 3:0.98599994 4:1 5:1 
100 1:-0.938 2:0.64999998 3:0.926 4:1 5:0.92799997 
100 1:-0.96 2:0.63600004 3:0.90799999 4:1 5:0.91400003 
100 1:-1 2:0.55599999 3:0.77999997 4:0.97800004 5:0.89600003 
100 1:-1 2:0.50600004 3:0.68799996 4:0.88 5:0.85399997 
100 1:-1 2:0.42799997 3:0.54200006 4:0.78199995 5:0.71800005 
100 1:-1 2:0.41400003 3:0.51199996 4:0.75800002 5:0.676 
100 1:-1 2:0.40799999 3:0.48000002 4:0.71200001 5:0.62 
77.10306947000872 1:-1 2:0.40799999 3:0.48000002 4:0.70000005 5:0.61199999 
-100 1:-0.894 2:0.46399999 3:0.51199996 4:0.70000005 5:0.59200001 
-87.7953648863631 1:-0.916 2:0.62800002 3:0.87800002 4:0.88999999 5:0.72800004 
-100 1:-1 2:0.60599995 3:0.91999996 4:0.93200004 5:0.83599997 
-100 1:-1 2:0.60000002 3:0.94400001 4:0.972 5:0.92400002 
-100 1:-1 2:0.61399996 3:0.93799996 4:1 5:1 
-100 1:-1 2:0.60599995 3:0.94400001 4:1 5:1 
-100 1:-1 2:0.61399996 3:0.98000002 4:1 5:0.99399996 
-100 1:-0.96 2:0.62800002 3:0.95000005 4:1 5:0.90999997 
-100 1:-1 2:0.58599997 3:0.89600003 4:1 5:0.89600003 
-98.77739966946471 1:-1 2:0.56400001 3:0.84599996 4:1 5:0.89999998 
-100 1:-1 2:0.53600001 3:0.78600001 4:0.954 5:0.88199997 
-100 1:-1 2:0.5 3:0.70000005 4:0.86199999 5:0.85000002 
-100 1:-1 2:0.46399999 3:0.63399994 4:0.78600001 5:0.80200005 
100 1:-1 2:0.43599999 3:0.52400005 4:0.71800005 5:0.67200005 
-100 1:-1 2:0.40799999 3:0.47399998 4:0.64199996 5:0.63 
-100 1:-1 2:0.39999998 3:0.47399998 4:0.648 5:0.62 
100 1:-1 2:0.46399999 3:0.56599998 4:0.69400001 5:0.55599999 
100 1:-0.78 2:0.57200003 3:0.66999996 4:0.72399998 5:0.52400005 
-100 1:-0.858 2:0.64199996 3:0.85800004 4:0.86199999 5:0.676 
-100 1:-1 2:0.60599995 3:0.90799999 4:0.97800004 5:0.93799996 
-100 1:-1 2:0.62199998 3:0.926 4:1 5:0.97000003 
-100 1:-0.988 2:0.62800002 3:0.93200004 4:1 5:0.96599996 
100 1:-0.802 2:0.66999996 3:0.93200004 4:1 5:0.91400003 
-100 1:-1 2:0.42200005 3:0.51199996 4:0.67799997 5:0.648 
100 1:-0.924 2:0.50600004 3:0.602 4:0.69400001 5:0.55999994 
100 1:-0.824 2:0.61399996 3:0.75600004 4:0.75800002 5:0.53799999 
-100 1:-0.816 2:0.64999998 3:0.83399999 4:0.82200003 5:0.648 
-100 1:-0.874 2:0.64999998 3:0.91999996 4:0.926 5:0.83599997 
-100 1:-0.88 2:0.64999998 3:0.926 4:0.94200003 5:0.85800004 
-100 1:-0.894 2:0.64999998 3:0.95000005 4:1 5:0.95200002 
-100 1:-0.888 2:0.64199996 3:0.93799996 4:1 5:0.96599996 
-100 1:-0.888 2:0.64199996 3:0.93799996 4:1 5:0.96000004 
100 1:-0.62200001 2:0.62800002 3:0.88999999 4:0.96599996 5:0.88600004 
-96.78424121928842 1:-0.67199999 2:0.61399996 3:0.84000003 4:0.93200004 5:0.84399998 
-100 1:-0.69999999 2:0.61399996 3:0.81599998 4:0.90199995 5:0.82200003 
-100 1:-0.752 2:0.61399996 3:0.78600001 4:0.86199999 5:0.78400004 
-100 1:-0.866 2:0.48599994 3:0.59000003 4:0.70000005 5:0.602 
-100 1:-0.88 2:0.45000005 3:0.51199996 4:0.64199996 5:0.54999995 
-100 1:-0.888 2:0.45000005 3:0.51199996 4:0.64199996 5:0.546 
100 1:-0.858 2:0.5 3:0.59000003 4:0.67200005 5:0.52400005 
100 1:-0.788 2:0.58599997 3:0.69400001 4:0.70599997 5:0.53199995 
44.55389577343094 1:-0.78 2:0.60000002 3:0.71800005 4:0.72399998 5:0.546 
-100 1:-0.794 2:0.64999998 3:0.85800004 4:0.84399998 5:0.75999999 
-100 1:-0.852 2:0.64999998 3:0.90799999 4:0.91999996 5:0.86800003 
-100 1:-0.866 2:0.64999998 3:0.91400003 4:0.93200004 5:0.88199997 
-100 1:-0.91 2:0.64199996 3:0.93200004 4:0.97800004 5:0.92799997 
-100 1:-0.924 2:0.64199996 3:0.93200004 4:0.98800004 5:0.94200003 
-100 1:-0.946 2:0.63600004 3:0.93200004 4:0.99399996 5:0.96000004 
-100 1:-0.96 2:0.62800002 3:0.91999996 4:0.98800004 5:0.95599997 
-100 1:0.57599998 2:1 3:0.972 4:1 5:0.75600004 
-100 1:0.57000005 2:1 3:0.972 4:1 5:0.75600004 
-61.47841444122117 1:0.55799997 2:1 3:0.96599996 4:1 5:0.74399996 
100 1:0.39400005 2:1 3:0.99800003 4:1 5:0.73800004 
100 1:0.34000003 2:1 3:1 4:1 5:0.73199999 
82.39844667576591 1:0.30999994 2:1 3:1 4:1 5:0.73199999 
-63.28733889673278 1:0.05400002 2:1 3:1 4:1 5:0.69400001 
-100 1:0.036000013 2:1 3:1 4:1 5:0.68799996 
100 1:-0.050000012 2:1 3:0.98599994 4:0.97800004 5:0.66600001 
100 1:-0.061999977 2:0.99199998 3:0.972 4:0.97399998 5:0.66600001 
100 1:-0.079999983 2:0.98399997 3:0.972 4:0.96800005 5:0.65999997 
100 1:-0.092000008 2:0.97599995 3:0.972 4:0.96200001 5:0.65999997 
32.50247450341493 1:-0.09799999 2:0.96800005 3:0.97800004 4:0.95799994 5:0.65999997 
-100 1:-0.134 2:0.90600002 3:1 4:0.96200001 5:0.65400004 
-100 1:-0.13999999 2:0.86600006 3:0.99800003 4:0.95200002 5:0.63800001 
-100 1:-0.09799999 2:0.91400003 3:1 4:0.94599998 5:0.63199997 
-100 1:-0.061999977 2:0.94400001 3:0.99199998 4:0.92999995 5:0.65400004 
-100 1:0.065999985 2:1 3:0.96000004 4:0.91400003 5:0.68799996 
-100 1:0.13399994 2:1 3:0.954 4:0.90799999 5:0.68799996 
-100 1:0.14600003 2:1 3:0.92799997 4:0.89199996 5:0.68799996 
-100 1:0.13399994 2:1 3:0.93400002 4:0.89199996 5:0.68799996 
100 1:0.50399995 2:1 3:0.87800002 4:0.84399998 5:0.67200005 
100 1:0.57599998 2:1 3:0.87 4:0.83800006 5:0.67200005 
100 1:0.64999998 2:1 3:0.87800002 4:0.83800006 5:0.67200005 
-4.903152304341144 1:0.82599998 2:1 3:0.79400003 4:0.898 5:0.54799998 
-100 1:0.78799999 2:1 3:0.76199996 4:0.87 5:0.56599998 
-100 1:0.72800004 2:1 3:0.75 4:0.84399998 5:0.57599998 
-100 1:0.704 2:1 3:0.74399996 4:0.83200002 5:0.58200002 
-100 1:0.61800003 2:1 3:0.73800004 4:0.80999994 5:0.61000001 
-100 1:0.56400001 2:1 3:0.75 4:0.79999995 5:0.63199997 
100 1:0.48599994 2:1 3:0.78799999 4:0.80599999 5:0.68799996 
88.84662551017935 1:0.454 2:1 3:0.79400003 4:0.80999994 5:0.71000004 
100 1:0.48000002 2:1 3:0.80799997 4:0.83800006 5:0.722 
64.83416363009638 1:0.49199998 2:1 3:0.81400001 4:0.86000001 5:0.72800004 
-100 1:0.41199994 2:1 3:0.85800004 4:0.87600005 5:0.83800006 
-100 1:0.34000003 2:1 3:0.85800004 4:0.86000001 5:0.88399994 
100 1:0.23000002 2:1 3:0.89600003 4:0.91400003 5:0.99600005 
100 1:0.472 2:1 3:0.99800003 4:1 5:1 
100 1:0.49800003 2:1 3:1 4:1 5:1 
100 1:0.57000005 2:1 3:0.99800003 4:1 5:1 
-100 1:0.60000002 2:1 3:0.954 4:0.96800005 5:0.97800004 
-100 1:0.528 2:1 3:0.97800004 4:0.90799999 5:0.98399997 
-20.36637270061895 1:0.48599994 2:1 3:1 4:0.88600004 5:0.99000001 
-100 1:0.24199998 2:1 3:1 4:0.82200003 5:0.91799998 
100 1:0.042000055 2:1 3:0.96599996 4:0.78400004 5:0.85000002 
100 1:0.011999965 2:1 3:0.94799995 4:0.77199996 5:0.83800006 
9.823430160252286 1:-0.012000024 2:0.90600002 3:0.99199998 4:0.78799999 5:0.83399999 
100 1:-0.018000007 2:0.88199997 3:0.97800004 4:0.778 5:0.82799995 
100 1:-0.023999989 2:0.86600006 3:0.96599996 4:0.76800001 5:0.82200003 
100 1:0.05400002 2:1 3:0.91600001 4:0.73399997 5:0.81599998 
-100 1:0.10800004 2:1 3:0.91600001 4:0.72399998 5:0.80999994 
-77.20748668982296 1:0.095999956 2:1 3:0.90799999 4:0.71800005 5:0.80999994 
100 1:0.072000027 2:1 3:0.86399996 4:0.68599999 5:0.79999995 
100 1:0.49800003 2:1 3:0.82000005 4:0.66999996 5:0.82200003 
100 1:0.61800003 2:1 3:0.80799997 4:0.66999996 5:0.82200003 
100 1:0.77600002 2:1 3:0.79999995 4:0.66999996 5:0.85599995 
100 1:0.73399997 2:1 3:0.79400003 4:0.66400003 5:0.85000002 
100 1:0.722 2:1 3:0.78799999 4:0.66999996 5:0.85000002 
85.94138774132877 1:0.722 2:1 3:0.78799999 4:0.66999996 5:0.84399998 
100 1:0.72800004 2:1 3:0.78799999 4:0.66999996 5:0.85000002 
-100 1:0.63600004 2:1 3:0.76199996 4:0.63199997 5:0.81599998 
-100 1:0.58200002 2:1 3:0.75600004 4:0.62600005 5:0.82200003 
-28.81683985798655 1:0.30999994 2:0.96800005 3:0.76199996 4:0.62 5:0.82200003 
-100 1:0.32799995 2:0.98399997 3:0.78199995 4:0.64199996 5:0.83399999 
100 1:0.51600003 2:0.96800005 3:0.82599998 4:0.67999995 5:0.86199999 
100 1:0.57000005 2:0.92200005 3:0.85800004 4:0.73000002 5:0.89999998 
-32.42173980123408 1:0.88600004 2:1 3:0.90799999 4:0.88199997 5:0.98399997 
-100 1:0.72800004 2:0.96000004 3:0.92200005 4:0.81599998 5:0.92200005 
-100 1:0.71000004 2:0.93599999 3:0.94799995 4:0.81599998 5:0.91799998 
-11.19750522992192 1:0.69799995 2:0.92799997 3:0.94799995 4:0.81599998 5:0.91799998 
61.79637383218645 1:0.63600004 2:0.88199997 3:0.92200005 4:0.79999995 5:0.90600002 
100 1:0.55200005 2:0.86600006 3:0.90799999 4:0.78400004 5:0.89999998 
-100 1:0.39400005 2:0.93599999 3:0.88999999 4:0.76199996 5:0.88399994 
-100 1:0.28999996 2:1 3:0.84599996 4:0.74000001 5:0.86600006 
100 1:0.15199995 2:0.96800005 3:0.83200002 4:0.71800005 5:0.84399998 
93.44420030571405 1:0.18200004 2:0.98399997 3:0.82599998 4:0.71800005 5:0.83800006 
-77.76262540416316 1:0.44799995 2:1 3:0.79999995 4:0.73399997 5:0.86199999 
-100 1:0.74600005 2:1 3:0.77600002 4:0.68599999 5:0.78799999 
-100 1:0.75199997 2:1 3:0.78199995 4:0.68599999 5:0.78799999 
-100 1:0.78799999 2:1 3:0.78199995 4:0.67999995 5:0.79400003 
-100 1:0.81799996 2:1 3:0.78199995 4:0.68599999 5:0.80999994 
-100 1:0.79400003 2:1 3:0.77600002 4:0.67999995 5:0.81599998 
-100 1:0.74600005 2:1 3:0.76199996 4:0.67400002 5:0.82799995 
-100 1:0.68599999 2:1 3:0.74399996 4:0.66999996 5:0.83399999 
-100 1:0.66799998 2:1 3:0.74399996 4:0.66999996 5:0.83399999 
100 1:0.56400001 2:0.94400001 3:0.78799999 4:0.67999995 5:0.85000002 
100 1:0.55799997 2:0.94400001 3:0.79400003 4:0.68599999 5:0.85000002 
100 1:0.52199996 2:0.97599995 3:0.77600002 4:0.67999995 5:0.85000002 
-73.03191134758309 1:0.852 2:1 3:1 4:1 5:0.93200004 
100 1:0.60399997 2:1 3:1 4:0.98399997 5:0.898 
100 1:0.55200005 2:1 3:1 4:0.97800004 5:0.88600004 
100 1:0.47399998 2:1 3:1 4:0.96599996 5:0.86199999 
-100 1:0.33000004 2:0.93799996 3:0.99399996 4:0.91600001 5:0.79400003 
-100 1:0.30400002 2:0.954 3:0.95000005 4:0.898 5:0.778 
-100 1:0.26999998 2:0.97000003 3:0.95599997 4:0.89199996 5:0.77199996 
100 1:0.019999981 2:0.97000003 3:0.92799997 4:0.88 5:0.73199999 
100 1:-0.040000021 2:0.954 3:0.93400002 4:0.87399995 5:0.73199999 
100 1:-0.116 2:0.93799996 3:0.97800004 4:0.88600004 5:0.72599995 
100 1:-0.14200002 2:0.92200005 3:0.99399996 4:0.89199996 5:0.71399999 
100 1:-0.20999998 2:0.90600002 3:1 4:0.88600004 5:0.69799995 
100 1:-0.236 2:0.88999999 3:0.99399996 4:0.88600004 5:0.69200003 
100 1:-0.24400002 2:0.88999999 3:0.99399996 4:0.88 5:0.69200003 
100 1:-0.26200002 2:0.88999999 3:0.98599994 4:0.87399995 5:0.67400002 
100 1:-0.236 2:0.90600002 3:0.97800004 4:0.86600006 5:0.65799999 
100 1:-0.22799999 2:0.90600002 3:0.97800004 4:0.86600006 5:0.65199995 
-100 1:-0.10799998 2:0.92200005 3:0.95000005 4:0.84800005 5:0.65199995 
-100 1:0.011999965 2:0.954 3:0.91199994 4:0.83000004 5:0.66799998 
-100 1:0.25199997 2:0.97000003 3:0.898 4:0.83599997 5:0.65799999 
-100 1:0.26999998 2:0.954 3:0.90600002 4:0.83599997 5:0.64600003 
-100 1:0.25999999 2:0.954 3:0.898 4:0.83599997 5:0.64600003 
100 1:0.46599996 2:0.98000002 3:0.84599996 4:0.85399997 5:0.60000002 
100 1:0.54400003 2:1 3:0.84599996 4:0.85399997 5:0.60000002 
100 1:0.57000005 2:1 3:0.84599996 4:0.85399997 5:0.60599995 
100 1:0.63800001 2:1 3:0.85399997 4:0.84800005 5:0.60599995 
100 1:0.65400004 2:1 3:0.85399997 4:0.84800005 5:0.60599995 
74.26410996682716 1:1 2:1 3:0.88399994 4:0.79400003 5:0.68599999 
100 1:1 2:1 3:0.88399994 4:0.78600001 5:0.71399999 
100 1:1 2:1 3:0.88399994 4:0.77999997 5:0.72599995 
100 1:1 2:1 3:0.88399994 4:0.78600001 5:0.73199999 
100 1:1 2:1 3:0.87600005 4:0.79400003 5:0.73199999 
100 1:1 2:1 3:0.86800003 4:0.83000004 5:0.74800003 
100 1:0.99000001 2:0.99600005 3:0.86199999 4:0.84200001 5:0.76600003 
100 1:0.954 2:0.98800004 3:0.86199999 4:0.85399997 5:0.76600003 
100 1:0.82599998 2:0.98000002 3:0.86800003 4:0.83599997 5:0.81799996 
-100 1:0.58599997 2:0.97000003 3:0.898 4:0.80599999 5:0.88 
-100 1:0.46599996 2:0.93799996 3:0.94200003 4:0.83000004 5:0.88 
-100 1:0.42400002 2:0.92999995 3:0.96399999 4:0.84200001 5:0.87399995 
-100 1:0.57799995 2:0.96200001 3:0.972 4:0.88 5:0.86800003 
60.01854356775555 1:0.852 2:0.83200002 3:1 4:0.86000001 5:0.79999995 
-100 1:0.296 2:0.97000003 3:0.90600002 4:0.78600001 5:0.778 
8.964132043547286 1:0.080000043 2:0.96200001 3:0.88999999 4:0.77400005 5:0.75399995 
-100 1:0.037999988 2:0.93799996 3:0.93400002 4:0.78600001 5:0.73199999 
-100 1:0.23599994 2:0.97000003 3:0.88399994 4:0.76800001 5:0.69200003 
-58.47554653549159 1:0.23599994 2:0.97000003 3:0.88399994 4:0.77400005 5:0.68599999 
77.78900808533646 1:0.34599996 2:0.92999995 3:0.91199994 4:0.76199996 5:0.69799995 
100 1:0.52600002 2:0.98800004 3:0.84000003 4:0.80599999 5:0.69200003 
100 1:0.64600003 2:1 3:0.84599996 4:0.81200004 5:0.67999995 
-100 1:0.78400004 2:1 3:0.84599996 4:0.81200004 5:0.66400003 
-100 1:0.83399999 2:1 3:0.84000003 4:0.81799996 5:0.65799999 
-100 1:0.86000001 2:1 3:0.83200002 4:0.81799996 5:0.66400003 
-88.59301484445378 1:1 2:1 3:0.83200002 4:0.80599999 5:0.66799998 
-100 1:1 2:1 3:0.83200002 4:0.79999995 5:0.67400002 
-100 1:1 2:1 3:0.824 4:0.79999995 5:0.66799998 
-100 1:1 2:1 3:0.83200002 4:0.79999995 5:0.66799998 
-100 1:1 2:1 3:0.84000003 4:0.79400003 5:0.67400002 
-100 1:1 2:1 3:0.88399994 4:0.74399996 5:0.70799994 
-100 1:1 2:1 3:0.87600005 4:0.73800004 5:0.72599995 
100 1:0.98000002 2:1 3:0.85399997 4:0.79400003 5:0.74399996 
30.77484769254684 1:0.99000001 2:1 3:0.84599996 4:0.79400003 5:0.74800003 
100 1:0.82599998 2:0.99600005 3:0.824 4:0.78600001 5:0.79400003 
100 1:0.62 2:0.99600005 3:0.83200002 4:0.79999995 5:0.81799996 
-100 1:0.50999999 2:0.92999995 3:0.92799997 4:0.84800005 5:0.84599996 
-11.44385647967897 1:0.67200005 2:0.99600005 3:0.90600002 4:0.86000001 5:0.82799995 
-100 1:0.76600003 2:0.89199996 3:0.88999999 4:1 5:0.81200004 
-22.23596618988727 1:0.76600003 2:0.88399994 3:0.87800002 4:1 5:0.80200005 
-100 1:0.83800006 2:0.91400003 3:0.88999999 4:1 5:0.73800004 
100 1:1 2:1 3:0.88399994 4:0.98800004 5:0.74199998 
100 1:1 2:1 3:0.87800002 4:0.97800004 5:0.74600005 
100 1:1 2:0.99199998 3:0.88399994 4:0.97800004 5:0.75199997 
-100 1:1 2:0.99199998 3:0.926 4:1 5:0.78400004 
-100 1:1 2:1 3:0.93799996 4:1 5:0.80200005 
-100 1:1 2:1 3:0.93799996 4:1 5:0.80799997 
-100 1:1 2:0.99199998 3:0.93200004 4:1 5:0.81599998 
-100 1:1 2:0.97000003 3:0.91400003 4:1 5:0.82599998 
-100 1:1 2:0.97000003 3:0.91400003 4:1 5:0.83000004 
-65.69456585523909 1:1 2:0.96399999 3:0.90799999 4:1 5:0.83000004 
100 1:1 2:0.97000003 3:0.86399996 4:0.96000004 5:0.79400003 
-100 1:0.60000002 2:0.94200003 3:0.84599996 4:0.972 5:0.79400003 
-100 1:0.50600004 2:0.90600002 3:0.83399999 4:0.972 5:0.80799997 
-100 1:0.35599995 2:0.84200001 3:0.82200003 4:0.972 5:0.85800004 
-100 1:0.40600002 2:0.85000002 3:0.82799995 4:0.972 5:0.86399996 
100 1:0.90199995 2:0.86399996 3:0.84599996 4:0.98399997 5:0.86399996 
39.10714328159321 1:0.97399998 2:0.88399994 3:0.85800004 4:0.98800004 5:0.86399996 
100 1:1 2:0.87800002 3:0.85800004 4:0.98800004 5:0.85399997 
100 1:1 2:0.87800002 3:0.852 4:0.98800004 5:0.85399997 
100 1:1 2:0.87 3:0.852 4:0.99399996 5:0.83000004 
100 1:1 2:0.86399996 3:0.852 4:0.99399996 5:0.83000004 
100 1:1 2:0.86399996 3:0.87 4:0.99399996 5:0.82599998 
100 1:0.852 2:0.76400006 3:0.852 4:0.97800004 5:0.81599998 
-100 1:0.50600004 2:0.86399996 3:0.852 4:0.96599996 5:0.79400003 
-100 1:0.44200003 2:0.85599995 3:0.84000003 4:0.954 5:0.77999997 
-100 1:0.41999996 2:0.85599995 3:0.84000003 4:0.94799995 5:0.76999998 
-100 1:0.41999996 2:0.85599995 3:0.84599996 4:0.94799995 5:0.76600003 
-40.89123515989162 1:0.45000005 2:0.86399996 3:0.84599996 4:0.94200003 5:0.75600004 
100 1:0.60800004 2:0.89199996 3:0.83399999 4:0.926 5:0.73199999 
100 1:0.70000005 2:0.88399994 3:0.82799995 4:0.91999996 5:0.73800004 
100 1:0.73599994 2:0.87800002 3:0.82799995 4:0.91999996 5:0.74199998 
100 1:0.75800002 2:0.88399994 3:0.82200003 4:0.91400003 5:0.74600005 
-100 1:0.91600001 2:0.75600004 3:0.80400002 4:0.90199995 5:0.78400004 
-100 1:0.93799996 2:0.76400006 3:0.79200006 4:0.89600003 5:0.77999997 
-100 1:0.96599996 2:0.76400006 3:0.79799998 4:0.89600003 5:0.77999997 
-100 1:1 2:0.778 3:0.77999997 4:0.88999999 5:0.77400005 
-100 1:0.91600001 2:0.78600001 3:0.78600001 4:0.90199995 5:0.81200004 
-100 1:0.87399995 2:0.79200006 3:0.79200006 4:0.90799999 5:0.83000004 
12.9994690715643 1:1 2:0.90600002 3:0.83399999 4:1 5:0.78400004 
100 1:1 2:0.90600002 3:0.82200003 4:1 5:0.77400005 
100 1:1 2:0.91400003 3:0.80999994 4:1 5:0.75999999 
2.709147921177075 1:1 2:0.90600002 3:0.79799998 4:1 5:0.74600005 
-61.62320455828232 1:1 2:0.82000005 3:0.77400005 4:1 5:0.79400003 
-100 1:1 2:0.81400001 3:0.76199996 4:1 5:0.80200005 
-100 1:1 2:0.82000005 3:0.76800001 4:1 5:0.79799998 
-100 1:1 2:0.82799995 3:0.76800001 4:1 5:0.78400004 
100 1:1 2:0.86399996 3:0.84000003 4:1 5:0.72800004 
1.024358604833639 1:0.84399998 2:0.82000005 3:0.86399996 4:0.98800004 5:0.90999997 
30.11668386772139 1:0.62800002 2:0.81400001 3:0.81599998 4:0.88 5:0.84399998 
100 1:0.57799995 2:0.79999995 3:0.78600001 4:0.85000002 5:0.80799997 
-100 1:0.59200001 2:0.78600001 3:0.73000002 4:0.76999998 5:0.73800004 
32.40222279145849 1:0.48599994 2:0.73599994 3:0.73599994 4:0.74000001 5:0.71000004 
-100 1:0.398 2:0.70599997 3:0.71200001 4:0.71200001 5:0.69000006 
-100 1:0.35599995 2:0.69200003 3:0.70000005 4:0.70000005 5:0.704 
-100 1:0.34200001 2:0.69200003 3:0.69400001 4:0.68799996 5:0.71399999 
-100 1:0.35599995 2:0.69200003 3:0.69400001 4:0.68799996 5:0.71800005 
-100 1:0.34800005 2:0.70000005 3:0.70000005 4:0.69400001 5:0.69000006 
100 1:0.44200003 2:0.74199998 3:0.74199998 4:0.77600002 5:0.80200005 
-100 1:0.65799999 2:0.78600001 3:0.80999994 4:0.90199995 5:0.93799996 
-100 1:1 2:0.87800002 3:0.98599994 4:1 5:0.73800004 
-100 1:1 2:0.88399994 3:0.98000002 4:1 5:0.73800004 
8.518697021403501 1:1 2:0.82000005 3:0.89600003 4:1 5:0.69000006 
100 1:1 2:0.84200001 3:0.88999999 4:1 5:0.676 
36.13446474801572 1:1 2:0.84200001 3:0.89600003 4:1 5:0.66799998 
100 1:0.89400005 2:0.82000005 3:0.87800002 4:1 5:0.81599998 
32.05969121531596 1:0.75199997 2:0.78600001 3:0.85800004 4:0.97800004 5:0.84000003 
7.331377252202354 1:0.33399999 2:0.73599994 3:0.87800002 4:0.91999996 5:0.84399998 
100 1:0.29200006 2:0.73599994 3:0.87 4:0.91400003 5:0.83599997 
100 1:0.28400004 2:0.72800004 3:0.87 4:0.91400003 5:0.83599997 
100 1:0.16799998 2:0.79999995 3:0.82200003 4:0.88999999 5:0.82599998 
100 1:0.13999999 2:0.80599999 3:0.80999994 4:0.88600004 5:0.82200003 
100 1:0.095999956 2:0.80599999 3:0.80400002 4:0.88600004 5:0.81599998 
100 1:0.075999975 2:0.80599999 3:0.80400002 4:0.88600004 5:0.81200004 
100 1:0.075999975 2:0.79999995 3:0.79200006 4:0.88 5:0.80200005 
100 1:0.12600005 2:0.81400001 3:0.79799998 4:0.88 5:0.79799998 
38.17054975870759 1:0.21200001 2:0.81400001 3:0.79799998 4:0.87399995 5:0.78400004 
50.13919694874291 1:0.47000003 2:0.84200001 3:0.79799998 4:0.86800003 5:0.75999999 
100 1:0.48599994 2:0.84200001 3:0.79799998 4:0.86800003 5:0.75999999 
100 1:0.54200006 2:0.85599995 3:0.80999994 4:0.86800003 5:0.75600004 
100 1:0.61399996 2:0.87 3:0.80999994 4:0.87399995 5:0.75199997 
100 1:0.68599999 2:0.84200001 3:0.79799998 4:0.86800003 5:0.74199998 
100 1:0.15799999 2:0.24800003 3:-0.82799999 4:-1 5:-0.882 
-100 1:0.15199995 2:0.21599996 3:-0.82799999 4:-1 5:-0.948 
-100 1:0.12 2:0.24800003 3:-0.81999999 4:-1 5:-0.966 
-100 1:0.12 2:0.25600004 3:-0.81999999 4:-1 5:-0.97 
100 1:0.24800003 2:0.25600004 3:-0.82799999 4:-1 5:-0.854 
52.11386333950426 1:0.44200003 2:0.296 3:-0.814 4:-1 5:-0.758 
100 1:0.296 2:0.31200004 3:-0.808 4:-1 5:-1 
100 1:0.28999996 2:0.31200004 3:-0.808 4:-1 5:-1 
100 1:0.25399995 2:0.31200004 3:-0.808 4:-1 5:-1 
100 1:0.38199997 2:0.44599998 3:-0.814 4:-1 5:-1 
99.6024294932441 1:0.454 2:0.48599994 3:-0.83400001 4:-1 5:-1 
100 1:0.44200003 2:0.47800004 3:-0.83400001 4:-1 5:-1 
-100 1:0.38800001 2:0.398 3:-0.77599999 4:-1 5:-0.976 
-99.55067370050891 1:0.32799995 2:0.38199997 3:-0.78200001 4:-1 5:-0.982 
-100 1:0.31599998 2:0.352 3:-0.788 4:-1 5:-0.97 
-100 1:0.13999999 2:0.25600004 3:-0.81999999 4:-1 5:-1 
-100 1:0.20599997 2:0.25600004 3:-0.814 4:-1 5:-0.982 
100 1:0.20599997 2:0.24000001 3:-0.82799999 4:-1 5:-0.994 
100 1:0.20599997 2:0.24000001 3:-0.82799999 4:-1 5:-0.998 
100 1:0.21200001 2:0.27199996 3:-0.81999999 4:-1 5:-1 
-28.55747078917804 1:0.13399994 2:0.23199999 3:-0.82799999 4:-1 5:-1 
-100 1:0.10800004 2:0.23199999 3:-0.82799999 4:-1 5:-1 
-100 1:0.077999949 2:0.19200003 3:-0.83400001 4:-1 5:-1 
-100 1:0.15199995 2:0.17799997 3:-0.84 4:-1 5:-1 
100 1:0.33399999 2:0.24000001 3:-0.82799999 4:-1 5:-1 
22.66930038506496 1:0.34000003 2:0.24000001 3:-0.82799999 4:-1 5:-1 
-33.89492050822365 1:0.46000004 2:0.36800003 3:-0.788 4:-1 5:-1 
-54.23656586102486 1:0.71000004 2:0.59599996 3:-0.808 4:-1 5:-1 
-48.16502865222516 1:0.22399998 2:0.50199997 3:-0.82799999 4:-1 5:-0.954 
-100 1:0.36399996 2:0.58800006 3:-0.802 4:-1 5:-0.948 
-35.61765125413505 1:0.60599995 2:0.49399996 3:-0.82799999 4:-1 5:-0.932 
100 1:0.85599995 2:0.398 3:-0.78200001 4:-1 5:-0.954 
77.86110426852785 1:0.85599995 2:0.38999999 3:-0.788 4:-1 5:-0.954 
-97.2155488061765 1:0.81200004 2:0.34399998 3:-0.796 4:-1 5:-0.966 
-100 1:0.77600002 2:0.296 3:-0.814 4:-1 5:-0.932 
-100 1:0.55799997 2:0.296 3:-0.814 4:-1 5:-0.86399999 
-17.407640197113 1:-0.079999983 2:0.24000001 3:-0.81999999 4:-1 5:-0.86 
100 1:-0.15200001 2:0.31200004 3:-0.802 4:-1 5:-0.87 
100 1:-0.10399997 2:0.398 3:-0.77599999 4:-1 5:-0.882 
100 1:-0.061999977 2:0.40600002 3:-0.78200001 4:-1 5:-0.888 
-69.36309454825717 1:0.006000042 2:0.38199997 3:-0.78200001 4:-1 5:-0.904 
-100 1:-0.25 2:0.25600004 3:-0.814 4:-1 5:-0.91 
-100 1:0.58599997 2:0.39199996 3:-0.78399999 4:-0.968 5:-0.57600001 
-40.90651444946131 1:0.59399998 2:0.37600005 3:-0.77 4:-0.976 5:-0.58199999 
-100 1:0.58599997 2:0.37600005 3:-0.77 4:-0.968 5:-0.58199999 
-100 1:0.58599997 2:0.36800003 3:-0.778 4:-0.968 5:-0.58199999 
-100 1:0.57799995 2:0.36800003 3:-0.778 4:-0.968 5:-0.58199999 
-100 1:0.59399998 2:0.36800003 3:-0.77 4:-0.968 5:-0.58199999 
-100 1:0.61199999 2:0.37600005 3:-0.77 4:-0.968 5:-0.586 
100 1:0.80999994 2:0.36800003 3:-0.792 4:-0.982 5:-0.58199999 
100 1:0.86000001 2:0.37600005 3:-0.792 4:-0.982 5:-0.58199999 
-46.46487448474711 1:0.99800003 2:0.50600004 3:-0.822 4:-0.988 5:-0.57600001 
100 1:0.67999995 2:0.61199999 3:-0.78399999 4:-0.976 5:-0.55199999 
-100 1:0.44000006 2:0.50600004 3:-0.822 4:-0.988 5:-0.542 
-100 1:0.41400003 2:0.49000001 3:-0.822 4:-0.988 5:-0.542 
-100 1:0.38 2:0.46599996 3:-0.82799999 4:-0.988 5:-0.50600001 
26.24275028582837 1:1 2:0.17999995 3:-0.836 4:-0.988 5:-0.23199999 
-57.14919423560457 1:0.99000001 2:0.090000033 3:-0.866 4:-1 5:-0.26800001 
26.70599843080725 1:0.88600004 2:0.018000007 3:-0.88 4:-1 5:-0.26200002 
26.89687108089177 1:0.87800002 2:0.018000007 3:-0.888 4:-1 5:-0.26200002 
4.868105908380944 1:0.852 2:0.0099999905 3:-0.894 4:-1 5:-0.352 
-14.82940746948334 1:0.71399999 2:-0.0059999824 3:-0.902 4:-1 5:-0.53600001 
100 1:-0.022000015 2:0.057999969 3:-0.866 4:-1 5:-0.49599999 
100 1:-0.10799998 2:0.074000001 3:-0.866 4:-1 5:-0.49599999 
100 1:-0.134 2:0.090000033 3:-0.858 4:-1 5:-0.502 
100 1:-0.14200002 2:0.16400003 3:-0.844 4:-0.994 5:-0.49000001 
100 1:-0.089999974 2:0.21399999 3:-0.822 4:-0.994 5:-0.48400003 
-80.99597654921028 1:-0.055999994 2:0.23000002 3:-0.822 4:-0.988 5:-0.48400003 
-100 1:0.26999998 2:0.28600001 3:-0.8 4:-0.982 5:-0.48400003 
-100 1:0.41400003 2:0.25399995 3:-0.814 4:-0.988 5:-0.48400003 
-100 1:0.41400003 2:0.24600005 3:-0.814 4:-0.988 5:-0.48400003 
-100 1:0.42400002 2:0.23000002 3:-0.822 4:-0.994 5:-0.48400003 
-100 1:0.38 2:0.19599998 3:-0.82799999 4:-0.988 5:-0.48400003 
-100 1:0.24399996 2:0.15600002 3:-0.844 4:-0.994 5:-0.48400003 
100 1:0.176 2:0.10000002 3:-0.858 4:-1 5:-0.49000001 
100 1:0.10599995 2:0.018000007 3:-0.88 4:-1 5:-0.48400003 
100 1:0.046000004 2:-0.047999978 3:-0.902 4:-1 5:-0.48400003 
100 1:-0.022000015 2:-0.10399997 3:-0.87199999 4:-1 5:-0.47799999 
-94.78759938476215 1:-0.14200002 2:-0.18599999 3:-0.858 4:-1 5:-0.472 
-100 1:-0.19400001 2:-0.20200002 3:-0.866 4:-1 5:-0.47799999 
-100 1:-0.28799999 2:-0.21799999 3:-0.87199999 4:-1 5:-0.47799999 
-100 1:-0.296 2:-0.20999998 3:-0.87199999 4:-1 5:-0.48400003 
-100 1:-0.296 2:-0.21799999 3:-0.87199999 4:-1 5:-0.49000001 
-100 1:-0.20200002 2:-0.236 3:-0.87199999 4:-1 5:-0.49599999 
100 1:-0.013999999 2:-0.11199999 3:-0.87199999 4:-1 5:-0.49000001 
-25.66308257452333 1:0.41400003 2:0.049999952 3:-0.87199999 4:-1 5:-0.45599997 
7.822509941274736 1:1 2:0.41600001 3:-0.792 4:-0.976 5:-0.38800001 
61.20882984488043 1:1 2:0.47399998 3:-0.814 4:-0.976 5:-0.352 
-1.898695398462907 1:1 2:0.32799995 3:-0.778 4:-0.944 5:-0.296 
-100 1:0.98000002 2:0.34399998 3:-0.778 4:-0.938 5:-0.278 
6.71078810276964 1:0.99800003 2:0.37600005 3:-0.77 4:-0.95 5:-0.11799997 
-100 1:0.96399999 2:0.37600005 3:-0.77 4:-0.956 5:-0.31199998 
76.54622135794176 1:0.91199994 2:0.30200005 3:-0.8 4:-0.968 5:-0.472 
100 1:1 2:0.41600001 3:-0.814 4:-0.976 5:-0.46799999 
-100 1:0.65400004 2:0.77600002 3:-0.734 4:-0.944 5:-0.38200003 
-56.7444952383351 1:0.65400004 2:0.76800001 3:-0.734 4:-0.944 5:-0.38200003 
50.34015122345215 1:0.50999999 2:0.75 3:-0.734 4:-0.95 5:-0.38800001 
-90.10040900157908 1:0.31200004 2:0.77600002 3:-0.72600001 4:-0.938 5:-0.37 
80.07722267821447 1:0.25199997 2:0.76800001 3:-0.72600001 4:-0.944 5:-0.35799998 
100 1:0.22599995 2:0.75 3:-0.734 4:-0.95 5:-0.35799998 
-100 1:0.31200004 2:0.66999996 3:-0.76199999 4:-0.956 5:-0.37599999 
84.12584338712063 1:0.65400004 2:0.69400001 3:-0.76199999 4:-0.962 5:-0.50600001 
92.34397941079354 1:0.67999995 2:0.69400001 3:-0.76199999 4:-0.962 5:-0.53600001 
100 1:0.39199996 2:0.18599999 3:-0.81 4:-1 5:-0.59999999 
100 1:0.39199996 2:0.18599999 3:-0.80400001 4:-1 5:-0.59999999 
-100 1:0.398 2:0.19400001 3:-0.80400001 4:-0.994 5:-0.59400001 
100 1:0.39199996 2:0.18599999 3:-0.80400001 4:-1 5:-0.59400001 
100 1:0.38399994 2:0.18599999 3:-0.81 4:-1 5:-0.59999999 
100 1:0.37800002 2:0.17799997 3:-0.81 4:-1 5:-0.59999999 
100 1:0.36199999 2:0.17200005 3:-0.80400001 4:-1 5:-0.59999999 
-100 1:0.36199999 2:0.17200005 3:-0.81 4:-0.994 5:-0.59999999 
-100 1:0.36199999 2:0.17200005 3:-0.81 4:-0.994 5:-0.59400001 
-100 1:0.35599995 2:0.17200005 3:-0.81 4:-0.994 5:-0.586 
-100 1:0.35599995 2:0.17200005 3:-0.81 4:-0.994 5:-0.57600001 
-100 1:0.34800005 2:0.16400003 3:-0.81 4:-0.994 5:-0.572 
100 1:0.33399999 2:0.16400003 3:-0.816 4:-1 5:-0.56600001 
-100 1:0.30599999 2:0.15799999 3:-0.816 4:-0.994 5:-0.56200001 
-100 1:0.30599999 2:0.15799999 3:-0.81 4:-0.994 5:-0.558 
-100 1:0.31200004 2:0.16400003 3:-0.81 4:-0.994 5:-0.558 
-100 1:0.29200006 2:0.15799999 3:-0.816 4:-0.994 5:-0.56200001 
-100 1:0.22599995 2:0.16400003 3:-0.81 4:-0.99 5:-0.49800003 
-100 1:0.204 2:0.18599999 3:-0.79799999 4:-0.984 5:-0.49800003 
-100 1:0.204 2:0.19400001 3:-0.79799999 4:-0.984 5:-0.49800003 
-100 1:0.19799995 2:0.20000005 3:-0.79799999 4:-0.984 5:-0.502 
-100 1:0.176 2:0.20000005 3:-0.79799999 4:-0.984 5:-0.51199999 
-100 1:0.176 2:0.19400001 3:-0.79799999 4:-0.984 5:-0.51199999 
-100 1:0.16799998 2:0.19400001 3:-0.79799999 4:-0.984 5:-0.51199999 
-100 1:0.15400004 2:0.18599999 3:-0.79799999 4:-0.984 5:-0.51199999 
-100 1:0.13999999 2:0.17799997 3:-0.80400001 4:-0.984 5:-0.516 
-100 1:0.12600005 2:0.17799997 3:-0.80400001 4:-0.984 5:-0.516 
-100 1:0.11800003 2:0.17799997 3:-0.80400001 4:-0.984 5:-0.516 
-100 1:0.11199999 2:0.17200005 3:-0.80400001 4:-0.984 5:-0.516 
-98.82055607469444 1:0.13999999 2:0.17799997 3:-0.80400001 4:-0.99 5:-0.53 
-100 1:0.19799995 2:0.17200005 3:-0.81 4:-0.99 5:-0.53400001 
-100 1:0.27600002 2:0.15799999 3:-0.816 4:-0.994 5:-0.53799999 
-100 1:0.31200004 2:0.15799999 3:-0.81 4:-0.994 5:-0.544 
98.4520127933266 1:0.37 2:0.15799999 3:-0.816 4:-1 5:-0.60800001 
100 1:0.35599995 2:0.14999998 3:-0.816 4:-1 5:-0.604 
100 1:0.35599995 2:0.16400003 3:-0.816 4:-1 5:-0.604 
100 1:0.36199999 2:0.17799997 3:-0.81 4:-1 5:-0.59999999 
100 1:0.37 2:0.19400001 3:-0.80400001 4:-1 5:-0.59400001 
100 1:0.37800002 2:0.20000005 3:-0.80400001 4:-1 5:-0.586 
-100 1:0.38399994 2:0.20799994 3:-0.79799999 4:-0.994 5:-0.57600001 
100 1:0.37800002 2:0.20000005 3:-0.80400001 4:-1 5:-0.58000001 
100 1:0.37 2:0.20000005 3:-0.80400001 4:-1 5:-0.586 
100 1:0.37 2:0.21399999 3:-0.79799999 4:-1 5:-0.59 
100 1:0.37 2:0.278 3:-0.80400001 4:-0.994 5:-0.58000001 
100 1:0.37800002 2:0.28600001 3:-0.81 4:-1 5:-0.58000001 
60.93186213420593 1:0.30599999 2:0.35000002 3:-0.83 4:-1 5:-0.54800001 
100 1:0.26199996 2:0.37800002 3:-0.822 4:-1 5:-0.516 
100 1:0.24800003 2:0.39999998 3:-0.816 4:-1 5:-0.502 
100 1:0.24800003 2:0.39999998 3:-0.816 4:-1 5:-0.49800003 
100 1:0.32000005 2:0.42200005 3:-0.81 4:-1 5:-0.49800003 
100 1:0.47800004 2:0.45000005 3:-0.80400001 4:-1 5:-0.502 
100 1:0.61399996 2:0.45799994 3:-0.79799999 4:-1 5:-0.502 
-83.99029541062743 1:0.92400002 2:0.39199996 3:-0.822 4:-1 5:-0.50600001 
-100 1:1 2:0.45000005 3:-0.81 4:-1 5:-0.50600001 
-12.54994761986814 1:0.99600005 2:0.44200003 3:-0.81 4:-1 5:-0.502 
-100 1:0.98199999 2:0.42200005 3:-0.816 4:-1 5:-0.49800003 
-100 1:0.92999995 2:0.37199998 3:-0.83 4:-1 5:-0.49199998 
-100 1:0.84399998 2:0.34200001 3:-0.836 4:-1 5:-0.48400003 
100 1:0.67200005 2:0.32200003 3:-0.822 4:-1 5:-0.48400003 
100 1:0.54999995 2:0.29400003 3:-0.816 4:-1 5:-0.48799998 
100 1:0.54200006 2:0.28600001 3:-0.81 4:-1 5:-0.48799998 
100 1:0.45599997 2:0.23599994 3:-0.792 4:-1 5:-0.47799999 
-100 1:0.43400002 2:0.21399999 3:-0.79799999 4:-0.994 5:-0.46399999 
100 1:0.42799997 2:0.21399999 3:-0.79799999 4:-1 5:-0.47000003 
100 1:0.42799997 2:0.21399999 3:-0.80400001 4:-1 5:-0.47000003 
100 1:0.41400003 2:0.21399999 3:-0.79799999 4:-1 5:-0.47000003 
-100 1:0.41400003 2:0.21399999 3:-0.80400001 4:-0.994 5:-0.47399998 
-100 1:0.41400003 2:0.21399999 3:-0.80400001 4:-0.994 5:-0.47000003 
-100 1:0.41400003 2:0.222 3:-0.79799999 4:-0.994 5:-0.46399999 
-34.53765260921642 1:0.41400003 2:0.22800004 3:-0.79799999 4:-0.994 5:-0.46399999 
100 1:0.54999995 2:0.28600001 3:-0.816 4:-1 5:-0.47000003 
100 1:0.18400002 2:0.22800004 3:-0.792 4:-0.994 5:-0.46399999 
100 1:0.10399997 2:0.22800004 3:-0.792 4:-0.99 5:-0.47000003 
100 1:0.082000017 2:0.21399999 3:-0.79799999 4:-0.994 5:-0.47399998 
100 1:0.095999956 2:0.14999998 3:-0.816 4:-1 5:-0.48400003 
100 1:0.11199999 2:0.15799999 3:-0.81 4:-1 5:-0.48799998 
100 1:0.12600005 2:0.15799999 3:-0.81 4:-0.994 5:-0.49199998 
100 1:0.30599999 2:0.13600004 3:-0.816 4:-1 5:-0.49800003 
100 1:0.32000005 2:0.13600004 3:-0.816 4:-1 5:-0.49800003 
100 1:0.33399999 2:0.13600004 3:-0.816 4:-1 5:-0.49800003 
-100 1:0.36199999 2:0.14400005 3:-0.816 4:-0.994 5:-0.49199998 
-100 1:0.36199999 2:0.13600004 3:-0.816 4:-0.994 5:-0.49800003 
35.67852767709266 1:0.56400001 2:-0.14200002 3:-0.89 4:-1 5:-0.502 
-66.94724158220643 1:0.73599994 2:-0.264 3:-0.86 4:-1 5:-0.49199998 
16.56765170730596 1:0.83800006 2:-0.384 3:-0.896 4:-1 5:-0.45599997 
100 1:1 2:0.30799997 3:-0.81 4:-0.96 5:-0.39999998 
100 1:1 2:0.42799997 3:-0.79799999 4:-0.948 5:-0.39999998 
42.21927444427367 1:1 2:0.28600001 3:-0.80400001 4:-0.994 5:-0.618 
100 1:0.67200005 2:0.45000005 3:-0.792 4:-0.984 5:-0.42199999 
100 1:0.54200006 2:0.46399999 3:-0.786 4:-0.978 5:-0.42799997 
-100 1:0.37 2:0.472 3:-0.78 4:-0.972 5:-0.43199998 
-100 1:0.24800003 2:0.472 3:-0.78 4:-0.972 5:-0.43599999 
100 1:-0.089999974 2:0.47800004 3:-0.76800001 4:-0.972 5:-0.43599999 
83.33870753380398 1:-0.22000003 2:0.49199998 3:-0.75 4:-0.96 5:-0.43599999 
66.38128299482382 1:-0.29799998 2:0.528 3:-0.72 4:-0.948 5:-0.43599999 
-100 1:-0.34200001 2:0.52199996 3:-0.708 4:-0.942 5:-0.43599999 
-100 1:-0.25599998 2:0.472 3:-0.68799999 4:-0.926 5:-0.43199998 
-100 1:-0.22600001 2:0.46399999 3:-0.69400001 4:-0.926 5:-0.43199998 
-100 1:-0.12599999 2:0.43599999 3:-0.72 4:-0.938 5:-0.44199997 
100 1:-1 2:-1 3:0.57200003 4:0.528 5:-1 
100 1:-1 2:-1 3:0.56599998 4:0.528 5:-1 
100 1:-1 2:-0.994 3:0.57200003 4:0.52199996 5:-1 
-100 1:-1 2:-1 3:0.50800002 4:0.38199997 5:-1 
-100 1:-1 2:-1 3:0.50800002 4:0.37 5:-1 
-100 1:-1 2:-1 3:0.41199994 4:0.26800001 5:-1 
-100 1:-1 2:-1 3:0.41999996 4:0.28400004 5:-1 
38.27204048794284 1:-1 2:-1 3:0.58399999 4:0.528 5:-1 
-100 1:-1 2:-1 3:0.51400006 4:0.398 5:-1 
-100 1:-1 2:-1 3:0.49600005 4:0.36600006 5:-1 
-100 1:-1 2:-1 3:0.44400001 4:0.29999995 5:-1 
-100 1:-1 2:-1 3:0.39400005 4:0.23599994 5:-1 
-100 1:-1 2:-1 3:0.17799997 4:0.034000039 5:-1 
-100 1:-1 2:-1 3:0.095999956 4:-0.041999996 5:-1 
-100 1:-1 2:-1 3:0.10800004 4:-0.058000028 5:-1 
-100 1:-1 2:-1 3:0.10800004 4:-0.06400001 5:-1 
-9.377672396646004 1:-1 2:-0.978 3:0.66799998 4:0.45200002 5:-1 
-100 1:-1 2:-0.994 3:0.67999995 4:0.46800005 5:-1 
-100 1:-0.904 2:-1 3:0.56599998 4:0.35000002 5:-1 
100 1:-1 2:-1 3:0.50199997 4:0.25600004 5:-1 
100 1:-1 2:-1 3:0.49000001 4:0.23000002 5:-1 
100 1:-1 2:-1 3:0.46399999 4:0.20200002 5:-1 
-100 1:-1 2:-0.97 3:0.39999998 4:0.093999982 5:-1 
100 1:-1 2:-1 3:0.57200003 4:0.30599999 5:-1 
100 1:-0.978 2:-1 3:0.41999996 4:0.10000002 5:-1 
100 1:-0.972 2:-1 3:0.35599995 4:0.018000007 5:-1 
100 1:-0.972 2:-1 3:0.34200001 4:-0.0040000081 5:-1 
100 1:-0.99 2:-1 3:0.026000023 4:-0.24800003 5:-1 
-60.65650516830985 1:-1 2:-1 3:-0.11400002 4:-0.37800002 5:-1 
-100 1:-1 2:-1 3:-0.12199998 4:-0.38999999 5:-1 
100 1:-1 2:-1 3:-0.0059999824 4:-0.296 5:-1 
16.44354077392991 1:-1 2:-1 3:0.102 4:-0.18199998 5:-1 
100 1:-1 2:-0.994 3:0.53999996 4:0.27400005 5:-1 
81.90432632621361 1:-1 2:-0.986 3:0.546 4:0.28400004 5:-1 
-21.86547192176108 1:-1 2:-1 3:0.69200003 4:0.49600005 5:-1 
-100 1:-0.942 2:-1 3:0.64199996 4:0.398 5:-1 
-87.61735642436193 1:-0.88 2:-0.994 3:0.61000001 4:0.35399997 5:-1 
-100 1:-0.886 2:-1 3:0.47599995 4:0.27400005 5:-1 
-34.99914451732295 1:-0.868 2:-0.994 3:0.49000001 4:0.28999996 5:-1 
-44.952642336598 1:-0.844 2:-0.978 3:0.35000002 4:0.12199998 5:-1 
-100 1:-0.84999999 2:-0.978 3:0.25999999 4:0.077999949 5:-1 
-100 1:-0.868 2:-0.986 3:0.222 4:0.055999994 5:-1 
-20.48424347648765 1:-0.924 2:-1 3:0.204 4:0.027999997 5:-1 
-55.60405966567942 1:-0.85600001 2:-0.97 3:0.76999998 4:0.52199996 5:-1 
74.69670076818879 1:-0.85600001 2:-0.97 3:0.51400006 4:0.26800001 5:-1 
100 1:-0.82600001 2:-0.962 3:0.63 4:0.40799999 5:-1 
100 1:-0.82600001 2:-0.962 3:0.62199998 4:0.40400004 5:-1 
100 1:-0.838 2:-0.97 3:0.49600005 4:0.23599994 5:-1 
100 1:-0.912 2:-1 3:0.12 4:-0.12800002 5:-1 
100 1:-0.924 2:-1 3:0.10800004 4:-0.13999999 5:-1 
100 1:-0.936 2:-1 3:0.095999956 4:-0.14999998 5:-1 
-100 1:-1 2:-0.986 3:0.33599997 4:-0.013999999 5:-1 
-100 1:-1 2:-0.986 3:0.324 4:-0.013999999 5:-1 
45.09013454155257 1:-1 2:-1 3:0.37399995 4:0.10399997 5:-1 
100 1:-1 2:-1 3:0.38199997 4:0.11600006 5:-1 
-69.24684977958046 1:-1 2:-1 3:0.43200004 4:0.26800001 5:-1 
-39.118216669616 1:-0.954 2:-1 3:0.52199996 4:0.35000002 5:-1 
100 1:-0.918 2:-1 3:0.528 4:0.16400003 5:-1 
-80.99279369712829 1:-0.942 2:-1 3:0.37399995 4:-0.10600001 5:-1 
-100 1:-0.948 2:-1 3:0.31200004 4:-0.17199999 5:-1 
100 1:-1 2:-1 3:0.57599998 4:0.73199999 5:-0.736 
31.18697086805306 1:-1 2:-1 3:0.56799996 4:0.70599997 5:-0.72999999 
-100 1:-1 2:-1 3:0.69400001 4:0.72000003 5:-0.72999999 
-100 1:-1 2:-1 3:0.69400001 4:0.71200001 5:-0.72999999 
-100 1:-1 2:-1 3:0.69400001 4:0.70599997 5:-0.736 
-100 1:-1 2:-1 3:0.66400003 4:0.676 5:-0.74000001 
-100 1:-1 2:-1 3:0.66400003 4:0.676 5:-0.736 
-45.1599742612065 1:-1 2:-1 3:0.52400005 4:0.51600003 5:-0.81999999 
-100 1:-1 2:-1 3:0.53199995 4:0.528 5:-0.816 
-100 1:-1 2:-1 3:0.53999996 4:0.53999996 5:-0.81 
-100 1:-1 2:-1 3:0.53199995 4:0.53999996 5:-0.81 
-100 1:-1 2:-1 3:0.50999999 4:0.52199996 5:-0.816 
-100 1:-1 2:-1 3:0.50999999 4:0.51600003 5:-0.81999999 
-100 1:-1 2:-1 3:0.51800001 4:0.51600003 5:-0.81999999 
59.71513863245671 1:-1 2:-1 3:0.32000005 4:0.37399995 5:-0.764 
100 1:-1 2:-1 3:0.28999996 4:0.34399998 5:-0.77599999 
100 1:-1 2:-1 3:0.26199996 4:0.324 5:-0.792 
100 1:-1 2:-1 3:0.21800005 4:0.28199995 5:-0.81 
100 1:-1 2:-1 3:0.20200002 4:0.26999998 5:-0.81 
100 1:-1 2:-1 3:0.18799996 4:0.25800002 5:-0.816 
100 1:-1 2:-1 3:0.20200002 4:0.25800002 5:-0.80400001 
100 1:-1 2:-1 3:0.18200004 4:0.26400006 5:-0.77599999 
100 1:-1 2:-1 3:0.23199999 4:0.29400003 5:-0.758 
100 1:-1 2:-1 3:0.26199996 4:0.29999995 5:-0.758 
100 1:-1 2:-1 3:0.40799999 4:0.398 5:-0.78 
100 1:-1 2:-1 3:0.44400001 4:0.41799998 5:-0.758 
100 1:-1 2:-1 3:0.44400001 4:0.46000004 5:-0.764 
100 1:-1 2:-1 3:0.37800002 4:0.41799998 5:-0.758 
100 1:-1 2:-1 3:0.40799999 4:0.38600004 5:-0.74599999 
100 1:-1 2:-1 3:0.30599999 4:0.34399998 5:-0.764 
100 1:-1 2:-1 3:0.24600005 4:0.27600002 5:-0.786 
100 1:-1 2:-1 3:0.25399995 4:0.26999998 5:-0.792 
100 1:-1 2:-1 3:0.32799995 4:0.31799996 5:-0.77 
100 1:-1 2:-1 3:0.55400002 4:0.472 5:-0.758 
-100 1:-1 2:-1 3:0.78199995 4:0.77999997 5:-0.66600001 
100 1:-1 2:-1 3:0.68599999 4:0.63199997 5:-0.56400001 
100 1:-1 2:-1 3:0.75199997 4:0.70599997 5:-0.546 
100 1:-1 2:-1 3:0.796 4:0.79400003 5:-0.546 
100 1:-1 2:-1 3:0.80400002 4:0.79999995 5:-0.55199999 
100 1:-1 2:-1 3:0.78199995 4:0.76199996 5:-0.56400001 
100 1:-1 2:-1 3:0.78199995 4:0.75 5:-0.55199999 
-100 1:-1 2:-1 3:0.78199995 4:0.75 5:-0.472 
-100 1:-1 2:-1 3:0.78199995 4:0.74399996 5:-0.47799999 
-100 1:-1 2:-1 3:0.75999999 4:0.73199999 5:-0.48400003 
-100 1:-1 2:-1 3:0.76600003 4:0.73199999 5:-0.48400003 
-100 1:-1 2:-1 3:0.77400005 4:0.72000003 5:-0.49599999 
-70.53259205257261 1:-1 2:-1 3:0.77400005 4:0.70599997 5:-0.50600001 
-100 1:-1 2:-1 3:0.57599998 4:0.42400002 5:-0.61000001 
-100 1:-1 2:-1 3:0.55400002 4:0.36800003 5:-0.616 
-100 1:-1 2:-1 3:0.55400002 4:0.35599995 5:-0.616 
-100 1:-1 2:-1 3:0.53999996 4:0.31200004 5:-0.63800001 
-100 1:-1 2:-1 3:0.51800001 4:0.28799999 5:-0.65000001 
54.14792180795216 1:-1 2:-1 3:0.76600003 4:0.61399996 5:-0.62200001 
3.028366594706063 1:-1 2:-1 3:0.76600003 4:0.70599997 5:-0.61000001 
100 1:-1 2:-1 3:0.75199997 4:0.70599997 5:-0.62599999 
100 1:-1 2:-1 3:0.70799994 4:0.65199995 5:-0.65000001 
100 1:-1 2:-1 3:0.65600002 4:0.59599996 5:-0.678 
-100 1:-1 2:-1 3:0.49600005 4:0.36800003 5:-0.69600001 
100 1:-1 2:-1 3:0.64199996 4:0.53999996 5:-0.706 
100 1:-1 2:-1 3:0.62 4:0.50399995 5:-0.71799999 
-100 1:-1 2:-1 3:0.49600005 4:0.30599999 5:-0.72999999 
-100 1:-1 2:-1 3:0.42999995 4:0.23199999 5:-0.758 
-100 1:-1 2:-1 3:0.35000002 4:0.18400002 5:-0.77599999 
-100 1:-1 2:-1 3:0.35000002 4:0.20200002 5:-0.77599999 
-100 1:-1 2:-1 3:0.38600004 4:0.22599995 5:-0.77 
-85.0915471430406 1:-1 2:-1 3:0.48199999 4:0.30599999 5:-0.736 
100 1:-1 2:-1 3:0.63399994 4:0.49199998 5:-0.72400001 
100 1:-1 2:-1 3:0.69400001 4:0.57200003 5:-0.71200001 
100 1:-1 2:-1 3:0.68599999 4:0.57200003 5:-0.71200001 
100 1:-1 2:-1 3:0.28999996 4:0.077999949 5:-0.86 
100 1:-1 2:-1 3:0.19599998 4:-0.032000005 5:-0.84999999 
100 1:-1 2:-1 3:0.16600001 4:-0.058000028 5:-0.86 
100 1:-1 2:-1 3:0.15999997 4:-0.06400001 5:-0.866 
100 1:-1 2:-1 3:0.17400002 4:-0.051999986 5:-0.866 
100 1:-1 2:-1 3:0.26800001 4:0.05400002 5:-0.866 
100 1:-1 2:-1 3:0.44400001 4:0.25800002 5:-0.81 
100 1:-1 2:-1 3:0.51800001 4:0.46599996 5:-0.752 
100 1:-1 2:-1 3:0.52400005 4:0.46000004 5:-0.71799999 
100 1:-1 2:-1 3:0.51800001 4:0.44200003 5:-0.71200001 
-100 1:-1 2:-1 3:0.48800004 4:0.36800003 5:-0.678 
-100 1:-1 2:-1 3:0.48199999 4:0.398 5:-0.64399999 
-100 1:-1 2:-1 3:0.48800004 4:0.46000004 5:-0.632 
100 1:-1 2:-1 3:0.51800001 4:0.49800003 5:-0.67199999 
-100 1:-1 2:-1 3:0.41600001 4:0.38 5:-0.69 
-100 1:-1 2:-1 3:0.35599995 4:0.29999995 5:-0.72999999 
-100 1:-1 2:-1 3:0.35000002 4:0.28199995 5:-0.736 
-100 1:-1 2:-1 3:0.35599995 4:0.22000003 5:-0.77 
-13.47030417817975 1:-1 2:-1 3:0.35599995 4:0.18400002 5:-0.792 
-100 1:-1 2:-1 3:0.21800005 4:0.059999943 5:-0.764 
-100 1:-1 2:-1 3:0.15199995 4:-0.0080000162 5:-0.66600001 
-100 1:-1 2:-1 3:0.093999982 4:-0.058000028 5:-0.66600001 
-100 1:-1 2:-1 3:0.077999949 4:-0.075999975 5:-0.67199999 
-100 1:-1 2:-1 3:0.027999997 4:-0.12400001 5:-0.68399999 
-96.85008157462184 1:-1 2:-1 3:-0.0099999905 4:-0.14999998 5:-0.69600001 
100 1:-1 2:-1 3:-0.060000002 4:-0.16799998 5:-0.706 
-100 1:-1 2:-1 3:0.32000005 4:0.22000003 5:-0.662 
-100 1:-1 2:-1 3:0.36399996 4:0.24399996 5:-0.65000001 
-100 1:-1 2:-1 3:0.45200002 4:0.29400003 5:-0.62599999 
-0.9145223745891835 1:-1 2:-1 3:0.29799998 4:0.48800004 5:-0.81 
-100 1:-1 2:-1 3:0.29200006 4:0.48199999 5:-0.81 
-100 1:-1 2:-1 3:0.26199996 4:0.42400002 5:-0.824 
-100 1:-1 2:-1 3:0.23800004 4:0.39999998 5:-0.832 
-100 1:-1 2:-1 3:0.23199999 4:0.38999999 5:-0.838 
-46.53166047044053 1:-1 2:-1 3:0.23800004 4:0.39999998 5:-0.82799999 
-100 1:-0.982 2:-0.998 3:0.16400003 4:0.37199998 5:-0.818 
-100 1:-0.974 2:-0.998 3:0.14600003 4:0.36000001 5:-0.72 
-100 1:-0.96 2:-0.99 3:0.16999996 4:0.35399997 5:-0.678 
-100 1:-0.952 2:-0.99 3:0.176 4:0.35399997 5:-0.69800001 
100 1:-0.982 2:-0.998 3:0.23800004 4:0.33200002 5:-0.81 
100 1:-0.966 2:-0.998 3:0.16400003 4:0.32000005 5:-0.8 
-26.44117820125523 1:-0.874 2:-0.962 3:0.15199995 4:0.34200001 5:-0.824 
81.87837520673888 1:-0.68000001 2:-0.97 3:0.14600003 4:0.34800005 5:-0.824 
-100 1:-0.808 2:-0.948 3:0.10399997 4:0.28600001 5:-0.786 
-100 1:-0.802 2:-0.948 3:0.092000008 4:0.27400005 5:-0.786 
52.2753058640319 1:-0.68000001 2:-0.976 3:0.042000055 4:0.222 5:-0.8 
78.80720763882144 1:-0.974 2:-0.998 3:0.036000013 4:0.21000004 5:-0.818 
41.45822170175222 1:-0.966 2:-0.99 3:0.51800001 4:0.65400004 5:-0.734 
-100 1:-0.874 2:-0.962 3:0.58399999 4:0.48800004 5:-0.79000001 
-100 1:-0.5 2:-0.934 3:0.54799998 4:0.48199999 5:-0.79000001 
-22.92532884907986 1:-0.49199998 2:-0.926 3:0.54200006 4:0.47599995 5:-0.79000001 
100 1:-0.62799999 2:-0.962 3:0.51800001 4:0.45200002 5:-0.8 
100 1:-0.69999999 2:-0.954 3:0.51800001 4:0.44599998 5:-0.8 
-81.83134532328326 1:-0.766 2:-0.94 3:0.51199996 4:0.44200003 5:-0.80400001 
-100 1:-0.83 2:-0.954 3:0.5 4:0.42999995 5:-0.80400001 
100 1:-0.938 2:-0.99 3:0.45599997 4:0.38999999 5:-0.80400001 
83.87713697321506 1:-0.952 2:-0.99 3:0.45000005 4:0.37800002 5:-0.80400001 
100 1:-0.974 2:-0.998 3:0.46200001 4:0.38399994 5:-0.80400001 
100 1:-0.974 2:-0.998 3:0.46200001 4:0.38999999 5:-0.8 
100 1:-0.96 2:-0.99 3:0.45000005 4:0.37199998 5:-0.81 
100 1:-0.952 2:-0.99 3:0.45000005 4:0.37199998 5:-0.81 
100 1:-0.946 2:-0.99 3:0.45599997 4:0.37800002 5:-0.80400001 
100 1:-0.946 2:-0.99 3:0.45599997 4:0.38399994 5:-0.8 
100 1:-0.93 2:-0.986 3:-0.992 4:-1 5:-1 
100 1:-0.918 2:-0.986 3:-0.992 4:-1 5:-1 
100 1:-0.632 2:-0.876 3:-0.96 4:-1 5:-1 
100 1:-0.546 2:-0.876 3:-0.954 4:-1 5:-1 
-43.7785191261794 1:-0.48000002 2:-0.81200001 3:-0.936 4:-1 5:-1 
-100 1:-0.486 2:-0.81200001 3:-0.928 4:-1 5:-1 
-100 1:-0.66800001 2:-0.868 3:-0.948 4:-1 5:-1 
-100 1:-0.69800001 2:-0.868 3:-0.948 4:-1 5:-1 
-100 1:-0.74200001 2:-0.884 3:-0.954 4:-1 5:-1 
-100 1:-0.76000001 2:-0.892 3:-0.954 4:-1 5:-1 
100 1:-0.93 2:-0.978 3:-0.992 4:-1 5:-1 
100 1:-0.936 2:-0.986 3:-0.992 4:-1 5:-1 
42.96091535386059 1:-0.948 2:-0.986 3:-0.992 4:-1 5:-1 
100 1:-0.948 2:-0.978 3:-0.986 4:-1 5:-1 
-100 1:-0.93 2:-0.922 3:-0.966 4:-1 5:-1 
-100 1:-0.924 2:-0.922 3:-0.966 4:-1 5:-1 
-100 1:-0.918 2:-0.922 3:-0.966 4:-1 5:-1 
-100 1:-0.904 2:-0.916 3:-0.96 4:-1 5:-1 
-100 1:-0.904 2:-0.922 3:-0.96 4:-1 5:-1 
-100 1:-0.904 2:-0.922 3:-0.966 4:-1 5:-1 
-100 1:-1 2:-0.946 3:-0.98 4:-1 5:-1 
100 1:-0.942 2:-0.978 3:-0.992 4:-1 5:-1 
100 1:-0.874 2:-0.946 3:-0.98 4:-1 5:-1 
-6.043904022760154 1:-0.78399999 2:-0.892 3:-0.96 4:-1 5:-1 
-100 1:-0.76000001 2:-0.876 3:-0.954 4:-1 5:-1 
-100 1:-1 2:-0.938 3:-0.974 4:-1 5:-1 
-100 1:-1 2:-0.93 3:-0.98 4:-1 5:-1 
-100 1:-1 2:-0.946 3:-0.974 4:-1 5:-1 
-100 1:-1 2:-0.954 3:-0.98 4:-1 5:-1 
-100 1:-1 2:-0.93 3:-0.974 4:-1 5:-1 
-60.25138626023065 1:-1 2:-0.946 3:-0.986 4:-1 5:-1 
100 1:-0.82600001 2:-0.954 3:-0.992 4:-1 5:-1 
100 1:-0.796 2:-0.938 3:-0.986 4:-1 5:-1 
100 1:-0.838 2:-0.946 3:-0.992 4:-1 5:-1 
100 1:-0.85600001 2:-0.962 3:-0.992 4:-1 5:-1 
100 1:-0.84999999 2:-0.962 3:-0.986 4:-1 5:-1 
100 1:-0.88 2:-0.962 3:-0.986 4:-1 5:-1 
100 1:-0.918 2:-0.978 3:-0.992 4:-1 5:-1 
100 1:-0.868 2:-0.962 3:-0.986 4:-1 5:-1 
100 1:-0.814 2:-0.938 3:-0.98 4:-1 5:-1 
100 1:-0.778 2:-0.922 3:-0.98 4:-1 5:-1 
100 1:-0.79000001 2:-0.93 3:-0.98 4:-1 5:-1 
100 1:-0.778 2:-0.922 3:-0.974 4:-1 5:-1 
100 1:-0.778 2:-0.916 3:-0.974 4:-1 5:-1 
100 1:-0.78399999 2:-0.922 3:-0.974 4:-1 5:-1 
100 1:-0.796 2:-0.922 3:-0.974 4:-1 5:-1 
100 1:-0.802 2:-0.922 3:-0.966 4:-1 5:-1 
100 1:-0.802 2:-0.922 3:-0.974 4:-1 5:-1 
100 1:-0.796 2:-0.916 3:-0.974 4:-1 5:-1 
-100 1:-0.79000001 2:-0.892 3:-0.96 4:-1 5:-1 
-100 1:-0.796 2:-0.884 3:-0.96 4:-1 5:-1 
-100 1:-0.84999999 2:-0.9 3:-0.966 4:-1 5:-1 
-100 1:-0.862 2:-0.908 3:-0.966 4:-1 5:-1 
-100 1:-0.85600001 2:-0.908 3:-0.966 4:-1 5:-1 
-100 1:-0.832 2:-0.892 3:-0.96 4:-1 5:-1 
-100 1:-0.81999999 2:-0.892 3:-0.96 4:-1 5:-1 
-100 1:-0.71599999 2:-0.868 3:-0.954 4:-1 5:-1 
100 1:-0.572 2:-0.868 3:-0.96 4:-1 5:-1 
100 1:-0.56600001 2:-0.868 3:-0.954 4:-1 5:-1 
100 1:-0.58399999 2:-0.876 3:-0.96 4:-1 5:-1 
100 1:-0.59 2:-0.876 3:-0.96 4:-1 5:-1 
-100 1:-0.662 2:-0.844 3:-0.948 4:-1 5:-1 
-100 1:-0.69800001 2:-0.844 3:-0.948 4:-1 5:-1 
-100 1:-0.71000001 2:-0.844 3:-0.948 4:-1 5:-1 
-100 1:-0.748 2:-0.86 3:-0.948 4:-1 5:-1 
-100 1:-0.766 2:-0.868 3:-0.954 4:-1 5:-1 
-100 1:-0.802 2:-0.876 3:-0.96 4:-1 5:-1 
-100 1:-0.802 2:-0.884 3:-0.96 4:-1 5:-1 
-100 1:-0.778 2:-0.876 3:-0.954 4:-1 5:-1 
-100 1:-0.924 2:-0.922 3:-0.974 4:-1 5:-1 
-100 1:-0.954 2:-0.93 3:-0.974 4:-1 5:-1 
100 1:-0.50999999 2:-0.928 3:-0.976 4:-1 5:-0.98 
-9.970328799426019 1:-0.56200001 2:-0.952 3:-0.99 4:-1 5:-0.906 
-100 1:-0.57800001 2:-0.96 3:-0.99 4:-1 5:-0.906 
-100 1:-0.604 2:-0.968 3:-0.998 4:-1 5:-0.906 
-100 1:-0.71599999 2:-1 3:-0.998 4:-1 5:-0.906 
100 1:-0.93 2:-0.984 3:-1 4:-1 5:-0.9 
93.21212282680725 1:-0.922 2:-0.984 3:-1 4:-0.994 5:-0.906 
100 1:-0.922 2:-0.984 3:-1 4:-1 5:-0.906 
100 1:-0.93 2:-0.984 3:-1 4:-1 5:-0.906 
-100 1:-1 2:-1 3:-1 4:-0.95 5:-0.67199999 
-100 1:-1 2:-1 3:-1 4:-0.95 5:-0.69600001 
-48.44020363522406 1:-1 2:-1 3:-1 4:-0.95 5:-0.74599999 
-100 1:-0.74200001 2:-1 3:-1 4:-0.982 5:-0.884 
-100 1:-0.69 2:-1 3:-1 4:-0.982 5:-0.884 
-100 1:-0.794 2:-1 3:-1 4:-0.968 5:-0.89 
100 1:-0.896 2:-0.968 3:-1 4:-0.994 5:-0.832 
-100 1:-1 2:-1 3:-1 4:-0.95 5:-0.86 
-100 1:-1 2:-1 3:-1 4:-0.95 5:-0.866 
-54.37211452844844 1:-1 2:-1 3:-1 4:-0.95 5:-0.84999999 
-100 1:-1 2:-1 3:-1 4:-0.95 5:-0.85600001 
100 1:-0.946 2:-0.962 3:-0.976 4:-1 5:-0.902 
100 1:-0.938 2:-0.962 3:-0.976 4:-1 5:-0.902 
34.50434403302122 1:-0.93 2:-0.954 3:-0.976 4:-1 5:-0.898 
100 1:-0.888 2:-0.94 3:-0.97 4:-1 5:-0.85600001 
79.31679210963181 1:-0.788 2:-0.906 3:-0.95 4:-1 5:-0.45999998 
100 1:-0.802 2:-0.906 3:-0.95 4:-1 5:-0.366 
100 1:-0.772 2:-0.884 3:-0.944 4:-0.994 5:-0.41799998 
100 1:-0.766 2:-0.884 3:-0.938 4:-0.994 5:-0.43199998 
100 1:-0.766 2:-0.884 3:-0.938 4:-0.994 5:-0.44199997 
51.35085991898278 1:-0.78 2:-0.89 3:-0.944 4:-0.994 5:-0.45599997 
100 1:-0.794 2:-0.898 3:-0.95 4:-1 5:-0.46399999 
100 1:-0.808 2:-0.898 3:-0.95 4:-1 5:-0.47399998 
100 1:-0.808 2:-0.898 3:-0.95 4:-1 5:-0.47799999 
-100 1:-0.83 2:-0.906 3:-0.95 4:-0.978 5:-0.47399998 
-100 1:-0.88 2:-0.92 3:-0.95 4:-0.938 5:-0.44999999 
-100 1:-0.888 2:-0.92 3:-0.95 4:-0.942 5:-0.45999998 
-100 1:-0.88 2:-0.92 3:-0.956 4:-0.942 5:-0.45999998 
-100 1:-0.88 2:-0.92 3:-0.95 4:-0.942 5:-0.45999998 
-100 1:-0.888 2:-0.92 3:-0.956 4:-0.942 5:-0.46399999 
-100 1:-0.894 2:-0.92 3:-0.956 4:-0.942 5:-0.46399999 
-100 1:-0.888 2:-0.92 3:-0.956 4:-0.948 5:-0.47000003 
-100 1:-0.888 2:-0.92 3:-0.956 4:-0.942 5:-0.47000003 
-100 1:-0.888 2:-0.926 3:-0.956 4:-0.942 5:-0.47000003 
-100 1:-0.88 2:-0.92 3:-0.956 4:-0.948 5:-0.47000003 
-100 1:-0.88 2:-0.92 3:-0.95 4:-0.942 5:-0.47399998 
-100 1:-0.866 2:-0.912 3:-0.95 4:-0.954 5:-0.48400003 
-100 1:-0.866 2:-0.912 3:-0.95 4:-0.954 5:-0.48799998 
-100 1:-0.874 2:-0.92 3:-0.95 4:-0.96 5:-0.49199998 
100 1:-0.952 2:-0.948 3:-0.97 4:-1 5:-0.54800001 
100 1:-0.946 2:-0.948 3:-0.97 4:-1 5:-0.53799999 
100 1:-0.946 2:-0.948 3:-0.97 4:-1 5:-0.53400001 
100 1:-0.924 2:-0.94 3:-0.97 4:-1 5:-0.52399999 
12.72063596493798 1:-0.93 2:-0.94 3:-0.97 4:-1 5:-0.52399999 
4.980424679442532 1:-0.88 2:-0.934 3:-0.964 4:-1 5:-0.544 
74.88254568843082 1:-0.946 2:-0.962 3:-0.982 4:-1 5:-0.41399997 
-100 1:-0.888 2:-0.948 3:-0.982 4:-1 5:-0.352 
100 1:-1 2:-0.998 3:-0.994 4:-0.994 5:-0.53799999 
100 1:-1 2:-0.998 3:-0.994 4:-0.994 5:-0.53400001 
40.04220577485844 1:-1 2:-0.998 3:-0.994 4:-0.994 5:-0.53 
-29.58334395473937 1:0.67400002 2:-0.74000001 3:0.63 4:0.51800001 5:0.74399996 
-69.91884590041657 1:0.53999996 2:-0.756 3:0.53400004 4:0.40799999 5:0.93400002 
100 1:0.50999999 2:-0.71000001 3:0.528 4:0.38800001 5:0.87800002 
100 1:0.51600003 2:-0.71799999 3:0.52199996 4:0.38199997 5:0.87199998 
-36.53335734610496 1:0.454 2:-0.71799999 3:0.47599995 4:0.32200003 5:0.61600006 
30.80358846569485 1:0.46599996 2:-0.71799999 3:0.45799994 4:0.25600004 5:0.49199998 
15.43744400460694 1:0.39999998 2:-0.74000001 3:0.40600002 4:0.23000002 5:0.53199995 
100 1:0.546 2:-0.748 3:0.43200004 4:0.25600004 5:0.50999999 
-100 1:0.48599994 2:-0.71000001 3:0.41999996 4:0.278 5:0.56599998 
100 1:0.39400005 2:-0.748 3:0.39400005 4:0.23599994 5:0.54200006 
100 1:0.37 2:-0.756 3:0.38199997 4:0.23000002 5:0.54200006 
-100 1:0.23599994 2:-0.80400001 3:0.324 4:0.19799995 5:0.55400002 
-100 1:0.15799999 2:-0.80400001 3:0.31200004 4:0.18599999 5:0.54200006 
-100 1:0.11399996 2:-0.788 3:0.30400002 4:0.18599999 5:0.53799999 
100 1:0.352 2:-0.764 3:0.30400002 4:0.17999995 5:0.51999998 
100 1:0.41199994 2:-0.74000001 3:0.30400002 4:0.17999995 5:0.51400006 
-91.16938643786258 1:0.58800006 2:-0.748 3:0.28600001 4:0.15999997 5:0.49199998 
-100 1:0.65600002 2:-0.73199999 3:0.29799998 4:0.15999997 5:0.48599994 
-100 1:0.71000004 2:-0.71000001 3:0.29200006 4:0.15400004 5:0.48599994 
-9.927430578831997 1:0.74600005 2:-0.70199999 3:0.28600001 4:0.14199996 5:0.48599994 
-100 1:0.71599996 2:-0.71799999 3:0.25399995 4:0.11600006 5:0.46000004 
-100 1:0.69799995 2:-0.71799999 3:0.25399995 4:0.11600006 5:0.454 
100 1:0.56400001 2:-0.764 3:0.24800003 4:0.077999949 5:0.38600004 
100 1:0.528 2:-0.748 3:0.24800003 4:0.083999991 5:0.37600005 
100 1:0.51600003 2:-0.74000001 3:0.24800003 4:0.077999949 5:0.37 
7.084479786734863 1:0.42400002 2:-0.74000001 3:0.22800004 4:0.072000027 5:0.324 
-100 1:0.40600002 2:-0.748 3:0.21599996 4:0.12600005 5:0.39199996 
100 1:0.32200003 2:-0.772 3:0.22800004 4:0.19799995 5:0.55400002 
-100 1:0.095999956 2:-0.80400001 3:0.27999997 4:0.278 5:0.68200004 
-100 1:0.065999985 2:-0.796 3:0.31799996 4:0.30599999 5:0.71599996 
-100 1:0.090000033 2:-0.78 3:0.52199996 4:0.50600004 5:0.92200005 
-100 1:0.102 2:-0.772 3:0.58399999 4:0.58200002 5:0.93400002 
-100 1:0.102 2:-0.764 3:0.61600006 4:0.59800005 5:0.93400002 
-100 1:0.12 2:-0.764 3:0.70000005 4:0.62600005 5:0.95000005 
-37.01311904175514 1:0.13999999 2:-0.772 3:0.75600004 4:0.70200002 5:0.99000001 
100 1:0.22399998 2:-0.71799999 3:0.89600003 4:0.88600004 5:1 
-8.805647408787186 1:0.41799998 2:-0.558 3:0.96599996 4:0.99000001 5:1 
24.17400070654982 1:0.80599999 2:-0.63800001 3:1 4:1 5:1 
79.9494521752071 1:0.97599995 2:-0.71000001 3:0.85800004 4:1 5:1 
37.48670772205454 1:0.98800004 2:-0.70199999 3:0.852 4:1 5:1 
9.419281816716046 1:0.94000006 2:-0.71799999 3:0.82599998 4:0.99600005 5:0.88999999 
-84.43887953763722 1:0.76999998 2:-0.70199999 3:0.82000005 4:0.88600004 5:0.91199994 
100 1:0.50399995 2:-0.748 3:0.73000002 4:0.78799999 5:0.83800006 
100 1:0.34599996 2:-0.772 3:0.67400002 4:0.74600005 5:0.79999995 
100 1:0.25399995 2:-0.80400001 3:0.62199998 4:0.74600005 5:0.78400004 
-100 1:0.036000013 2:-0.796 3:0.56599998 4:0.67400002 5:0.67200005 
-100 1:0.024000049 2:-0.796 3:0.55200005 4:0.65799999 5:0.648 
-100 1:0.05400002 2:-0.788 3:0.528 4:0.63199997 5:0.63199997 
-100 1:0.065999985 2:-0.78 3:0.50800002 4:0.61600006 5:0.62199998 
100 1:0.083999991 2:-0.78 3:0.31200004 4:0.49600005 5:0.62600005 
100 1:0.072000027 2:-0.788 3:0.27400005 4:0.49000001 5:0.61000001 
-74.44750858265118 1:0.10800004 2:-0.796 3:0.049999952 4:0.38199997 5:0.47599995 
-100 1:0.18200004 2:-0.81200001 3:0.055999994 4:0.37600005 5:0.47000003 
52.94098191817922 1:0.296 2:-0.78 3:0.24199998 4:0.42999995 5:0.49199998 
100 1:0.28400004 2:-0.788 3:0.26600003 4:0.40799999 5:0.49199998 
100 1:0.24800003 2:-0.796 3:0.31799996 4:0.45200002 5:0.53799999 
100 1:0.25399995 2:-0.796 3:0.35599995 4:0.48000002 5:0.57000005 
100 1:0.30400002 2:-0.772 3:0.39400005 4:0.50600004 5:0.61000001 
100 1:0.38800001 2:-0.748 3:0.40600002 4:0.51800001 5:0.62199998 
100 1:0.454 2:-0.72600001 3:0.39400005 4:0.51800001 5:0.62600005 
-100 1:0.60000002 2:-0.74000001 3:0.47599995 4:0.61000001 5:0.65999997 
-100 1:0.62399995 2:-0.71799999 3:0.63 4:0.67999995 5:0.72800004 
-100 1:0.63600004 2:-0.71000001 3:0.67400002 4:0.67999995 5:0.73800004 
-100 1:0.64199996 2:-0.70199999 3:0.72399998 4:0.68599999 5:0.75 
-100 1:0.63600004 2:-0.70199999 3:0.73800004 4:0.69200003 5:0.75 
-100 1:0.58800006 2:-0.71799999 3:0.76199996 4:0.70799994 5:0.74399996 
-100 1:0.55799997 2:-0.71799999 3:0.76999998 4:0.71200001 5:0.75 
-100 1:0.55200005 2:-0.71799999 3:0.78799999 4:0.71800005 5:0.76600003 
-100 1:0.63 2:-0.68599999 3:0.79999995 4:0.73000002 5:0.78400004 
-79.47715836446102 1:0.67400002 2:-0.66999999 3:0.80799997 4:0.73399997 5:0.78799999 
100 1:0.78799999 2:-0.63 3:0.82000005 4:0.75 5:0.80599999 
100 1:0.78199995 2:-0.63 3:0.80799997 4:0.74600005 5:0.79999995 
100 1:0.79400003 2:-0.63 3:0.80799997 4:0.74600005 5:0.79400003 
33.15563440622922 1:0.79999995 2:-0.662 3:0.53999996 4:0.59399998 5:0.648 
-100 1:0.76400006 2:-0.678 3:0.39999998 4:0.49600005 5:0.62199998 
-100 1:0.74000001 2:-0.68599999 3:0.324 4:0.44599998 5:0.55999994 
-100 1:0.722 2:-0.69400001 3:0.29200006 4:0.426 5:0.53199995 
100 1:0.722 2:-0.69400001 3:0.22800004 4:0.43599999 5:0.48199999 
100 1:0.722 2:-0.69400001 3:0.22800004 4:0.42999995 5:0.47599995 
46.34951929739947 1:0.722 2:-0.69400001 3:0.22800004 4:0.426 5:0.47599995 
-100 1:0.69799995 2:-0.71000001 3:0.30400002 4:0.42999995 5:0.49199998 
-100 1:0.67400002 2:-0.71799999 3:0.324 4:0.44599998 5:0.50999999 
-100 1:0.64199996 2:-0.73199999 3:0.35000002 4:0.47399998 5:0.54200006 
-100 1:0.63600004 2:-0.72600001 3:0.36199999 4:0.49000001 5:0.55999994 
-100 1:0.62399995 2:-0.73199999 3:0.36800003 4:0.49600005 5:0.57000005 
-100 1:0.59399998 2:-0.74000001 3:0.39999998 4:0.51800001 5:0.59800005 
100 1:0.472 2:-0.70199999 3:0.62199998 4:0.66999996 5:0.68200004 
100 1:0.44799995 2:-0.71000001 3:0.64199996 4:0.65799999 5:0.676 
100 1:0.39999998 2:-0.73199999 3:0.65400004 4:0.63199997 5:0.648 
-100 1:0.27199996 2:-0.772 3:0.65999997 4:0.59800005 5:0.62199998 
-100 1:0.296 2:-0.764 3:0.67400002 4:0.59399998 5:0.61000001 
-77.32690620775857 1:0.44200003 2:-0.72600001 3:0.68599999 4:0.57799995 5:0.62600005 
18.4634866397184 1:0.546 2:-0.756 3:0.65999997 4:0.57200003 5:0.60399997 
100 1:0.55200005 2:-0.764 3:0.64199996 4:0.58800006 5:0.57000005 
100 1:0.55799997 2:-0.756 3:0.64199996 4:0.58200002 5:0.55999994 
100 1:0.42999995 2:-0.73199999 3:0.61600006 4:0.57200003 5:0.59800005 
100 1:0.41799998 2:-0.73199999 3:0.61600006 4:0.57799995 5:0.59399998 
100 1:0.41799998 2:-0.73199999 3:0.61600006 4:0.58200002 5:0.58200002 
100 1:0.41799998 2:-0.73199999 3:0.61600006 4:0.58200002 5:0.57599998 
65.68425846011704 1:0.42400002 2:-0.73199999 3:0.62199998 4:0.59399998 5:0.55999994 
-85.30163565980787 1:0.66799998 2:-0.72600001 3:0.49000001 4:0.44599998 5:0.48199999 
100 1:0.53400004 2:-0.756 3:0.45200002 4:0.41999996 5:0.41999996 
-100 1:0.44200003 2:-0.72600001 3:0.45799994 4:0.41400003 5:0.44799995 
-100 1:0.44200003 2:-0.72600001 3:0.45799994 4:0.41400003 5:0.454 
-68.50365626784412 1:0.43599999 2:-0.72600001 3:0.45799994 4:0.40799999 5:0.44799995 
88.06307217367797 1:0.79200006 2:-0.814 3:0.46000004 4:0.25 5:0.65199995 
-100 1:0.86000001 2:-0.838 3:0.35599995 4:0.22599995 5:0.55999994 
-56.52142634868829 1:0.84399998 2:-0.838 3:0.35000002 4:0.20200002 5:0.54400003 
-100 1:0.84399998 2:-0.838 3:0.36399996 4:0.20200002 5:0.53199995 
100 1:0.75800002 2:-0.78200001 3:0.41600001 4:0.16999996 5:0.54799998 
100 1:0.74000001 2:-0.78200001 3:0.42200005 4:0.19000006 5:0.59399998 
63.73241367304131 1:0.72399998 2:-0.79000001 3:0.40799999 4:0.19599998 5:0.56599998 
-100 1:0.99800003 2:-0.79799999 3:0.30599999 4:0.23199999 5:0.58399999 
-100 1:0.55999994 2:-0.83 3:0.50199997 4:0.33000004 5:0.79999995 
-100 1:0.50999999 2:-0.838 3:0.53999996 4:0.37399995 5:0.852 
-100 1:0.5 2:-0.838 3:0.55400002 4:0.39199996 5:0.87399995 
-100 1:0.53400004 2:-0.83 3:0.59000003 4:0.42999995 5:0.89199996 
-100 1:0.53400004 2:-0.838 3:0.59800005 4:0.454 5:0.87399995 
-100 1:0.55999994 2:-0.83 3:0.63399994 4:0.49800003 5:0.90799999 
100 1:0.84399998 2:-0.814 3:0.70799994 4:0.60800004 5:1 
12.51968680826682 1:0.82599998 2:-0.80599999 3:0.69400001 4:0.63800001 5:1 
-100 1:0.398 2:-0.862 3:0.722 4:0.68200004 5:1 
-100 1:0.45799994 2:-0.846 3:0.722 4:0.68200004 5:1 
-100 1:0.48399997 2:-0.838 3:0.722 4:0.676 5:1 
100 1:0.57000005 2:-0.764 3:0.75999999 4:0.69400001 5:1 
100 1:0.55999994 2:-0.756 3:0.77400005 4:0.70000005 5:1 
10.69400260149168 1:0.49199998 2:-0.74000001 3:0.85399997 4:0.72599995 5:1 
-100 1:0.398 2:-0.772 3:0.85399997 4:0.75600004 5:1 
-100 1:0.36399996 2:-0.78200001 3:0.84599996 4:0.75600004 5:1 
-100 1:0.35399997 2:-0.80599999 3:0.84000003 4:0.75600004 5:1 
-100 1:-0.32200003 2:-0.904 3:0.78199995 4:0.73800004 5:1 
-100 1:-0.48400003 2:-0.92 3:0.83200002 4:0.86000001 5:1 
-100 1:-0.46799999 2:-0.912 3:0.85399997 4:0.88600004 5:1 
-100 1:-0.31400001 2:-0.854 3:0.91999996 4:0.99000001 5:1 
35.9685998375793 1:-0.236 2:-0.87 3:0.91199994 4:0.99000001 5:1 
100 1:0.011999965 2:-0.838 3:0.92799997 4:0.98399997 5:1 
-16.46163724748288 1:0.33000004 2:-0.83 3:0.90600002 4:0.954 5:1 
14.41077972946899 1:0.72399998 2:-0.74000001 3:0.87600005 4:0.90400004 5:1 
-8.847655290177745 1:0.69799995 2:-0.756 3:0.84599996 4:0.93400002 5:1 
-100 1:0.66400003 2:-0.764 3:0.83200002 4:0.92799997 5:1 
-100 1:0.63 2:-0.78200001 3:0.81799996 4:0.91600001 5:1 
-100 1:0.62 2:-0.78200001 3:0.81799996 4:0.91600001 5:1 
-100 1:0.60399997 2:-0.78200001 3:0.80999994 4:0.90999997 5:1 
-100 1:0.59399998 2:-0.79000001 3:0.80999994 4:0.90400004 5:1 
-100 1:0.57799995 2:-0.79799999 3:0.80400002 4:0.89199996 5:1 
-100 1:0.57000005 2:-0.79799999 3:0.80400002 4:0.89199996 5:1 
97.12816693295372 1:0.51800001 2:-0.79799999 3:0.78799999 4:0.86600006 5:1 
100 1:0.47399998 2:-0.80599999 3:0.78799999 4:0.86000001 5:1 
100 1:0.46599996 2:-0.80599999 3:0.78799999 4:0.85399997 5:1 
100 1:0.47399998 2:-0.79799999 3:0.78799999 4:0.86000001 5:1 
100 1:0.46599996 2:-0.79799999 3:0.78199995 4:0.85399997 5:1 
100 1:0.45799994 2:-0.79799999 3:0.78199995 4:0.85399997 5:1 
100 1:0.45000005 2:-0.80599999 3:0.77400005 4:0.84800005 5:1 
55.37156054933293 1:0.37199998 2:-0.814 3:0.76600003 4:0.83599997 5:0.22399998 
-14.6858371149619 1:0.38 2:-0.79799999 3:0.76600003 4:0.83000004 5:0.085999966 
-51.80063163741747 1:0.36399996 2:-0.79799999 3:0.76600003 4:0.81200004 5:0.011999965 
-19.96091776011519 1:0.35399997 2:-0.79799999 3:0.75999999 4:0.80599999 5:-0.033999979 
-26.63037027754465 1:0.25199997 2:-0.764 3:0.75199997 4:0.76800001 5:-0.30800003 
100 1:0.278 2:-0.814 3:0.73800004 4:0.76199996 5:-0.352 
-100 1:0.31200004 2:-0.80599999 3:0.73000002 4:0.75600004 5:-0.35799998 
-33.53074332834462 1:0.31200004 2:-0.80599999 3:0.73000002 4:0.75 5:-0.35799998 
100 1:0.278 2:-0.80599999 3:0.73800004 4:0.75600004 5:-0.34200001 
3.719752398864022 1:0.47399998 2:-0.772 3:0.73000002 4:0.75 5:0.024000049 
100 1:0.58599997 2:-0.822 3:0.68599999 4:0.66999996 5:0.86199999 
100 1:0.57799995 2:-0.822 3:0.67799997 4:0.66400003 5:0.86800003 
100 1:0.58599997 2:-0.83 3:0.67799997 4:0.66400003 5:0.87399995 
100 1:0.57000005 2:-0.822 3:0.67799997 4:0.66400003 5:0.88 
100 1:0.55999994 2:-0.822 3:0.67200005 4:0.65799999 5:0.88 
46.88728104560435 1:0.57000005 2:-0.814 3:0.67200005 4:0.65799999 5:0.88600004 
100 1:0.55999994 2:-0.814 3:0.66400003 4:0.64600003 5:0.86800003 
100 1:0.35399997 2:-0.862 3:0.62 4:0.59000003 5:0.64600003 
-100 1:0.36399996 2:-0.862 3:0.62 4:0.57799995 5:0.78199995 
-100 1:0.32000005 2:-0.87 3:0.61199999 4:0.57200003 5:0.72000003 
-100 1:0.31200004 2:-0.87 3:0.61199999 4:0.57799995 5:0.72000003 
-100 1:0.30400002 2:-0.878 3:0.60599995 4:0.57200003 5:0.71399999 
-100 1:0.30400002 2:-0.878 3:0.60599995 4:0.56599998 5:0.71399999 
-100 1:0.296 2:-0.87 3:0.61199999 4:0.56599998 5:0.70799994 
-100 1:0.30400002 2:-0.878 3:0.60599995 4:0.56599998 5:0.70799994 
-100 1:0.34599996 2:-0.862 3:0.61199999 4:0.57200003 5:0.74399996 
-100 1:0.36399996 2:-0.862 3:0.61199999 4:0.56599998 5:0.74800003 
-100 1:0.37199998 2:-0.87 3:0.60599995 4:0.55799997 5:0.74399996 
-100 1:0.38 2:-0.87 3:0.60599995 4:0.55799997 5:0.74399996 
-100 1:0.38999999 2:-0.87 3:0.60599995 4:0.55200005 5:0.73199999 
-100 1:0.38 2:-0.87 3:0.59800005 4:0.53999996 5:0.72000003 
-100 1:0.36399996 2:-0.878 3:0.59000003 4:0.528 5:0.704 
-100 1:0.34599996 2:-0.888 3:0.58399999 4:0.51600003 5:0.68599999 
-100 1:0.33000004 2:-0.888 3:0.58399999 4:0.50999999 5:0.67999995 
-100 1:0.33000004 2:-0.888 3:0.58399999 4:0.50999999 5:0.67400002 
-100 1:0.33000004 2:-0.888 3:0.59000003 4:0.50399995 5:0.66799998 
100 1:0.45799994 2:-0.862 3:0.59000003 4:0.46599996 5:0.63399994 
100 1:0.45000005 2:-0.862 3:0.58399999 4:0.46000004 5:0.62800002 
100 1:0.44000006 2:-0.87 3:0.58399999 4:0.46000004 5:0.62399995 
100 1:0.44000006 2:-0.862 3:0.58399999 4:0.46000004 5:0.62399995 
-100 1:0.38999999 2:-0.878 3:0.58399999 4:0.47800004 5:0.64600003 
100 1:0.50999999 2:-0.846 3:0.67799997 4:0.62 5:0.79400003 
100 1:0.52600002 2:-0.846 3:0.70000005 4:0.65799999 5:0.82200003 
100 1:0.53400004 2:-0.838 3:0.73800004 4:0.72000003 5:0.86199999 
100 1:0.51800001 2:-0.838 3:0.75199997 4:0.73199999 5:0.88600004 
83.37498248813783 1:0.48399997 2:-0.854 3:0.75199997 4:0.73199999 5:0.88600004 
100 1:0.45799994 2:-0.862 3:0.69400001 4:0.65799999 5:0.82200003 
100 1:0.45799994 2:-0.854 3:0.64199996 4:0.60800004 5:0.778 
100 1:0.55200005 2:-0.838 3:0.56799996 4:0.51600003 5:0.704 
100 1:0.60399997 2:-0.822 3:0.55400002 4:0.49800003 5:0.69200003 
100 1:0.63 2:-0.814 3:0.546 4:0.49199998 5:0.68599999 
100 1:0.55999994 2:-0.838 3:0.35599995 4:0.39199996 5:0.68599999 
4.138212771913053 1:0.52600002 2:-0.846 3:0.28400004 4:0.35000002 5:0.65199995 
-100 1:0.69000006 2:-0.814 3:0.21800005 4:0.29400003 5:0.60599995 
25.22672806617813 1:0.87800002 2:-0.83 3:0.14400005 4:0.25 5:0.57799995 
27.51926535875272 1:1 2:-0.78200001 3:0.14400005 4:0.23199999 5:0.55400002 
100 1:1 2:-0.772 3:0.13800001 4:0.22000003 5:0.54400003 
100 1:1 2:-0.756 3:0.15999997 4:0.21399999 5:0.53799999 
100 1:1 2:-0.74000001 3:0.16600001 4:0.20799994 5:0.53199995 
100 1:1 2:-0.74000001 3:0.15999997 4:0.19000006 5:0.53199995 
1.222148387384241 1:1 2:-0.74000001 3:0.14400005 4:0.176 5:0.52600002 
-81.9427989898296 1:1 2:-0.772 3:0.093999982 4:0.15799999 5:0.52600002 
-100 1:1 2:-0.78200001 3:0.093999982 4:0.16999996 5:0.53199995 
-100 1:0.74000001 2:-0.80599999 3:0.19599998 4:0.26400006 5:0.58800006 
100 1:0.45799994 2:-0.862 3:0.32000005 4:0.29400003 5:0.57200003 
100 1:0.44000006 2:-0.862 3:0.39999998 4:0.29999995 5:0.57799995 
100 1:0.46599996 2:-0.854 3:0.46000004 4:0.28799999 5:0.58800006 
1.760348137046555 1:0.33800006 2:-0.87 3:0.42999995 4:0.18400002 5:0.50399995 
-100 1:0.23599994 2:-0.838 3:0.42200005 4:0.13399994 5:0.45799994 
-100 1:0.21800005 2:-0.838 3:0.41600001 4:0.12800002 5:0.44599998 
5.725770060664592 1:0.22599995 2:-0.838 3:0.40799999 4:0.12800002 5:0.44000006 
-100 1:0.21800005 2:-0.838 3:0.40799999 4:0.13999999 5:0.44599998 
100 1:0.22599995 2:-0.83 3:0.40799999 4:0.12800002 5:0.44000006 
100 1:0.24399996 2:-0.83 3:0.39999998 4:0.13999999 5:0.44599998 
-100 1:0.24399996 2:-0.838 3:0.41600001 4:0.18400002 5:0.47000003 
-100 1:0.23599994 2:-0.838 3:0.42200005 4:0.19599998 5:0.47399998 
-100 1:0.23599994 2:-0.838 3:0.46000004 4:0.24399996 5:0.52600002 
-100 1:0.23599994 2:-0.838 3:0.46599996 4:0.25800002 5:0.53799999 
-49.32408168282395 1:0.83000004 2:-0.77599999 3:0.676 4:0.74600005 5:0.85000002 
-100 1:0.82200003 2:-0.77599999 3:0.66999996 4:0.74000001 5:0.84399998 
-100 1:0.81599998 2:-0.77599999 3:0.66999996 4:0.74000001 5:0.84000003 
-100 1:0.74399996 2:-0.79799999 3:0.64600003 4:0.70000005 5:0.84399998 
100 1:0.59200001 2:-0.77 3:0.61600006 4:0.62600005 5:0.82599998 
-27.33855461489784 1:0.80799997 2:-0.78399999 3:0.602 4:0.60800004 5:0.79400003 
-45.72781314008776 1:0.67200005 2:-0.77 3:0.51199996 4:0.574 5:0.78400004 
100 1:0.93799996 2:-0.748 3:0.54200006 4:0.58000004 5:0.70000005 
93.90501817196974 1:0.89400005 2:-0.756 3:0.54200006 4:0.56799996 5:0.68599999 
100 1:0.89400005 2:-0.756 3:0.53600001 4:0.56799996 5:0.676 
100 1:0.5 2:-0.79000001 3:0.39600003 4:0.44599998 5:0.72800004 
95.33234082866701 1:0.28400004 2:-0.83400001 3:0.36600006 4:0.40600002 5:0.71000004 
-100 1:-0.19800001 2:-0.884 3:0.27400005 4:0.31400001 5:0.72399998 
-100 1:0.039999962 2:-0.85600001 3:0.26800001 4:0.31400001 5:0.74600005 
100 1:0.42799997 2:-0.80599999 3:0.27400005 4:0.32000005 5:0.74199998 
-4.473233088283576 1:0.71599996 2:-0.78399999 3:0.28600001 4:0.31400001 5:0.75199997 
100 1:0.99600005 2:-0.734 3:0.28600001 4:0.24399996 5:0.68599999 
-100 1:1 2:-0.69800001 3:0.15799999 4:0.23399997 5:0.68599999 
-44.83766353511713 1:1 2:-0.706 3:0.15799999 4:0.23399997 5:0.68599999 
100 1:0.88 2:-0.76199999 3:0.11600006 4:0.13 5:0.60599995 
53.63099500244432 1:0.85800004 2:-0.76199999 3:0.11000001 4:0.12399995 5:0.602 
-13.51903434459533 1:0.71599996 2:-0.80599999 3:0.072000027 4:0.10599995 5:0.59800005 
-100 1:0.70799994 2:-0.80599999 3:0.065999985 4:0.10000002 5:0.58800006 
100 1:0.50600004 2:-0.79000001 3:0.20000005 4:0.19400001 5:0.63399994 
100 1:0.27600002 2:-0.82600001 3:0.18799996 4:0.21599996 5:0.648 
72.67293892640919 1:0.12600005 2:-0.82600001 3:0.20599997 4:0.23399997 5:0.66799998 
-100 1:0.095999956 2:-0.82600001 3:0.27999997 4:0.31400001 5:0.69599998 
83.46395433191928 1:0.92400002 2:-0.72600001 3:0.65799999 4:0.56200004 5:0.92799997 
-65.78642499616755 1:1 2:-0.69800001 3:0.75 4:0.66600001 5:0.98399997 
-50.23326128753821 1:1 2:-0.692 3:0.75 4:0.69400001 5:0.96599996 
32.00828825507053 1:1 2:-0.692 3:0.65799999 4:0.63800001 5:0.97399998 
-100 1:0.92999995 2:-0.74000001 3:0.63399994 4:0.528 5:0.80200005 
-100 1:0.93799996 2:-0.74000001 3:0.62800002 4:0.52199996 5:0.79799998 
64.89347327555123 1:0.88800001 2:-0.748 3:0.5 4:0.48800004 5:0.75600004 
100 1:0.86600006 2:-0.76199999 3:0.41400003 4:0.35399997 5:0.47599995 
16.24616249364269 1:0.852 2:-0.77 3:0.39600003 4:0.33800006 5:0.46200001 
-100 1:0.97399998 2:-0.734 3:0.51800001 4:0.39999998 5:0.602 
-9.843234618755613 1:0.98800004 2:-0.72600001 3:0.50600004 4:0.38399994 5:0.55599999 
-100 1:0.25399995 2:0.51800001 3:-0.26800001 4:-0.11199999 5:0.018000007 
-100 1:0.296 2:0.54999995 3:-0.25400001 4:-0.10600001 5:0.006000042 
79.26575301238955 1:0.36399996 2:0.69200003 3:-0.13999999 4:-0.14399999 5:0.052000046 
-51.34123847803519 1:0.296 2:0.73199999 3:-0.11400002 4:-0.13999999 5:0.024000049 
83.01277141772262 1:0.12600005 2:0.62 3:-0.14600003 4:-0.12800002 5:-0.0040000081 
-100 1:-0.041999996 2:0.53400004 3:-0.17199999 4:-0.074000001 5:-0.04400003 
-100 1:-0.12800002 2:0.47800004 3:-0.17799997 4:-0.068000019 5:-0.05400002 
100 1:-0.30400002 2:0.43799996 3:-0.17799997 4:-0.036000013 5:-0.015999973 
100 1:-0.38800001 2:0.36800003 3:-0.16600001 4:0.0019999743 5:0.10800004 
100 1:-0.40200001 2:0.34399998 3:-0.17199999 4:0.034000039 5:0.17999995 
13.68754682463732 1:-0.41399997 2:0.32799995 3:-0.17799997 4:0.062000036 5:0.23599994 
-100 1:-0.44999999 2:0.31200004 3:-0.18400002 4:0.10000002 5:0.28600001 
100 1:-0.46799999 2:0.31200004 3:-0.18400002 4:0.10399997 5:0.26999998 
100 1:-0.486 2:0.30400002 3:-0.18400002 4:0.088000059 5:0.23599994 
100 1:-0.45599997 2:0.33599997 3:-0.17199999 4:0.011999965 5:0.13999999 
-64.09182202765948 1:-0.16399997 2:0.398 3:-0.20999998 4:-0.096000016 5:-0.0040000081 
-100 1:0.05400002 2:0.46200001 3:-0.31800002 4:-0.18199998 5:-0.032000005 
-100 1:0.077999949 2:0.46200001 3:-0.33200002 4:-0.19400001 5:-0.050000012 
-19.18734104253767 1:0.095999956 2:0.36000001 3:-0.39399999 4:-0.22000003 5:-0.065999985 
-100 1:0.011999965 2:0.10599995 3:-0.59200001 4:-0.27600002 5:-0.14399999 
-100 1:-0.036000013 2:0.026000023 3:-0.62400001 4:-0.292 5:-0.19999999 
-49.39525172694056 1:-0.22000003 2:-0.25800002 3:-0.71799999 4:-0.41000003 5:-0.43400002 
-100 1:-0.886 2:-0.53600001 3:-0.788 4:-0.50799999 5:-0.53 
-100 1:-0.69800001 2:-0.32200003 3:-0.604 4:-0.48199999 5:-0.12800002 
-100 1:-0.58399999 2:-0.25 3:-0.56 4:-0.47000003 5:-0.088 
-100 1:-0.45599997 2:-0.18000001 3:-0.516 4:-0.44400001 5:-0.050000012 
-100 1:-0.079999983 2:0.19200003 3:-0.27999997 4:-0.13999999 5:0.12399995 
-100 1:0.006000042 2:0.30400002 3:-0.20999998 4:-0.096000016 5:0.10800004 
-100 1:0.21200001 2:0.46200001 3:-0.20999998 4:-0.06400001 5:0.074000001 
100 1:0.21200001 2:0.46200001 3:-0.236 4:-0.102 5:-0.050000012 
100 1:0.090000033 2:0.33599997 3:-0.33200002 4:-0.19400001 5:-0.18400002 
-100 1:-0.32800001 2:-0.32999998 3:-0.68799999 4:-0.47000003 5:-0.48400003 
-6.273031146453032 1:-0.33999997 2:-0.39200002 3:-0.71799999 4:-0.49199998 5:-0.44 
-57.68771394461337 1:-0.34600002 2:-0.148 3:-0.62400001 4:-0.38999999 5:-0.18400002 
-100 1:-0.32800001 2:-0.068000019 3:-0.61000001 4:-0.35600001 5:-0.12800002 
-100 1:-0.28600001 2:0.026000023 3:-0.59799999 4:-0.34600002 5:-0.116 
-100 1:-0.23799998 2:0.11399996 3:-0.56 4:-0.352 5:-0.14399999 
3.915982584411148 1:-0.15799999 2:0.20799994 3:-0.49599999 4:-0.33999997 5:-0.16000003 
100 1:0 2:0.36800003 3:-0.39399999 4:-0.27999997 5:-0.16000003 
100 1:0.095999956 2:0.44599998 3:-0.35000002 4:-0.25800002 5:-0.17199999 
100 1:0.13399994 2:0.454 3:-0.324 4:-0.24800003 5:-0.18400002 
87.59038825235238 1:0.20000005 2:0.454 3:-0.24199998 4:-0.22000003 5:-0.25 
100 1:-0.036000013 2:0.13 3:-0.338 4:-0.30199999 5:-0.33399999 
100 1:-0.074000001 2:0.057999969 3:-0.37599999 4:-0.324 5:-0.34600002 
100 1:-0.12800002 2:-0.036000013 3:-0.40799999 4:-0.35600001 5:-0.35000002 
100 1:-0.15200001 2:-0.083999991 3:-0.39399999 4:-0.36799997 5:-0.31199998 
100 1:-0.15799999 2:-0.10000002 3:-0.39399999 4:-0.36799997 5:-0.23400003 
11.95145927698914 1:-0.176 2:-0.10799998 3:-0.39399999 4:-0.36799997 5:-0.19400001 
-100 1:-0.17000002 2:-0.10799998 3:-0.38200003 4:-0.36199999 5:-0.11000001 
-100 1:-0.134 2:-0.060000002 3:-0.39399999 4:-0.35600001 5:-0.015999973 
-100 1:-0.12800002 2:-0.036000013 3:-0.42000002 4:-0.36199999 5:-0.0099999905 
-100 1:-0.134 2:-0.036000013 3:-0.42000002 4:-0.36199999 5:-0.0040000081 
100 1:-0.23199999 2:-0.019999981 3:-0.458 4:-0.42199999 5:-0.24400002 
-100 1:-0.64399999 2:-0.036000013 3:-0.44599998 4:-0.42199999 5:-0.32200003 
-100 1:-0.692 2:0.034000039 3:-0.47000003 4:-0.42799997 5:-0.34600002 
36.32819517531867 1:-0.69800001 2:-0.019999981 3:-0.618 4:-0.48199999 5:-0.33999997 
100 1:-0.65000001 2:-0.10000002 3:-0.66800001 4:-0.56799999 5:-0.38999999 
100 1:-0.558 2:-0.44800001 3:-0.846 4:-0.764 5:-0.602 
100 1:-0.528 2:-0.558 3:-0.846 4:-0.774 5:-0.62 
100 1:-0.52200001 2:-0.58199999 3:-0.83400001 4:-0.77 5:-0.61399999 
100 1:-0.46200001 2:-0.70199999 3:-0.846 4:-0.71399999 5:-0.45200002 
100 1:-0.40799999 2:-0.69400001 3:-0.84 4:-0.63800001 5:-0.33399999 
-36.85793711662373 1:-0.35799998 2:-0.66999999 3:-0.83400001 4:-0.56200001 5:-0.27200001 
-100 1:-0.33999997 2:-0.65400001 3:-0.83400001 4:-0.52000001 5:-0.26200002 
-100 1:-0.32200003 2:-0.56600001 3:-0.83400001 4:-0.45999998 5:-0.29000002 
-100 1:-0.30400002 2:-0.46399999 3:-0.83400001 4:-0.46600002 5:-0.278 
73.83612575786738 1:-0.292 2:-0.39999998 3:-0.814 4:-0.486 5:-0.25 
100 1:-0.30400002 2:-0.25 3:-0.77 4:-0.49199998 5:-0.278 
100 1:-0.34600002 2:-0.21799999 3:-0.764 4:-0.50799999 5:-0.31800002 
100 1:-0.56600001 2:-0.18000001 3:-0.73199999 4:-0.52399999 5:-0.37400001 
8.047403303338532 1:-0.602 2:-0.17199999 3:-0.72600001 4:-0.52000001 5:-0.37400001 
-100 1:-0.62599999 2:-0.116 3:-0.706 4:-0.50799999 5:-0.35600001 
-100 1:-0.60800001 2:-0.083999991 3:-0.68000001 4:-0.49800003 5:-0.33999997 
-100 1:-0.59599999 2:-0.068000019 3:-0.68799999 4:-0.50400001 5:-0.33999997 
100 1:-0.71599999 2:-0.068000019 3:-0.68000001 4:-0.50400001 5:-0.35600001 
70.96215860490781 1:-0.75399999 2:-0.18000001 3:-0.64199999 4:-0.53 5:-0.31199998 
-100 1:-0.75399999 2:-0.18599999 3:-0.62400001 4:-0.514 5:-0.21200001 
100 1:-0.75399999 2:-0.148 3:-0.53999999 4:-0.47000003 5:-0.13800001 
100 1:-0.75399999 2:-0.13999999 3:-0.516 4:-0.44800001 5:-0.14399999 
100 1:-0.766 2:-0.116 3:-0.49000001 4:-0.41600001 5:-0.16600001 
100 1:-0.71599999 2:-0.10000002 3:-0.49000001 4:-0.40600002 5:-0.22799999 
100 1:-0.71000001 2:-0.083999991 3:-0.49599999 4:-0.41600001 5:-0.30000001 
-100 1:-0.71000001 2:-0.075999975 3:-0.50999999 4:-0.44800001 5:-0.37400001 
-100 1:-0.662 2:-0.075999975 3:-0.54800001 4:-0.49199998 5:-0.47399998 
-100 1:-0.63800001 2:-0.10000002 3:-0.56600001 4:-0.542 5:-0.574 
-100 1:-0.65000001 2:-0.10000002 3:-0.572 4:-0.59999999 5:-0.71399999 
-100 1:-0.71000001 2:-0.10000002 3:-0.58000001 4:-0.618 5:-0.814 
-100 1:-0.772 2:-0.012000024 3:-0.572 4:-0.62200001 5:-0.59599999 
70.2374869903028 1:-0.632 2:0.034000039 3:-0.572 4:-0.61199999 5:-0.56400001 
100 1:-0.486 2:0.065999985 3:-0.56600001 4:-0.63800001 5:-0.61399999 
100 1:-0.558 2:-0.36799997 3:-0.81999999 4:-0.904 5:-1 
-64.91268581707222 1:-0.68599999 2:-0.384 3:-0.82799999 4:-0.91 5:-0.994 
100 1:-0.79000001 2:-0.36199999 3:-0.814 4:-0.888 5:-0.926 
-47.65598741910078 1:-0.84999999 2:-0.35399997 3:-0.796 4:-0.87199999 5:-0.898 
-28.09057239738106 1:-0.978 2:-0.32200003 3:-0.764 4:-0.846 5:-0.86399999 
-100 1:-1 2:-0.30599999 3:-0.72600001 4:-0.796 5:-0.86399999 
-100 1:-1 2:-0.30599999 3:-0.69999999 4:-0.764 5:-0.854 
-100 1:-1 2:-0.24199998 3:-0.67399999 4:-0.736 5:-0.84199999 
-100 1:-1 2:-0.148 3:-0.64199999 4:-0.69800001 5:-0.786 
100 1:-1 2:-0.10000002 3:-0.618 4:-0.66600001 5:-0.71399999 
100 1:-0.12800002 2:0.20799994 3:-0.35600001 4:-0.31800002 5:-0.14999998 
100 1:-0.041999996 2:0.24800003 3:-0.31199998 4:-0.24800003 5:-0.088 
100 1:0.059999943 2:0.296 3:-0.27999997 4:-0.204 5:-0.060000002 
100 1:0.011999965 2:0.10599995 3:-0.48400003 4:-0.42799997 5:-0.25599998 
100 1:-0.954 2:-0.646 3:-0.846 4:-0.964 5:-1 
100 1:-1 2:-0.68599999 3:-0.858 4:-0.97 5:-1 
100 1:-1 2:-0.68599999 3:-0.846 4:-0.74200001 5:-0.60800001 
100 1:-0.68599999 2:-0.092000008 3:-0.52200001 4:-0.264 5:-0.11000001 
-100 1:-0.32800001 2:0.18599999 3:-0.34399998 4:-0.14999998 5:-0.088 
100 1:0.095999956 2:0.47000003 3:-0.134 4:-0.047999978 5:-0.134 
-100 1:0.35800004 2:0.56400001 3:-0.10799998 4:-0.068000019 5:-0.222 
-100 1:0.37600005 2:0.58000004 3:-0.102 4:-0.06400001 5:-0.21600002 
-100 1:0.39400005 2:0.59599996 3:-0.083999991 4:-0.029999971 5:-0.18400002 
100 1:0.38199997 2:0.58000004 3:-0.075999975 4:-0.0099999905 5:-0.11000001 
100 1:0.38199997 2:0.58000004 3:-0.075999975 4:-0.0099999905 5:-0.093999982 
100 1:0.37 2:0.55599999 3:-0.083999991 4:-0.013999999 5:-0.082000017 
100 1:0.25999999 2:0.46200001 3:-0.12800002 4:-0.068000019 5:-0.116 
100 1:-0.10399997 2:0.042000055 3:-0.44 4:-0.41000003 5:-0.30599999 
26.22751306648751 1:-0.844 2:-0.50400001 3:-0.796 4:-0.81200001 5:-0.78200001 
100 1:-0.96 2:-0.58199999 3:-0.788 4:-0.82799999 5:-0.808 
100 1:-1 2:-0.662 3:-0.796 4:-0.82799999 5:-0.84199999 
100 1:-0.996 2:-0.62200001 3:-0.788 4:-0.78 5:-0.80400001 
-100 1:-0.966 2:-0.41600001 3:-0.72600001 4:-0.67199999 5:-0.59200001 
61.71069881565539 1:-0.84999999 2:-0.15600002 3:-0.55399999 4:-0.52000001 5:-0.43400002 
100 1:-0.832 2:-0.075999975 3:-0.502 4:-0.48199999 5:-0.412 
100 1:-0.838 2:0.042000055 3:-0.426 4:-0.39399999 5:-0.35600001 
100 1:-0.844 2:0.074000001 3:-0.38800001 4:-0.352 5:-0.32800001 
100 1:-0.82600001 2:0.16999996 3:-0.27399999 4:-0.23799998 5:-0.28399998 
100 1:-0.78399999 2:0.23199999 3:-0.17199999 4:-0.16600001 5:-0.25599998 
-100 1:-0.44400001 2:0.36800003 3:0.070000052 4:0.055999994 5:-0.19999999 
100 1:-0.25 2:0.42200005 3:0.12600005 4:0.11600006 5:-0.17799997 
80.92210057152175 1:-0.13999999 2:0.42999995 3:0.12 4:0.11000001 5:-0.16600001 
-100 1:-0.092000008 2:0.42200005 3:0.055999994 4:0.027999997 5:-0.19999999 
-100 1:-0.16399997 2:0.31200004 3:-0.089999974 4:-0.16600001 5:-0.278 
100 1:-0.528 2:-0.22600001 3:-0.604 4:-0.72 5:-0.59200001 
19.51806343400312 1:-0.57800001 2:-0.26599997 3:-0.63600001 4:-0.748 5:-0.62 
100 1:-0.79000001 2:-0.472 3:-0.78200001 4:-0.884 5:-0.786 
-100 1:-0.862 2:-0.574 3:-0.788 4:-0.91 5:-0.882 
100 1:-1 2:-0.844 3:-0.904 4:-1 5:-1 
100 1:-1 2:-0.852 3:-0.91 4:-1 5:-1 
100 1:-0.96 2:-0.56600001 3:-0.858 4:-0.992 5:-1 
100 1:-0.44400001 2:-0.18000001 3:-0.764 4:-0.938 5:-1 
100 1:0.029999971 2:0.21599996 3:-0.56 4:-0.736 5:-0.81999999 
100 1:0.077999949 2:0.25600004 3:-0.49599999 4:-0.676 5:-0.70199999 
81.45441258648 1:0.16999996 2:0.31200004 3:-0.41399997 4:-0.58399999 5:-0.546 
-100 1:0.278 2:0.38199997 3:-0.324 4:-0.47600001 5:-0.43400002 
-100 1:0.32799995 2:0.43799996 3:-0.28600001 4:-0.39399999 5:-0.33399999 
-100 1:0.38800001 2:0.50999999 3:-0.26200002 4:-0.30800003 5:-0.21200001 
-93.798246648958 1:0.51600003 2:0.58000004 3:-0.16600001 4:-0.20999998 5:-0.11000001 
100 1:0.59399998 2:0.60399997 3:-0.10799998 4:-0.14399999 5:-0.082000017 
100 1:0.63600004 2:0.64400005 3:-0.075999975 4:-0.089999974 5:-0.088 
38.58379656558009 1:0.67999995 2:0.70000005 3:-0.013999999 4:0.0080000162 5:-0.0040000081 
-100 1:0.71599996 2:0.70799994 3:0.026000023 4:0.077999949 5:0.080000043 
-100 1:0.74000001 2:0.73199999 3:0.04400003 4:0.10000002 5:0.090000033 
-100 1:0.74000001 2:0.73800004 3:0.075999975 4:0.148 5:0.10800004 
-100 1:0.75199997 2:0.74600005 3:0.082000017 4:0.15999997 5:0.13999999 
100 1:0.80599999 2:0.86600006 3:0.26600003 4:0.28999996 5:0.23599994 
100 1:0.82599998 2:0.85800004 3:0.26600003 4:0.28400004 5:0.29799998 
100 1:0.79999995 2:0.81799996 3:0.21599996 4:0.31200004 5:0.33000004 
-20.69821266100945 1:0.704 2:0.676 3:0.095999956 4:0.176 5:0.34200001 
100 1:0.41199994 2:0.50999999 3:-0.21600002 4:-0.24199998 5:0.090000033 
100 1:0.23599994 2:0.27199996 3:-0.38200003 4:-0.454 5:-0.21200001 
100 1:0.23000002 2:0.26400006 3:-0.38800001 4:-0.454 5:-0.21200001 
100 1:0.21200001 2:0.25600004 3:-0.38800001 4:-0.454 5:-0.222 
100 1:0.20599997 2:0.25600004 3:-0.38800001 4:-0.454 5:-0.22799999 
100 1:0.19400001 2:0.25600004 3:-0.38800001 4:-0.44800001 5:-0.23400003 
100 1:0.20000005 2:0.24800003 3:-0.38200003 4:-0.44400001 5:-0.23400003 
100 1:0.15199995 2:0.018000007 3:-0.528 4:-0.558 5:-0.38999999 
100 1:0.10800004 2:-0.012000024 3:-0.56 4:-0.59 5:-0.458 
100 1:0.095999956 2:-0.012000024 3:-0.56600001 4:-0.58399999 5:-0.47399998 
