svm_type epsilon_svr
kernel_type rbf
gamma 1
nr_class 2
total_sv 1966
rho -5.6805
SV
-4.393800757153494 1:-1 2:0.50800002 3:0.84800005 4:0.76999998 5:0.63199997 
100 1:-1 2:0.44000006 3:0.54999995 4:0.44799995 5:0.55200005 
-100 1:-0.93 2:0.64400005 3:0.89400005 4:0.80200005 5:1 
9.203516398152944 1:-1 2:0.25 3:0.36800003 4:0.28400004 5:0.21000004 
-92.21491296289652 1:-0.528 2:1 3:1 4:1 5:0.91199994 
-62.17628186870412 1:-0.926 2:0.63399994 3:0.88399994 4:0.79400003 5:1 
100 1:-0.868 2:0.64999998 3:0.84800005 4:0.75399995 5:0.972 
-100 1:-0.31 2:0.75399995 3:0.79400003 4:0.55200005 5:0.71800005 
-100 1:-1 2:0.40199995 3:0.55599999 4:0.53799999 5:0.62199998 
100 1:-0.67399999 2:0.76999998 3:1 4:1 5:0.95799994 
100 1:-0.80599999 2:0.76600003 3:1 4:1 5:1 
-100 1:-0.31199998 2:0.73399997 3:0.96200001 4:0.95200002 5:1 
100 1:-0.748 2:0.71399999 3:0.90600002 4:0.78400004 5:1 
-100 1:-0.868 2:0.64400005 3:1 4:1 5:0.89600003 
66.23684523576202 1:-0.976 2:0.63600004 3:0.84800005 4:0.65400004 5:0.46200001 
-65.21374479648311 1:-1 2:0.48599994 3:0.74199998 4:0.57599998 5:0.74800003 
52.79133681543326 1:-0.81999999 2:0.83000004 3:1 4:1 5:1 
-100 1:-0.528 2:0.79999995 3:0.97399998 4:0.91600001 5:0.93799996 
100 1:-0.788 2:0.77400005 3:1 4:0.96000004 5:0.94599998 
-100 1:-1 2:0.398 3:0.62 4:0.32000005 5:0.50600004 
-100 1:-0.47600001 2:0.796 3:0.96800005 4:0.91600001 5:0.90600002 
-16.90368377693621 1:-1 2:0.58200002 3:0.68400002 4:0.67200005 5:0.70200002 
-100 1:-0.886 2:0.676 3:0.87600005 4:0.87199998 5:0.94599998 
-100 1:-0.32200003 2:0.65999997 3:0.83800006 4:0.79400003 5:0.972 
100 1:-0.706 2:0.69799995 3:0.95799994 4:0.94200003 5:1 
-100 1:-0.954 2:0.85800004 3:1 4:1 5:1 
100 1:-0.62400001 2:0.90999997 3:1 4:1 5:0.93400002 
100 1:-1 2:0.30400002 3:0.45799994 4:0.38800001 5:0.25999999 
-100 1:-1 2:0.57599998 3:0.67799997 4:0.67200005 5:0.71000004 
-100 1:-0.47000003 2:0.80599999 3:0.96800005 4:0.91199994 5:0.90199995 
100 1:-0.692 2:0.71200001 3:0.99199998 4:0.88600004 5:0.91400003 
100 1:-1 2:0.30400002 3:0.40600002 4:0.40999997 5:0.25999999 
-12.78102723830486 1:-1 2:0.66600001 3:0.85599995 4:0.73599994 5:0.73800004 
100 1:-1 2:0.44000006 3:0.52999997 4:0.51600003 5:0.56200004 
-47.9194801737271 1:-0.96 2:0.85800004 3:1 4:1 5:1 
100 1:-1 2:0.63999999 3:0.86600006 4:0.86600006 5:0.94200003 
-100 1:-0.896 2:0.68599999 3:0.94599998 4:0.972 5:1 
-100 1:-0.93 2:0.63800001 3:0.88999999 4:0.80200005 5:1 
-100 1:-0.848 2:0.66999996 3:0.88999999 4:0.96200001 5:1 
-100 1:-0.574 2:0.97000003 3:1 4:0.92799997 5:0.92400002 
-100 1:-0.45599997 2:0.796 3:0.96800005 4:0.91600001 5:0.90199995 
-100 1:-0.47600001 2:0.79999995 3:0.96399999 4:0.90600002 5:0.898 
-15.40215085752304 1:-1 2:0.38600004 3:0.36199999 4:0.20000005 5:0.204 
100 1:-1 2:0.44000006 3:0.63399994 4:0.49399996 5:0.53199995 
-100 1:-0.53600001 2:0.796 3:0.97399998 4:0.91600001 5:0.93799996 
100 1:-0.68799999 2:0.73800004 3:0.99199998 4:0.98599994 5:0.95000005 
-100 1:-1 2:0.37800002 3:0.55799997 4:0.47599995 5:0.62 
100 1:-1 2:0.48399997 3:0.63399994 4:0.51600003 5:0.62199998 
100 1:-0.778 2:0.77199996 3:0.98800004 4:0.96200001 5:1 
-100 1:-0.892 2:0.75 3:0.95799994 4:0.83599997 5:1 
100 1:-1 2:0.55400002 3:0.704 4:0.69200003 5:0.63 
100 1:-1 2:0.38600004 3:0.45200002 4:0.34399998 5:0.42999995 
100 1:-1 2:0.51600003 3:0.778 4:0.70200002 5:0.59599996 
-100 1:-1 2:0.61199999 3:0.70200002 4:0.59599996 5:0.76199996 
100 1:-1 2:0.32599998 3:0.49000001 4:0.24600005 5:0.352 
100 1:-1 2:0.602 3:0.83800006 4:0.81799996 5:0.93400002 
-100 1:-0.33600003 2:0.84200001 3:0.99800003 4:0.972 5:1 
-100 1:-0.58399999 2:0.79999995 3:0.96399999 4:0.88 5:0.90600002 
-100 1:-0.86399999 2:0.61199999 3:0.85399997 4:0.87 5:1 
39.3770195845616 1:-1 2:0.46800005 3:0.676 4:0.64199996 5:0.60800004 
100 1:-0.71399999 2:0.78199995 3:1 4:0.95200002 5:1 
16.24482908292132 1:-1 2:0.86000001 3:1 4:0.90600002 5:0.91999996 
-35.23436758287735 1:-0.878 2:0.67999995 3:0.88600004 4:0.85800004 5:0.954 
-81.88476217744658 1:-1 2:0.29400003 3:0.45000005 4:0.33800006 5:0.51400006 
100 1:-1 2:0.52199996 3:0.73199999 4:0.65799999 5:0.60599995 
100 1:-0.996 2:0.45200002 3:0.67799997 4:0.47599995 5:0.57599998 
100 1:-1 2:0.546 3:0.70000005 4:0.50999999 5:0.58599997 
-100 1:-0.95 2:0.83599997 3:1 4:1 5:1 
-7.777146319039646 1:-0.65400001 2:0.76400006 3:0.97800004 4:0.91999996 5:0.90600002 
100 1:-0.816 2:0.62199998 3:0.85399997 4:0.71599996 5:0.99800003 
-100 1:-1 2:0.57200003 3:0.66799998 4:0.64400005 5:0.69799995 
-100 1:-0.34600002 2:0.76600003 3:0.93200004 4:0.80200005 5:1 
100 1:-0.514 2:1 3:1 4:1 5:0.94599998 
-100 1:-0.59400001 2:0.70200002 3:0.90999997 4:0.88800001 5:0.91400003 
100 1:-1 2:0.46200001 3:0.60800004 4:0.62 5:0.57599998 
-100 1:-1 2:0.48000002 3:0.77999997 4:0.68200004 5:0.73199999 
100 1:-0.99 2:0.62 3:0.88800001 4:0.70799994 5:0.58599997 
-100 1:-0.848 2:0.75 3:0.91999996 4:0.95200002 5:1 
-100 1:-0.976 2:0.56799996 3:0.80999994 4:0.66999996 5:0.39999998 
-100 1:-1 2:0.45599997 3:0.64999998 4:0.648 5:0.63800001 
100 1:-1 2:0.63399994 3:0.86199999 4:0.89400005 5:0.92999995 
73.03682058541402 1:-0.63600001 2:0.75399995 3:0.98800004 4:0.97800004 5:0.93400002 
100 1:-0.87199999 2:0.63800001 3:0.84399998 4:0.76999998 5:0.95799994 
-100 1:-0.844 2:0.66999996 3:0.88999999 4:0.96200001 5:1 
-46.37347708603703 1:-1 2:0.57599998 3:0.95200002 4:0.81799996 5:0.78799999 
100 1:-0.83400001 2:0.76600003 3:1 4:1 5:1 
100 1:-1 2:0.46200001 3:0.70000005 4:0.56400001 5:0.44599998 
-39.48919169708115 1:-0.924 2:0.69599998 3:0.97399998 4:0.92799997 5:0.93400002 
-100 1:-0.39399999 2:0.73000002 3:0.96800005 4:0.94200003 5:1 
-100 1:-1 2:0.48599994 3:0.73000002 4:0.56200004 5:0.74399996 
-100 1:-1 2:0.34800005 3:0.472 4:0.39400005 5:0.18400002 
100 1:-0.73800001 2:0.88999999 3:0.99800003 4:1 5:1 
74.18362867335546 1:-1 2:0.59000003 3:0.88800001 4:0.77999997 5:0.62199998 
-100 1:-0.49000001 2:0.77400005 3:0.96399999 4:0.92400002 5:0.91400003 
-100 1:-1 2:0.296 3:0.50399995 4:0.40400004 5:0.23399997 
-100 1:-1 2:0.57200003 3:0.66799998 4:0.63199997 5:0.69799995 
-71.02664536856098 1:-1 2:0.47000003 3:0.70599997 4:0.61000001 5:0.39600003 
-100 1:-0.902 2:0.74600005 3:0.96200001 4:0.79799998 5:1 
100 1:-0.868 2:0.65400004 3:0.84800005 4:0.75399995 5:0.96800005 
-10.91747103048649 1:-1 2:0.59000003 3:0.78400004 4:0.61000001 5:0.71200001 
-100 1:-0.36400002 2:1 3:1 4:1 5:1 
-98.52860544471349 1:-0.934 2:0.53799999 3:0.71200001 4:0.60399997 5:0.34599996 
11.73510687992485 1:-1 2:0.59599996 3:0.83800006 4:0.83000004 5:0.91600001 
-100 1:-1 2:0.46200001 3:0.63 4:0.57000005 5:0.66999996 
100 1:-1 2:0.40199995 3:0.52400005 4:0.53799999 5:0.50199997 
-11.17282934202859 1:-0.83400001 2:1 3:1 4:1 5:1 
-100 1:-1 2:0.42400002 3:0.44000006 4:0.29400003 5:0.17400002 
100 1:-1 2:0.47800004 3:0.73800004 4:0.61000001 5:0.50199997 
74.66130369787099 1:-1 2:0.65400004 3:0.87600005 4:0.89400005 5:0.91400003 
100 1:-0.81 2:0.65400004 3:0.82799995 4:0.67799997 5:1 
100 1:-0.76199999 2:0.93200004 3:1 4:1 5:1 
100 1:-0.86399999 2:0.602 3:0.82799995 4:0.78799999 5:0.98000002 
-97.3649865284911 1:-1 2:0.426 3:0.67799997 4:0.40999997 5:0.58399999 
-100 1:-0.896 2:0.676 3:0.89999998 4:0.93799996 5:1 
-42.41449330035866 1:-0.844 2:0.59599996 3:0.93200004 4:1 5:1 
-100 1:-0.236 2:1 3:1 4:1 5:0.98800004 
-100 1:-1 2:0.21200001 3:0.36199999 4:0.29999995 5:0.15400004 
-86.07308471161805 1:-1 2:0.58399999 3:0.91400003 4:0.70200002 5:0.52600002 
-100 1:-0.27600002 2:0.76999998 3:0.81799996 4:0.57799995 5:0.722 
100 1:-0.81999999 2:0.63800001 3:0.86399996 4:0.73599994 5:0.98800004 
79.52558809307186 1:-1 2:0.29999995 3:0.44200003 4:0.18799996 5:0.31200004 
-100 1:-0.42799997 2:0.78999996 3:0.98800004 4:0.93400002 5:0.90600002 
100 1:-1 2:0.5 3:0.66600001 4:0.50999999 5:0.63199997 
100 1:-1 2:0.32599998 3:0.47000003 4:0.352 5:0.51999998 
100 1:-1 2:0.51600003 3:0.67999995 4:0.58599997 5:0.52199996 
-100 1:-0.45999998 2:0.74600005 3:0.926 4:0.81200004 5:1 
100 1:-0.756 2:0.71200001 3:0.97800004 4:0.86800003 5:0.85800004 
100 1:-1 2:0.42999995 3:0.58599997 4:0.51999998 5:0.60399997 
-45.893301231123 1:-0.84 2:0.64400005 3:0.99800003 4:1 5:0.88199997 
16.13498146796853 1:-0.70199999 2:0.63999999 3:0.87199998 4:0.90600002 5:0.90600002 
-100 1:-0.48400003 2:0.77400005 3:0.95799994 4:0.92400002 5:0.91400003 
100 1:-1 2:0.63999999 3:0.86600006 4:0.89400005 5:0.92999995 
-100 1:-1 2:0.57200003 3:0.66799998 4:0.64400005 5:0.69400001 
-100 1:-0.92 2:0.72800004 3:0.98800004 4:0.92400002 5:0.90999997 
-54.26083139616875 1:-1 2:0.19000006 3:0.35399997 4:0.36000001 5:0.25999999 
-100 1:-1 2:0.41999996 3:0.66600001 4:0.51400006 5:0.66999996 
-100 1:-1 2:0.52999997 3:0.80400002 4:0.648 5:0.43599999 
29.80455221541993 1:-1 2:0.34200001 3:0.53600001 4:0.46599996 5:0.28999996 
-100 1:-0.586 2:0.72000003 3:0.98399997 4:0.88 5:0.898 
-100 1:-1 2:0.296 3:0.426 4:0.33800006 5:0.17999995 
-64.2485016028436 1:-0.52200001 2:0.74800003 3:0.88600004 4:0.72399998 5:0.824 
100 1:-0.78399999 2:0.74199998 3:0.99800003 4:0.88 5:0.93400002 
-100 1:-1 2:0.45000005 3:0.64400005 4:0.64199996 5:0.63800001 
-24.35187060720409 1:-0.50799999 2:0.69799995 3:0.95799994 4:0.94799995 5:1 
100 1:-1 2:0.47000003 3:0.71200001 4:0.58200002 5:0.46599996 
-100 1:-0.906 2:0.71399999 3:0.94200003 4:0.94799995 5:1 
100 1:-1 2:0.63999999 3:0.86199999 4:0.88 5:0.92999995 
-100 1:-0.902 2:0.74600005 3:0.96200001 4:0.80200005 5:1 
-27.82653906863667 1:-1 2:0.59000003 3:0.99800003 4:0.93400002 5:0.80799997 
-100 1:-1 2:0.44799995 3:0.63999999 4:0.58200002 5:0.68200004 
11.31172963511412 1:-1 2:0.24800003 3:0.36800003 4:0.18799996 5:0.38399994 
-100 1:-0.81999999 2:0.77199996 3:0.94200003 4:0.972 5:1 
-100 1:-1 2:0.47800004 3:0.51800001 4:0.37199998 5:0.21000004 
100 1:-1 2:0.61800003 3:0.852 4:0.83599997 5:0.95000005 
-100 1:-1 2:0.52199996 3:0.82200003 4:0.70799994 5:0.46599996 
-14.32369314695179 1:-1 2:0.48599994 3:0.77999997 4:0.68799996 5:0.73599994 
-100 1:-1 2:0.42999995 3:0.58200002 4:0.54200006 5:0.63199997 
100 1:-0.76199999 2:0.70200002 3:0.95799994 4:0.93200004 5:1 
100 1:-1 2:0.24399996 3:0.37399995 4:0.36600006 5:0.24000001 
82.68553032241057 1:-1 2:0.71200001 3:0.98599994 4:0.96000004 5:0.96399999 
100 1:-0.65200001 2:0.64400005 3:0.88 4:0.93799996 5:1 
-26.788176896471 1:-0.62599999 2:0.77400005 3:0.93400002 4:0.85000002 5:0.96599996 
100 1:-0.82600001 2:0.71800005 3:1 4:1 5:1 
100 1:-0.68799999 2:0.72800004 3:0.98800004 4:0.95200002 5:0.92200005 
100 1:-1 2:0.49199998 3:0.69200003 4:0.57599998 5:0.49600005 
100 1:-0.662 2:0.64999998 3:0.88399994 4:0.93799996 5:1 
-100 1:-0.29799998 2:0.84599996 3:0.98800004 4:0.99600005 5:1 
-100 1:-0.87199999 2:0.65999997 3:0.926 4:0.94799995 5:1 
-100 1:-1 2:0.23599994 3:0.34800005 4:0.25 5:0.20000005 
100 1:-0.57600001 2:1 3:1 4:1 5:1 
100 1:-0.706 2:0.71800005 3:0.88600004 4:0.76400006 5:0.86399996 
-100 1:0.23399997 2:0.778 3:0.93599999 4:0.91799998 5:0.96399999 
-100 1:0.76400006 2:1 3:1 4:0.86199999 5:0.94200003 
100 1:0.676 2:1 3:0.94200003 4:0.83000004 5:0.91199994 
-100 1:0.66400003 2:1 3:1 4:0.88 5:0.92999995 
-100 1:0.17200005 2:0.93200004 3:0.95799994 4:0.88800001 5:0.84800005 
100 1:0.68599999 2:0.84800005 3:0.94599998 4:0.80799997 5:0.80400002 
100 1:0.78199995 2:0.91600001 3:0.99199998 4:0.85399997 5:0.91400003 
-100 1:0.88399994 2:0.96200001 3:0.87399995 4:0.76999998 5:0.824 
100 1:0.84000003 2:1 3:0.96399999 4:0.84399998 5:0.91600001 
100 1:-0.068000019 2:0.89999998 3:0.93200004 4:0.93200004 5:0.98399997 
-71.38818171526131 1:1 2:1 3:1 4:0.92400002 5:0.80200005 
100 1:0.78199995 2:1 3:0.90999997 4:0.82200003 5:0.86000001 
100 1:-0.16600001 2:0.75 3:0.972 4:0.85800004 5:0.824 
100 1:0.49399996 2:1 3:1 4:0.79999995 5:0.90199995 
-100 1:0.22399998 2:0.95200002 3:0.95799994 4:0.88800001 5:0.852 
100 1:0.57799995 2:1 3:0.94400001 4:0.82200003 5:0.852 
-100 1:0.65799999 2:1 3:1 4:0.86600006 5:0.92400002 
-87.18075691755578 1:0.852 2:1 3:1 4:0.81200004 5:0.898 
-100 1:0.19200003 2:0.94000006 3:0.88800001 4:0.97800004 5:0.85399997 
44.27825117911244 1:0.29999995 2:0.94200003 3:0.91999996 4:0.83200002 5:0.87600005 
100 1:0.85599995 2:0.97599995 3:0.926 4:0.824 5:0.76800001 
100 1:1 2:0.96200001 3:0.97800004 4:0.85800004 5:0.91400003 
-100 1:0.68200004 2:1 3:1 4:0.88 5:0.92400002 
100 1:0.602 2:0.99399996 3:0.92400002 4:0.82599998 5:0.88800001 
100 1:0.90600002 2:0.95200002 3:0.94400001 4:0.88399994 5:0.86800003 
-100 1:0.67999995 2:0.71800005 3:0.88399994 4:0.90799999 5:0.95799994 
-100 1:1 2:0.84599996 3:0.84800005 4:0.84599996 5:0.95000005 
-100 1:0.15400004 2:0.78799999 3:0.93599999 4:0.90799999 5:0.94599998 
-100 1:1 2:0.852 3:0.85800004 4:0.86600006 5:0.96399999 
100 1:0.352 2:0.84800005 3:0.91999996 4:0.852 5:0.84399998 
100 1:0.90999997 2:1 3:0.95799994 4:0.82200003 5:0.92999995 
100 1:0.88600004 2:1 3:0.96399999 4:0.79200006 5:0.88 
-54.28586433606341 1:0.052000046 2:0.74600005 3:0.91999996 4:0.90400004 5:0.94599998 
100 1:0.86399996 2:0.93799996 3:0.926 4:0.89600003 5:0.73199999 
-100 1:0.59399998 2:0.94599998 3:0.96800005 4:0.89400005 5:0.852 
-100 1:0.68599999 2:0.87 3:0.78999996 4:0.75800002 5:0.90400004 
100 1:0.778 2:1 3:0.91999996 4:0.79200006 5:0.824 
100 1:0.96200001 2:1 3:0.94599998 4:0.80799997 5:0.83399999 
-100 1:0.48800004 2:1 3:1 4:0.84800005 5:0.92999995 
100 1:0.42999995 2:0.90799999 3:0.88800001 4:0.75199997 5:0.73800004 
100 1:0.60800004 2:1 3:0.94799995 4:0.82599998 5:0.852 
-100 1:0.89999998 2:0.94599998 3:0.83200002 4:0.78600001 5:0.85599995 
100 1:0.72000003 2:1 3:0.95200002 4:0.83399999 5:0.91999996 
-100 1:0.59399998 2:0.74199998 3:0.89400005 4:0.75800002 5:0.80799997 
-100 1:0.82799995 2:1 3:1 4:0.898 5:0.93400002 
100 1:0.79200006 2:0.96200001 3:0.88199997 4:0.85000002 5:0.86399996 
-100 1:0.82000005 2:0.96800005 3:0.926 4:0.75199997 5:0.78199995 
100 1:0.57000005 2:0.89999998 3:0.95799994 4:0.87199998 5:0.88 
100 1:-0.082000017 2:0.90600002 3:0.93400002 4:0.85800004 5:0.87600005 
100 1:0.82000005 2:0.92999995 3:0.95200002 4:0.90199995 5:0.74800003 
100 1:0.05400002 2:0.84000003 3:0.85599995 4:0.72399998 5:0.75800002 
100 1:0.97800004 2:0.94599998 3:0.96599996 4:0.91199994 5:0.898 
-100 1:0.22399998 2:0.86199999 3:0.94000006 4:0.84000003 5:0.81799996 
100 1:0.99000001 2:0.96800005 3:0.96399999 4:0.85399997 5:0.91799998 
-100 1:0.64999998 2:0.88600004 3:0.84200001 4:0.76400006 5:0.84800005 
100 1:0.69200003 2:0.85399997 3:0.97399998 4:0.85000002 5:0.91400003 
-100 1:0.92400002 2:0.94599998 3:0.82799995 4:0.778 5:0.852 
-43.37586684346385 1:0.28799999 2:0.82599998 3:0.89400005 4:0.74800003 5:0.71800005 
100 1:0.78199995 2:0.79799998 3:0.91600001 4:0.88999999 5:0.92999995 
-100 1:0.25199997 2:0.80999994 3:0.88800001 4:0.75199997 5:0.80799997 
100 1:0.59000003 2:0.86800003 3:0.88999999 4:0.89400005 5:0.91999996 
100 1:0.79999995 2:0.954 3:0.94599998 4:0.90799999 5:0.98399997 
-100 1:0.36600006 2:0.87 3:0.86800003 4:0.74199998 5:0.722 
-100 1:0.81400001 2:0.91600001 3:0.84200001 4:0.74199998 5:0.79200006 
100 1:1 2:1 3:1 4:0.82599998 5:0.85800004 
100 1:0.88199997 2:0.98800004 3:0.94799995 4:0.80400002 5:0.86399996 
100 1:0.79200006 2:0.89999998 3:0.93200004 4:0.86199999 5:0.76800001 
100 1:0.64999998 2:0.82599998 3:0.97800004 4:0.87199998 5:0.88 
100 1:0.82799995 2:0.97599995 3:0.926 4:0.81400001 5:0.76199996 
100 1:0.96599996 2:1 3:0.88800001 4:0.77199996 5:0.80200005 
-100 1:0.50800002 2:0.83200002 3:0.84200001 4:0.80200005 5:0.83800006 
-100 1:0.85399997 2:1 3:0.97800004 4:0.88999999 5:0.98399997 
-100 1:0.30200005 2:0.75 3:0.91400003 4:0.73000002 5:0.74800003 
-100 1:0.86399996 2:0.92400002 3:0.88199997 4:0.76999998 5:0.79799998 
-100 1:0.12600005 2:0.93200004 3:0.954 4:0.88800001 5:0.84800005 
-100 1:0.49399996 2:0.89400005 3:0.88199997 4:0.72399998 5:0.80799997 
-100 1:1 2:1 3:1 4:0.87600005 5:1 
100 1:0.62 2:1 3:1 4:0.84800005 5:0.96800005 
100 1:0.45200002 2:0.91600001 3:0.89400005 4:0.75199997 5:0.74800003 
100 1:0.58800006 2:1 3:0.94799995 4:0.82599998 5:0.852 
100 1:0.96200001 2:0.99800003 3:0.93200004 4:0.796 5:0.83399999 
-100 1:0.84000003 2:1 3:0.82200003 4:0.82599998 5:0.91600001 
91.85935051794249 1:0.98399997 2:0.94599998 3:1 4:0.97800004 5:0.86399996 
100 1:0.99399996 2:0.97399998 3:0.97800004 4:0.85800004 5:0.92200005 
100 1:0.55799997 2:0.90799999 3:0.86800003 4:0.80799997 5:0.74199998 
100 1:0.53199995 2:0.84200001 3:0.90600002 4:0.88399994 5:0.91199994 
-100 1:0.30200005 2:0.81799996 3:0.87399995 4:0.70200002 5:0.75800002 
-100 1:0.83399999 2:0.93200004 3:0.89600003 4:0.78600001 5:0.83200002 
-100 1:0.94799995 2:0.88999999 3:0.88600004 4:0.78199995 5:0.84000003 
100 1:0.796 2:1 3:0.89400005 4:0.86600006 5:0.94599998 
-100 1:0.86800003 2:0.99399996 3:0.97399998 4:0.91600001 5:0.88800001 
100 1:0.55599999 2:0.96800005 3:0.96800005 4:0.86199999 5:0.91400003 
100 1:0.84200001 2:0.92999995 3:0.94000006 4:0.90799999 5:0.74199998 
90.08094284895695 1:0.83399999 2:1 3:0.87199998 4:0.97399998 5:0.94200003 
100 1:0.85800004 2:1 3:0.94000006 4:0.79200006 5:0.88399994 
100 1:0.35599995 2:1 3:0.898 4:0.88800001 5:0.89400005 
74.72554665085823 1:0.45599997 2:1 3:1 4:0.88800001 5:1 
100 1:0.48399997 2:0.82000005 3:0.926 4:0.89400005 5:0.91600001 
100 1:0.25 2:0.97599995 3:0.88199997 4:0.94200003 5:0.86800003 
100 1:0.43200004 2:0.94200003 3:0.94400001 4:0.79200006 5:0.86800003 
100 1:0.59399998 2:0.75800002 3:0.91999996 4:0.80200005 5:0.83399999 
-100 1:0.24600005 2:0.84800005 3:0.89999998 4:0.72399998 5:0.74199998 
-100 1:1 2:0.86399996 3:0.87600005 4:0.79200006 5:0.852 
100 1:-0.18199998 2:0.852 3:0.93599999 4:0.92400002 5:0.972 
100 1:0.52600002 2:0.91999996 3:0.94799995 4:0.88399994 5:0.84800005 
-100 1:0.24600005 2:0.82599998 3:0.88199997 4:0.75800002 5:0.778 
100 1:-0.078000009 2:0.79400003 3:0.95200002 4:0.93200004 5:0.94599998 
100 1:0.34399998 2:0.80200005 3:0.97800004 4:0.76400006 5:0.778 
-100 1:0.96000004 2:1 3:1 4:0.91600001 5:0.87600005 
100 1:-0.15799999 2:0.80400002 3:0.96800005 4:0.92799997 5:0.94599998 
100 1:0.55999994 2:0.87399995 3:0.88399994 4:0.89400005 5:0.91999996 
100 1:0.046000004 2:0.84000003 3:0.86199999 4:0.72399998 5:0.75199997 
-100 1:0.90999997 2:1 3:1 4:0.97800004 5:0.87199998 
100 1:0.94200003 2:0.94599998 3:0.94599998 4:0.85800004 5:0.80400002 
-71.04222460244159 1:0.90600002 2:1 3:0.91600001 4:0.77400005 5:0.87199998 
-100 1:0.60800004 2:0.87 3:0.83000004 4:0.73000002 5:0.79200006 
-100 1:0.88399994 2:1 3:1 4:0.99199998 5:0.83599997 
-28.04075984016147 1:0.48599994 2:0.84800005 3:0.84200001 4:0.796 5:0.77199996 
-100 1:0.97800004 2:1 3:1 4:0.90600002 5:0.93400002 
100 1:0.87800002 2:0.954 3:0.926 4:0.78600001 5:0.81400001 
8.951716920598606 1:0.96800005 2:0.99199998 3:0.96800005 4:0.88999999 5:0.98800004 
100 1:0.93400002 2:0.99199998 3:0.91999996 4:0.77999997 5:0.79200006 
-64.58026501790202 1:0.87199998 2:0.87399995 3:0.88399994 4:0.87 5:0.91600001 
-100 1:0.82000005 2:0.85599995 3:1 4:0.97399998 5:0.824 
100 1:0.81400001 2:0.96000004 3:0.94599998 4:0.90799999 5:0.98399997 
100 1:0.93400002 2:0.98399997 3:0.96399999 4:0.90199995 5:0.88 
-100 1:0.87199998 2:0.85800004 3:0.88 4:0.87 5:0.91600001 
100 1:0.75199997 2:1 3:0.95200002 4:0.83399999 5:0.92400002 
100 1:0.80999994 2:0.96000004 3:0.94599998 4:0.90799999 5:0.98399997 
-100 1:0.74399996 2:0.98399997 3:0.96399999 4:0.91999996 5:0.89199996 
-100 1:0.85800004 2:0.95200002 3:0.91600001 4:0.76400006 5:0.82799995 
-100 1:0.51400006 2:1 3:0.96399999 4:0.93400002 5:0.96800005 
100 1:0.77199996 2:0.94599998 3:0.96800005 4:0.898 5:0.85599995 
-100 1:0.66600001 2:0.74000001 3:0.89400005 4:0.90799999 5:0.95000005 
100 1:0.54200006 2:0.86800003 3:0.88999999 4:0.89999998 5:0.926 
-100 1:0.66600001 2:0.71399999 3:0.88 4:0.89999998 5:0.95000005 
-19.07804712941718 1:0.21800005 2:0.95799994 3:0.88800001 4:0.97800004 5:0.86800003 
100 1:0.28600001 2:0.99399996 3:0.88199997 4:0.90999997 5:0.87600005 
-100 1:0.54999995 2:0.85599995 3:0.80400002 4:0.79200006 5:0.90400004 
-100 1:0.62199998 2:0.95799994 3:0.96800005 4:0.89400005 5:0.852 
-100 1:0.85800004 2:0.97800004 3:0.92400002 4:0.75600004 5:0.824 
-33.22068683150437 1:0.31799996 2:1 3:1 4:0.81200004 5:0.88600004 
-100 1:1 2:0.86399996 3:0.88199997 4:0.796 5:0.852 
-100 1:1 2:1 3:1 4:0.88999999 5:1 
100 1:-0.015999973 2:0.89400005 3:0.90999997 4:0.796 5:0.86000001 
-100 1:0.59399998 2:0.88600004 3:0.85599995 4:0.77999997 5:0.85399997 
-100 1:0.86199999 2:1 3:0.97800004 4:0.89400005 5:0.954 
-100 1:0.66999996 2:1 3:1 4:0.84800005 5:0.92400002 
-100 1:0.84800005 2:0.93599999 3:0.90600002 4:0.77400005 5:0.82799995 
100 1:0.039999962 2:0.83200002 3:0.86800003 4:0.73599994 5:0.75800002 
100 1:0.47399998 2:0.82000005 3:0.926 4:0.88999999 5:0.91199994 
-100 1:0.13800001 2:0.82599998 3:0.88800001 4:0.72000003 5:0.73199999 
100 1:0.059999943 2:0.81799996 3:0.89400005 4:0.74199998 5:0.78799999 
-100 1:0.17400002 2:0.83200002 3:0.926 4:0.73000002 5:0.71800005 
-100 1:0.50800002 2:0.93599999 3:0.83200002 4:0.76400006 5:0.82000005 
-100 1:0.13399994 2:0.96800005 3:0.954 4:0.85399997 5:0.87199998 
-100 1:0.87199998 2:1 3:0.83399999 4:0.84399998 5:0.92999995 
100 1:0.76800001 2:0.94200003 3:0.96800005 4:0.89400005 5:0.852 
100 1:-0.13 2:0.87399995 3:0.926 4:0.93200004 5:0.98000002 
100 1:1 2:1 3:0.96800005 4:0.90799999 5:0.95799994 
-100 1:0.88600004 2:0.69200003 3:0.90999997 4:0.89999998 5:0.96800005 
64.37338824311735 1:0.05400002 2:0.80999994 3:0.91999996 4:0.72399998 5:0.72800004 
100 1:0.41600001 2:0.89999998 3:0.88199997 4:0.74800003 5:0.73800004 
12.33338176618063 1:0.722 2:0.79400003 3:1 4:0.95599997 5:0.83399999 
100 1:0.73000002 2:1 3:0.94799995 4:0.84000003 5:0.90199995 
-100 1:0.89600003 2:1 3:1 4:0.99199998 5:0.85800004 
100 1:0.88399994 2:1 3:0.926 4:0.80799997 5:0.83800006 
100 1:0.50800002 2:0.80200005 3:0.96599996 4:0.75199997 5:0.75800002 
100 1:0.37399995 2:0.85599995 3:0.91999996 4:0.852 5:0.84800005 
100 1:0.43200004 2:0.95200002 3:0.92400002 4:0.81799996 5:0.87600005 
-100 1:0.88399994 2:1 3:1 4:0.77199996 5:0.85399997 
100 1:1 2:0.84200001 3:0.93400002 4:0.80999994 5:0.86399996 
-100 1:0.83599997 2:0.96200001 3:0.94599998 4:0.76400006 5:0.81400001 
100 1:0.49000001 2:1 3:0.86199999 4:0.78600001 5:0.82799995 
100 1:0.778 2:0.95799994 3:0.92999995 4:0.78600001 5:0.86800003 
-100 1:0.88399994 2:0.97599995 3:0.926 4:0.75800002 5:0.78199995 
-100 1:0.54999995 2:0.87800002 3:0.83599997 4:0.69799995 5:0.75800002 
100 1:0.039999962 2:0.80200005 3:0.91999996 4:0.72399998 5:0.72800004 
100 1:0.82000005 2:1 3:0.89600003 4:0.83599997 5:0.86399996 
100 1:0.96800005 2:0.98599994 3:0.95799994 4:0.90400004 5:0.98800004 
100 1:0.65799999 2:1 3:0.93599999 4:0.84399998 5:0.91600001 
100 1:0.074000001 2:0.80999994 3:0.89999998 4:0.74800003 5:0.80400002 
-100 1:0.83399999 2:0.91999996 3:0.88999999 4:0.796 5:0.83599997 
100 1:-0.078000009 2:0.86199999 3:0.926 4:0.93200004 5:0.96399999 
-33.84786122550703 1:0.27400005 2:0.79400003 3:0.98399997 4:0.76999998 5:0.77199996 
-100 1:0.77199996 2:1 3:0.86199999 4:0.78199995 5:0.82799995 
100 1:1 2:0.95799994 3:0.97399998 4:0.87199998 5:0.90600002 
100 1:-0.040000021 2:0.89999998 3:0.90999997 4:0.796 5:0.85599995 
-100 1:0.78199995 2:0.90999997 3:0.88600004 4:0.79999995 5:0.84000003 
-100 1:0.44599998 2:0.90999997 3:0.82799995 4:0.76400006 5:0.82000005 
-100 1:0.37399995 2:1 3:1 4:0.91999996 5:0.98599994 
-100 1:0.84599996 2:1 3:1 4:0.93400002 5:0.79200006 
-100 1:0.148 2:0.93200004 3:0.94799995 4:0.88399994 5:0.852 
100 1:-0.11000001 2:0.88399994 3:0.926 4:0.93799996 5:0.98399997 
-100 1:0.68200004 2:1 3:1 4:0.852 5:0.92400002 
-100 1:0.16799998 2:0.80999994 3:0.87399995 4:0.70799994 5:0.71200001 
-100 1:1 2:1 3:1 4:0.88 5:1 
100 1:0.83599997 2:0.92999995 3:0.94000006 4:0.90799999 5:0.74199998 
100 1:0.99600005 2:1 3:0.96800005 4:0.91799998 5:0.96399999 
100 1:-0.18800002 2:0.74199998 3:0.96599996 4:0.84599996 5:0.80400002 
-100 1:0.72000003 2:1 3:1 4:0.86199999 5:0.97399998 
-100 1:0.93400002 2:1 3:0.86600006 4:0.75800002 5:0.76199996 
-100 1:0.76999998 2:1 3:1 4:0.84800005 5:0.95200002 
100 1:-0.19599998 2:0.89400005 3:0.90600002 4:0.80400002 5:0.852 
100 1:0.824 2:0.98399997 3:0.88600004 4:0.85000002 5:0.86800003 
100 1:0.34200001 2:0.95200002 3:0.92400002 4:0.81400001 5:0.88399994 
-100 1:0.29400003 2:1 3:1 4:0.81599998 5:0.88 
-100 1:0.83399999 2:0.93200004 3:0.89999998 4:0.77400005 5:0.82799995 
-100 1:0.60000002 2:0.88600004 3:0.85599995 4:0.77999997 5:0.85399997 
100 1:0.20599997 2:1 3:0.93599999 4:0.92799997 5:0.98599994 
17.6499747263016 1:1 2:1 3:1 4:0.88399994 5:0.94599998 
100 1:-0.18000001 2:0.74199998 3:0.96599996 4:0.84599996 5:0.79799998 
100 1:0.85800004 2:0.84200001 3:0.89999998 4:0.89999998 5:0.94200003 
100 1:0.88999999 2:1 3:0.91999996 4:0.79400003 5:0.85000002 
100 1:0.76800001 2:0.91600001 3:0.98800004 4:0.85399997 5:0.91400003 
-100 1:0.56599998 2:0.76400006 3:1 4:0.94000006 5:0.85399997 
100 1:-0.18000001 2:0.74199998 3:0.95799994 4:0.852 5:0.80799997 
100 1:0.79999995 2:0.954 3:0.94200003 4:0.90799999 5:0.98000002 
100 1:-0.11199999 2:0.88 3:0.89600003 4:0.81799996 5:0.86000001 
-100 1:0.722 2:0.77199996 3:0.88800001 4:0.76400006 5:0.824 
-100 1:0.79200006 2:0.90799999 3:0.90799999 4:0.76400006 5:0.80400002 
-100 1:0.84399998 2:0.89400005 3:0.90600002 4:0.76999998 5:0.84000003 
-100 1:0.52199996 2:0.96000004 3:0.93599999 4:0.92799997 5:0.96399999 
-100 1:0.39400005 2:1 3:0.96800005 4:0.85000002 5:0.86800003 
-100 1:0.80999994 2:0.96399999 3:1 4:0.90799999 5:0.99199998 
100 1:0.80599999 2:0.94599998 3:0.95200002 4:0.86800003 5:0.76199996 
-100 1:0.64400005 2:0.89999998 3:0.88800001 4:0.70799994 5:0.70200002 
-100 1:0.66400003 2:0.88600004 3:0.85599995 4:0.73000002 5:0.71800005 
100 1:0.73399997 2:0.94200003 3:0.96399999 4:0.89400005 5:0.852 
-100 1:1 2:1 3:1 4:0.90999997 5:0.74399996 
-100 1:0.26600003 2:0.82599998 3:0.87399995 4:0.74199998 5:0.778 
-100 1:0.70799994 2:0.88600004 3:0.84800005 4:0.75800002 5:0.84399998 
-100 1:0.082000017 2:0.93200004 3:0.82799995 4:0.79200006 5:0.82799995 
-100 1:0.92799997 2:0.94200003 3:0.81799996 4:0.77400005 5:0.84800005 
-100 1:0.21800005 2:0.92799997 3:0.89400005 4:0.93400002 5:0.85000002 
-100 1:0.85000002 2:0.92400002 3:0.88199997 4:0.76999998 5:0.79200006 
100 1:0.57799995 2:1 3:0.94799995 4:0.82599998 5:0.852 
-100 1:0.30599999 2:1 3:1 4:0.81200004 5:0.88600004 
-100 1:0.23599994 2:1 3:1 4:0.82200003 5:0.88 
-100 1:0.21800005 2:0.94000006 3:0.898 4:0.91600001 5:0.87199998 
100 1:0.46399999 2:0.84599996 3:0.91600001 4:0.88999999 5:0.92999995 
-100 1:0.86000001 2:1 3:0.84399998 4:0.88399994 5:0.95599997 
-100 1:0.60399997 2:0.73399997 3:0.89400005 4:0.89999998 5:0.95799994 
-100 1:0.58599997 2:0.88600004 3:0.78999996 4:0.76999998 5:0.90799999 
-100 1:0.91999996 2:0.99800003 3:0.91400003 4:0.75800002 5:0.78799999 
100 1:0.99399996 2:0.97399998 3:0.96800005 4:0.86199999 5:0.92200005 
100 1:0.62600005 2:1 3:0.93599999 4:0.87600005 5:0.92400002 
100 1:0.60800004 2:0.89400005 3:0.87600005 4:0.79999995 5:0.84800005 
100 1:0.78600001 2:0.80999994 3:0.91999996 4:0.88999999 5:0.926 
-100 1:0.16799998 2:0.84800005 3:0.86199999 4:0.73599994 5:0.77199996 
100 1:0.86199999 2:0.99399996 3:0.88999999 4:0.81400001 5:0.88399994 
100 1:0.90400004 2:1 3:0.94799995 4:0.81200004 5:0.91600001 
100 1:-0.096000016 2:0.88999999 3:0.926 4:0.93200004 5:0.98399997 
19.16708586946408 1:0.44599998 2:0.80999994 3:0.926 4:0.89400005 5:0.91600001 
-58.87242174866517 1:0.91600001 2:0.76199996 3:0.91600001 4:0.92400002 5:0.96800005 
-100 1:0.66400003 2:1 3:1 4:0.85800004 5:0.94200003 
-100 1:0.91999996 2:0.99800003 3:0.926 4:0.76400006 5:0.78799999 
100 1:0.67799997 2:0.75800002 3:0.95200002 4:0.824 5:0.78199995 
-100 1:0.64400005 2:0.89400005 3:0.86199999 4:0.77999997 5:0.84399998 
-100 1:0.98199999 2:1 3:1 4:0.90799999 5:1 
-100 1:0.86199999 2:0.98800004 3:0.92999995 4:0.75600004 5:0.824 
100 1:-0.16799998 2:0.87399995 3:0.88999999 4:0.81799996 5:0.86000001 
-100 1:0.78600001 2:0.88600004 3:0.90799999 4:0.75800002 5:0.79799998 
-100 1:0.84399998 2:0.98599994 3:0.96800005 4:0.90799999 5:0.98800004 
100 1:0.84599996 2:1 3:0.85599995 4:0.95599997 5:0.92999995 
100 1:0.91999996 2:0.96800005 3:0.954 4:0.89400005 5:0.86800003 
100 1:0.90600002 2:0.90799999 3:0.95200002 4:0.90199995 5:0.88399994 
100 1:0.031999946 2:0.80200005 3:0.91999996 4:0.72399998 5:0.722 
-100 1:0.82799995 2:1 3:1 4:0.94599998 5:0.78799999 
100 1:0.70599997 2:0.96800005 3:0.88199997 4:0.84399998 5:0.86000001 
100 1:0.79999995 2:0.954 3:0.94200003 4:0.91400003 5:0.98000002 
99.82877226464014 1:0.68200004 2:1 3:0.96399999 4:0.85800004 5:0.94599998 
100 1:-0.047999978 2:0.87800002 3:0.91999996 4:0.94200003 5:0.96800005 
-100 1:0.16199994 2:1 3:0.90400004 4:0.89199996 5:1 
18.86784411072235 1:1 2:1 3:1 4:0.77600002 5:0.85800004 
-100 1:0.27999997 2:0.86199999 3:0.85599995 4:0.72399998 5:0.74800003 
-100 1:0.71800005 2:1 3:0.96200001 4:0.92400002 5:0.96800005 
-100 1:0.83399999 2:1 3:0.88800001 4:0.98199999 5:0.95200002 
-100 1:0.63800001 2:1 3:1 4:0.852 5:0.93799996 
-100 1:0.82200003 2:1 3:0.85000002 4:0.83399999 5:0.91999996 
-100 1:0.96200001 2:0.92999995 3:1 4:0.99600005 5:0.824 
-100 1:0.86199999 2:0.95799994 3:0.85800004 4:0.796 5:0.86000001 
-100 1:0.84000003 2:1 3:0.89400005 4:0.98199999 5:0.95599997 
100 1:0.93400002 2:1 3:0.94799995 4:0.78600001 5:0.88 
-25.0469613683065 1:1 2:0.87399995 3:0.91600001 4:0.80400002 5:0.86800003 
-100 1:1 2:1 3:1 4:0.89400005 5:1 
100 1:0.778 2:0.91999996 3:0.98800004 4:0.85399997 5:0.91400003 
-100 1:0.83599997 2:0.88600004 3:0.89400005 4:0.80799997 5:0.85800004 
100 1:0.39400005 2:0.81799996 3:0.90799999 4:0.77999997 5:0.80799997 
-100 1:0.21200001 2:0.92799997 3:0.88800001 4:0.96000004 5:0.84200001 
100 1:0.91600001 2:1 3:0.95799994 4:0.83000004 5:0.93799996 
100 1:0.88399994 2:0.99800003 3:0.91999996 4:0.80200005 5:0.83800006 
100 1:0.88999999 2:1 3:0.89600003 4:0.79999995 5:0.88 
100 1:0.75 2:0.84200001 3:0.97800004 4:0.85399997 5:0.91400003 
100 1:0.61600006 2:0.91600001 3:0.89999998 4:0.77400005 5:0.83599997 
100 1:0.85599995 2:0.92999995 3:0.93200004 4:0.90799999 5:0.74199998 
-100 1:1 2:0.85399997 3:0.92400002 4:0.78199995 5:0.86399996 
100 1:0.75800002 2:0.78199995 3:0.90600002 4:0.88999999 5:0.93400002 
-20.45421702513914 1:0.57000005 2:0.94200003 3:0.96399999 4:0.89400005 5:0.852 
-100 1:0.73800004 2:1 3:0.96200001 4:0.91799998 5:0.96800005 
-100 1:0.77199996 2:0.88600004 3:0.88199997 4:0.80200005 5:0.86399996 
-2.967451270349077 1:0.96000004 2:1 3:0.88199997 4:0.76400006 5:0.77999997 
100 1:0.49000001 2:0.91600001 3:0.94000006 4:0.79200006 5:0.86800003 
100 1:0.68200004 2:1 3:0.95200002 4:0.83000004 5:0.91600001 
100 1:0.81599998 2:1 3:0.90600002 4:0.82599998 5:0.86399996 
-88.91643609175524 1:0.50199997 2:0.72000003 3:0.91400003 4:0.79200006 5:0.824 
100 1:0.97800004 2:1 3:0.972 4:0.87600005 5:0.98000002 
-74.85603174154357 1:0.148 2:1 3:0.90400004 4:0.89199996 5:1 
100 1:0.98599994 2:0.96800005 3:0.96399999 4:0.85800004 5:0.92200005 
-100 1:0.33000004 2:0.73399997 3:0.90799999 4:0.73000002 5:0.75199997 
100 1:0.91999996 2:0.99399996 3:0.96800005 4:0.91199994 5:0.88399994 
-100 1:0.63600004 2:0.92999995 3:0.85599995 4:0.72399998 5:0.74800003 
61.37618884972034 1:0.11800003 2:0.87800002 3:0.90799999 4:0.72399998 5:0.73199999 
-100 1:0.83800006 2:0.93200004 3:0.89600003 4:0.78600001 5:0.83200002 
-100 1:0.85599995 2:0.92400002 3:0.87399995 4:0.76400006 5:0.79200006 
-100 1:0.56599998 2:0.73399997 3:0.88199997 4:0.75800002 5:0.80799997 
100 1:0.46399999 2:0.84200001 3:0.91999996 4:0.88999999 5:0.92999995 
-100 1:0.65799999 2:1 3:1 4:0.852 5:0.91999996 
-100 1:0.15400004 2:0.91600001 3:0.82799995 4:0.78600001 5:0.82799995 
-100 1:0.94799995 2:1 3:0.87199998 4:0.76400006 5:0.76600003 
-79.37811426656044 1:0.722 2:0.80200005 3:0.94000006 4:0.76400006 5:0.79200006 
-100 1:0.76400006 2:1 3:1 4:0.84800005 5:0.95200002 
100 1:0.43799996 2:0.954 3:0.90799999 4:0.78600001 5:0.80799997 
100 1:0.53199995 2:0.91999996 3:0.954 4:0.88800001 5:0.84800005 
-100 1:0.74600005 2:1 3:1 4:0.87 5:0.91199994 
-100 1:0.49399996 2:1 3:1 4:0.90199995 5:0.98199999 
100 1:0.53199995 2:1 3:0.93400002 4:0.78199995 5:0.83599997 
31.58585819975162 1:-0.0080000162 2:0.88999999 3:0.81400001 4:0.78600001 5:0.82799995 
100 1:0.54999995 2:0.75600004 3:0.93599999 4:0.90400004 5:0.96800005 
-100 1:0.54400003 2:0.89999998 3:0.86800003 4:0.75199997 5:0.778 
100 1:0.10399997 2:1 3:1 4:0.81200004 5:0.90199995 
100 1:0.28799999 2:0.89999998 3:0.91400003 4:0.80200005 5:0.81400001 
100 1:0.68599999 2:0.99800003 3:0.91999996 4:0.78600001 5:0.81400001 
-100 1:0.88999999 2:1 3:1 4:0.99600005 5:0.85800004 
-100 1:0.48000002 2:0.74199998 3:0.91999996 4:0.77999997 5:0.75800002 
-100 1:0.98000002 2:0.95200002 3:0.82799995 4:0.77400005 5:0.852 
-100 1:0.97000003 2:1 3:0.88199997 4:0.75199997 5:0.78799999 
100 1:0.89199996 2:0.96200001 3:0.93200004 4:0.79200006 5:0.81799996 
-57.92234454831748 1:-0.17400002 2:0.546 3:-0.63800001 4:-0.838 5:-0.49000001 
100 1:0.70200002 2:0.48199999 3:-0.646 4:-0.934 5:-0.61399999 
-63.67021210181056 1:0.080000043 2:0.53600001 3:-0.79000001 4:-0.92 5:-0.924 
100 1:0.082000017 2:0.62 3:-0.586 4:-0.876 5:-0.514 
100 1:0.059999943 2:0.31200004 3:-0.78200001 4:-0.976 5:-0.59 
-30.50363984124397 1:0.37800002 2:0.50600004 3:-0.69400001 4:-0.868 5:-0.824 
98.54221035936612 1:0.102 2:0.398 3:-0.76199999 4:-0.974 5:-0.75 
-58.11796892331264 1:0.80599999 2:0.28199995 3:-0.71399999 4:-0.888 5:-0.74399999 
100 1:-0.338 2:0.0019999743 3:-0.86 4:-0.998 5:-0.68599999 
100 1:0.69799995 2:0.62399995 3:-0.748 4:-0.97 5:-0.896 
-100 1:0.14400005 2:-0.22000003 3:-0.844 4:-0.926 5:-0.808 
-100 1:0.88999999 2:0.59200001 3:-0.748 4:-0.966 5:-0.69600001 
-100 1:0.46399999 2:0.49399996 3:-0.64199999 4:-0.868 5:-0.74399999 
100 1:0.69200003 2:0.46599996 3:-0.59400001 4:-0.854 5:-0.61399999 
19.76951575519141 1:0.26800001 2:-0.13800001 3:-0.93 4:-0.952 5:-0.912 
-100 1:0.61199999 2:0.40999997 3:-0.47799999 4:-0.84999999 5:-0.502 
95.64980790398847 1:0.778 2:-0.49400002 3:-0.916 4:-1 5:-0.794 
-100 1:-0.30199999 2:0.11399996 3:-0.808 4:-0.964 5:-0.59400001 
-100 1:0.71399999 2:0.34000003 3:-0.72999999 4:-0.878 5:-0.84999999 
-100 1:0.074000001 2:0.075999975 3:-0.852 4:-1 5:-0.756 
100 1:0.83800006 2:0.43599999 3:-0.72799999 4:-0.926 5:-0.68399999 
-100 1:0.70599997 2:0.47800004 3:-0.40399998 4:-0.71200001 5:-0.48400003 
-100 1:0.574 2:0.54200006 3:-0.69400001 4:-0.854 5:-0.83400001 
-55.93431399971004 1:0.44000006 2:-0.24800003 3:-0.858 4:-0.932 5:-0.82799999 
-100 1:0.15999997 2:0.19799995 3:-0.814 4:-0.98 5:-0.61399999 
100 1:0.092000008 2:-0.092000008 3:-0.854 4:-1 5:-0.81 
-100 1:-0.66999999 2:-0.52000001 3:-0.93 4:-1 5:-0.66600001 
9.199486392865882 1:0.84399998 2:-0.14999998 3:-0.892 4:-1 5:-0.854 
-63.48263247199367 1:0.86199999 2:0.75399995 3:-0.71799999 4:-0.962 5:-0.82600001 
-5.589296891040682 1:0.49800003 2:0.46200001 3:-0.65200001 4:-0.898 5:-0.758 
100 1:0.31599998 2:-0.45200002 3:-0.904 4:-1 5:-0.59999999 
-35.77691277423482 1:0.67999995 2:0.29200006 3:-0.68200001 4:-0.902 5:-1 
100 1:0.37800002 2:0.52199996 3:-0.766 4:-0.898 5:-0.84999999 
-100 1:0.82000005 2:-0.53999999 3:-0.898 4:-1 5:-0.78200001 
-100 1:0.70000005 2:0.28600001 3:-0.68799999 4:-0.888 5:-1 
-100 1:0.42200005 2:-0.25199997 3:-0.86399999 4:-0.926 5:-0.82799999 
100 1:0.78999996 2:0.51600003 3:-0.72400001 4:-0.888 5:-0.766 
-100 1:0.63999999 2:0.24800003 3:-0.816 4:-0.98 5:-0.71200001 
-100 1:0.32599998 2:0.44200003 3:-0.69400001 4:-0.868 5:-0.748 
-100 1:0.41199994 2:0.45200002 3:-0.68200001 4:-0.888 5:-0.748 
100 1:-0.032000005 2:-0.013999999 3:-0.878 4:-1 5:-0.69600001 
35.10498707888029 1:0.69000006 2:0.53799999 3:-0.74000001 4:-0.888 5:-0.766 
-85.83976894728968 1:0.61199999 2:0.24199998 3:-0.816 4:-0.974 5:-0.73199999 
-100 1:0.65400004 2:0.67999995 3:-0.71799999 4:-0.958 5:-0.68799999 
-100 1:0.34399998 2:0.38600004 3:-0.82600001 4:-0.98 5:-0.676 
-100 1:0.43599999 2:0.49399996 3:-0.632 4:-0.86399999 5:-0.74000001 
-100 1:-0.56400001 2:-0.544 3:-0.938 4:-1 5:-0.66999999 
-100 1:0.37399995 2:-0.27999997 3:-0.874 4:-0.936 5:-0.83400001 
-100 1:0.49800003 2:0.57200003 3:-0.71399999 4:-0.962 5:-0.71200001 
-100 1:-0.13800001 2:0.092000008 3:-0.77599999 4:-0.948 5:-0.56999999 
-10.649569517166 1:0.41799998 2:0.46599996 3:-0.748 4:-0.97 5:-0.904 
-100 1:0.70200002 2:0.47800004 3:-0.39999998 4:-0.69999999 5:-0.47600001 
-100 1:0.011999965 2:0.16799998 3:-0.756 4:-0.942 5:-0.56999999 
-37.15344744768719 1:0.12399995 2:0.60800004 3:-0.816 4:-0.916 5:-0.964 
-100 1:0.25999999 2:0.075999975 3:-0.81999999 4:-0.976 5:-0.55399999 
100 1:0.27400005 2:-0.13800001 3:-0.926 4:-0.952 5:-0.912 
100 1:0.602 2:-0.30599999 3:-0.884 4:-1 5:-0.81 
-100 1:0.18200004 2:-0.10399997 3:-0.874 4:-0.932 5:-0.808 
100 1:0.31599998 2:-0.42199999 3:-0.912 4:-1 5:-0.68599999 
-100 1:0.11800003 2:0.602 3:-0.81200001 4:-0.916 5:-0.96 
-100 1:0.16799998 2:-0.10399997 3:-0.874 4:-0.932 5:-0.808 
100 1:0.63199997 2:0.18599999 3:-0.81200001 4:-0.908 5:-0.88 
100 1:0.33000004 2:-0.033999979 3:-0.876 4:-0.938 5:-0.934 
3.218058733261009 1:0.71200001 2:0.50399995 3:-0.772 4:-0.97 5:-1 
100 1:-0.018000007 2:0.0080000162 3:-0.866 4:-1 5:-0.47000003 
-100 1:0.68599999 2:0.14400005 3:-0.77599999 4:-0.926 5:-0.544 
-100 1:0.082000017 2:0.27999997 3:-0.69800001 4:-0.92 5:-0.55399999 
-100 1:0.095999956 2:0.23599994 3:-0.802 4:-0.976 5:-0.61000001 
100 1:0.33000004 2:0.27999997 3:-0.756 4:-0.958 5:-0.53400001 
-100 1:0.49000001 2:0.49800003 3:-0.76199999 4:-0.97 5:-0.76199999 
100 1:0.44200003 2:-0.033999979 3:-0.854 4:-1 5:-0.802 
-100 1:-0.44999999 2:-0.45200002 3:-0.912 4:-1 5:-0.706 
-100 1:0.29200006 2:0.46800005 3:-0.678 4:-0.884 5:-0.76199999 
-100 1:-0.31 2:-0.18000001 3:-0.93 4:-0.952 5:-1 
-36.98284074372725 1:0.148 2:0.72000003 3:-0.56799999 4:-0.89 5:-0.906 
100 1:0.38 2:0.15199995 3:-0.82600001 4:-0.986 5:-0.66 
100 1:-0.32200003 2:0.092000008 3:-0.84 4:-0.986 5:-0.574 
-100 1:0.0039999485 2:0.083999991 3:-0.83400001 4:-0.986 5:-0.56400001 
-100 1:-0.57800001 2:-0.52000001 3:-0.93 4:-1 5:-0.66600001 
-100 1:0.68200004 2:0.60800004 3:-0.74200001 4:-0.966 5:-0.69999999 
-100 1:0.052000046 2:0.090000033 3:-0.77599999 4:-0.884 5:-0.81999999 
-100 1:-0.24400002 2:-0.21799999 3:-0.852 4:-1 5:-0.82600001 
100 1:-0.032000005 2:-0.029999971 3:-0.878 4:-1 5:-0.72 
100 1:-0.21600002 2:0.44799995 3:-0.71599999 4:-0.904 5:-0.50999999 
-100 1:0.10000002 2:0.074000001 3:-0.808 4:-0.912 5:-0.8 
-100 1:-0.046000004 2:0.046000004 3:-0.86 4:-0.934 5:-1 
100 1:0.26800001 2:0.43599999 3:-0.72999999 4:-0.884 5:-0.84199999 
100 1:0.46599996 2:0.352 3:-0.77599999 4:-0.974 5:-0.68000001 
100 1:0.34800005 2:0.54999995 3:-0.66999999 4:-0.934 5:-0.63600001 
-100 1:-0.25199997 2:-0.22600001 3:-0.86 4:-1 5:-0.822 
-100 1:0.13600004 2:0.52999997 3:-0.8 4:-0.926 5:-0.924 
0.09374569764867342 1:0.84800005 2:0.45200002 3:-0.68200001 4:-0.892 5:-0.998 
100 1:0.25 2:-0.10799998 3:-0.914 4:-0.948 5:-0.95 
-100 1:-0.52200001 2:-0.55000001 3:-0.944 4:-1 5:-0.66600001 
-100 1:0.30200005 2:0.36399996 3:-0.82600001 4:-0.986 5:-0.68000001 
-100 1:0.072000027 2:-0.33200002 3:-0.89 4:-0.942 5:-0.81200001 
-100 1:-0.0099999905 2:0.34800005 3:-0.814 4:-0.98 5:-0.604 
-29.28417844811741 1:0.86800003 2:0.102 3:-0.82600001 4:-0.992 5:-0.766 
100 1:0.81400001 2:0.52199996 3:-0.734 4:-0.878 5:-0.77 
-100 1:0.53199995 2:0.41400003 3:-0.69800001 4:-0.878 5:-0.84199999 
100 1:0.61399996 2:0.17999995 3:-0.792 4:-0.902 5:-0.888 
49.0478407961697 1:0.352 2:0.56599998 3:-0.71000001 4:-0.958 5:-0.766 
-30.92588411149291 1:0.58800006 2:-0.082000017 3:-0.874 4:-1 5:-0.80599999 
-100 1:0.84399998 2:0.26800001 3:-0.8 4:-0.98 5:-0.75 
100 1:0.56599998 2:0.61800003 3:-0.662 4:-0.878 5:-0.83400001 
100 1:0.29999995 2:-0.23000002 3:-0.914 4:-0.948 5:-0.956 
-100 1:0.61199999 2:0.41400003 3:-0.46200001 4:-0.82799999 5:-0.51800001 
-100 1:0.65400004 2:0.46200001 3:-0.42000002 4:-0.76199999 5:-0.514 
100 1:0.69799995 2:0.47800004 3:-0.59400001 4:-0.894 5:-0.55399999 
100 1:0.15400004 2:0.49800003 3:-0.774 4:-0.916 5:-0.916 
22.80862890766272 1:0.31799996 2:0.19799995 3:-0.83400001 4:-0.926 5:-0.928 
-90.09028429026507 1:0.38600004 2:0.53400004 3:-0.772 4:-0.974 5:-0.98 
-100 1:-0.57800001 2:-0.53600001 3:-0.93 4:-1 5:-0.66600001 
-9.535073264610492 1:0.62800002 2:0.29799998 3:-0.72999999 4:-0.868 5:-0.99 
13.41754699305767 1:0.148 2:0.50999999 3:-0.78399999 4:-0.916 5:-0.92 
-100 1:0.082000017 2:-0.28399998 3:-0.87 4:-0.936 5:-0.808 
100 1:-0.032000005 2:-0.013999999 3:-0.878 4:-1 5:-0.74599999 
-100 1:0.10000002 2:-0.34799999 3:-0.9 4:-0.942 5:-0.81200001 
-9.478894448424391 1:0.12 2:0.33399999 3:-0.77599999 4:-0.902 5:-0.79000001 
-100 1:0.80200005 2:0.55599999 3:-0.748 4:-0.962 5:-0.72 
-10.51731907916706 1:-0.23799998 2:0.25800002 3:-0.802 4:-0.976 5:-0.59999999 
-32.52124387647187 1:0.039999962 2:0.024000049 3:-0.86 4:-0.998 5:-0.30800003 
100 1:0.352 2:0.55599999 3:-0.66999999 4:-0.934 5:-0.632 
13.44711554600653 1:0.63199997 2:0.19000006 3:-0.792 4:-0.902 5:-0.892 
-100 1:0.05400002 2:-0.013999999 3:-0.852 4:-0.986 5:-0.52399999 
-100 1:-0.43000001 2:-0.43800002 3:-0.912 4:-1 5:-0.71599999 
-100 1:0.79200006 2:-0.12800002 3:-0.878 4:-1 5:-0.908 
100 1:0.42400002 2:0.21200001 3:-0.808 4:-0.976 5:-0.55000001 
100 1:0.352 2:0.55599999 3:-0.66600001 4:-0.934 5:-0.62799999 
-67.58682886726427 1:0.19200003 2:-0.089999974 3:-0.908 4:-0.948 5:-0.884 
-0.3865115511243014 1:0.067999959 2:0.075999975 3:-0.846 4:-1 5:-0.756 
-70.0850679752773 1:-0.34200001 2:-0.06400001 3:-0.892 4:-0.944 5:-1 
-100 1:-0.53600001 2:-0.50600001 3:-0.93 4:-1 5:-0.66999999 
100 1:0.89600003 2:-0.050000012 3:-0.854 4:-1 5:-0.79799999 
-76.05037299589954 1:0.69200003 2:0.46200001 3:-0.63600001 4:-0.832 5:-0.61399999 
-100 1:0.011999965 2:0.15999997 3:-0.81999999 4:-0.98 5:-0.61399999 
33.41531036937739 1:-0.544 2:-0.48199999 3:-0.918 4:-1 5:-0.68000001 
100 1:-0.032000005 2:-0.022000015 3:-0.878 4:-1 5:-0.736 
-100 1:0.44599998 2:-0.236 3:-0.854 4:-0.926 5:-0.824 
-100 1:-0.27399999 2:0.062000036 3:-0.802 4:-0.958 5:-0.58399999 
100 1:-0.051999986 2:-0.0059999824 3:-0.87199999 4:-1 5:-0.646 
-100 1:0.79200006 2:-0.20200002 3:-0.84999999 4:-1 5:-0.82600001 
-80.57737715458659 1:0.042000055 2:0.075999975 3:-0.84999999 4:-0.934 5:-1 
-100 1:0.40799999 2:0.426 3:-0.71399999 4:-0.888 5:-0.766 
100 1:-0.13800001 2:-0.09799999 3:-0.898 4:-1 5:-0.68599999 
-100 1:0.63 2:0.13800001 3:-0.77599999 4:-0.926 5:-0.53999999 
-100 1:0.039999962 2:0.031999946 3:-0.84 4:-0.98 5:-0.514 
-100 1:0.41199994 2:-0.25199997 3:-0.86399999 4:-0.932 5:-0.83400001 
100 1:-0.046000004 2:-0.0059999824 3:-0.87199999 4:-1 5:-0.66 
-29.16387465080205 1:0.15400004 2:0.59000003 3:-0.82799999 4:-0.916 5:-1 
100 1:-0.25199997 2:-0.35399997 3:-0.886 4:-1 5:-0.676 
100 1:0.36600006 2:-0.35399997 3:-0.892 4:-1 5:-0.706 
100 1:0.27999997 2:-0.102 3:-0.92 4:-0.952 5:-0.906 
-100 1:0.36600006 2:0.51800001 3:-0.772 4:-0.97 5:-0.892 
100 1:-0.34799999 2:-0.14399999 3:-0.92 4:-0.952 5:-1 
100 1:0.69200003 2:0.49199998 3:-0.68399999 4:-0.93 5:-0.68799999 
-100 1:-0.41600001 2:-0.47600001 3:-0.918 4:-1 5:-0.65000001 
100 1:-0.046000004 2:-0.0059999824 3:-0.87199999 4:-1 5:-0.62400001 
-38.85888142880722 1:0.26800001 2:0.30799997 3:-0.838 4:-0.926 5:-0.92 
-100 1:0.018000007 2:0.57599998 3:-0.60600001 4:-0.854 5:-0.5 
-100 1:0.40199995 2:0.42400002 3:-0.814 4:-0.98 5:-0.676 
100 1:-0.096000016 2:0.40999997 3:-0.77599999 4:-0.936 5:-0.53400001 
100 1:0.14199996 2:0.54799998 3:-0.78399999 4:-0.912 5:-0.916 
-100 1:0.12399995 2:0.52999997 3:-0.80599999 4:-0.92 5:-0.928 
-84.53525202521017 1:-0.22399998 2:-0.34600002 3:-0.886 4:-0.998 5:-0.676 
100 1:0.25800002 2:0.37800002 3:-0.75 4:-0.888 5:-0.84199999 
-55.4870758848134 1:-0.018000007 2:-0.25599998 3:-0.86 4:-0.998 5:-0.62 
100 1:-0.65000001 2:-0.49000001 3:-0.918 4:-1 5:-0.66600001 
100 1:0.42200005 2:0.55599999 3:-0.49599999 4:-0.93 5:-0.63999999 
100 1:0.44200003 2:0.41999996 3:-0.748 4:-0.962 5:-0.676 
100 1:0.71599996 2:-0.352 3:-0.898 4:-1 5:-0.80599999 
-100 1:0.16199994 2:-0.096000016 3:-0.914 4:-0.948 5:-0.876 
100 1:-0.30199999 2:-0.0059999824 3:-0.86 4:-0.998 5:-0.68599999 
96.28672737815315 1:0.75800002 2:0.796 3:-0.704 4:-0.958 5:-0.76199999 
100 1:0.15400004 2:0.49800003 3:-0.778 4:-0.916 5:-0.916 
-100 1:0.27400005 2:0.34800005 3:-0.814 4:-0.98 5:-0.68599999 
100 1:0.41400003 2:-0.27399999 3:-0.874 4:-1 5:-0.814 
-12.68593910977276 1:0.71000004 2:0.426 3:-0.708 4:-0.868 5:-0.876 
100 1:0.40799999 2:0.51600003 3:-0.756 4:-0.898 5:-0.84199999 
-62.88347483593695 1:0.38600004 2:0.57200003 3:-0.46200001 4:-0.918 5:-0.632 
-100 1:0.36199999 2:0.51800001 3:-0.772 4:-0.974 5:-0.96 
-4.205302393756908 1:0.796 2:-0.13800001 3:-0.884 4:-1 5:-0.884 
-100 1:0.78600001 2:0.55999994 3:-0.748 4:-0.962 5:-0.72 
100 1:0.34200001 2:0.546 3:-0.66 4:-0.934 5:-0.63999999 
-100 1:0.324 2:-0.12 3:-0.82600001 4:-0.936 5:-0.52399999 
100 1:0.69799995 2:0.472 3:-0.58399999 4:-0.86 5:-0.62400001 
100 1:0.88999999 2:0.46200001 3:-0.71799999 4:-0.922 5:-0.68799999 
100 1:0.71200001 2:0.47800004 3:-0.66999999 4:-0.926 5:-0.69600001 
-100 1:0.25999999 2:-0.55000001 3:-0.938 4:-1 5:-0.604 
42.10395599843343 1:-0.32200003 2:-0.23400003 3:-0.86 4:-0.998 5:-0.8 
-100 1:0.17400002 2:-0.089999974 3:-0.914 4:-0.948 5:-0.88 
-100 1:0.21800005 2:0.062000036 3:-0.82600001 4:-0.98 5:-0.55000001 
-34.78728047750687 1:0.48000002 2:-0.384 3:-0.892 4:-1 5:-0.62400001 
98.32596247772514 1:0.31599998 2:0.18200004 3:-0.814 4:-0.98 5:-0.52399999 
-100 1:0.13399994 2:-0.35399997 3:-0.9 4:-0.942 5:-0.81200001 
-100 1:0.36600006 2:-0.53600001 3:-0.938 4:-1 5:-0.59999999 
-100 1:0.69200003 2:0.46200001 3:-0.62200001 4:-0.792 5:-0.61000001 
100 1:-0.060000002 2:-0.013999999 3:-0.878 4:-1 5:-0.66 
100 1:0.11800003 2:0.32599998 3:-0.794 4:-0.976 5:-0.59 
100 1:0.69200003 2:0.46599996 3:-0.65599999 4:-0.87199999 5:-0.63999999 
100 1:0.15400004 2:0.52400005 3:-0.774 4:-0.912 5:-0.928 
100 1:-0.032000005 2:0.0019999743 3:-0.87199999 4:-1 5:-0.52000001 
100 1:0.16199994 2:0.50999999 3:-0.758 4:-0.912 5:-0.92 
-47.30163554969304 1:0.72800004 2:0.16799998 3:-0.76199999 4:-0.926 5:-0.544 
-100 1:0.55999994 2:0.61199999 3:-0.752 4:-0.97 5:-0.766 
100 1:0.25399995 2:0.36600006 3:-0.756 4:-0.892 5:-0.84199999 
100 1:0.55599999 2:0.41999996 3:-0.678 4:-0.932 5:-1 
41.06727531165713 1:0.23399997 2:0.29799998 3:-0.77599999 4:-0.902 5:-0.846 
100 1:-0.65599999 2:-0.50600001 3:-0.924 4:-1 5:-0.66600001 
100 1:0.69799995 2:0.48199999 3:-0.618 4:-0.918 5:-0.65200001 
-100 1:0.11399996 2:-0.36400002 3:-0.906 4:-0.946 5:-0.81200001 
-100 1:0.046000004 2:0.024000049 3:-0.86 4:-0.998 5:-0.30400002 
100 1:-0.018000007 2:0.0080000162 3:-0.866 4:-1 5:-0.53 
100 1:0.62800002 2:0.18599999 3:-0.808 4:-0.908 5:-0.88 
-100 1:0.067999959 2:0.075999975 3:-0.852 4:-1 5:-0.756 
100 1:0.40799999 2:0.20599997 3:-0.808 4:-0.976 5:-0.544 
-100 1:0.11000001 2:0.22800004 3:-0.802 4:-0.976 5:-0.61000001 
-100 1:-0.32999998 2:-0.43800002 3:-0.912 4:-1 5:-0.676 
15.77170925580395 1:-0.366 2:0.22000003 3:-0.802 4:-0.976 5:-0.56400001 
100 1:0.77199996 2:0.21200001 3:-0.75 4:-0.92 5:-0.544 
-56.12152020680802 1:0.13800001 2:0.62800002 3:-0.60600001 4:-0.87 5:-0.52399999 
100 1:-0.44999999 2:-0.43000001 3:-0.898 4:-1 5:-0.66600001 
100 1:-0.023999989 2:-0.013999999 3:-0.87199999 4:-1 5:-0.72999999 
100 1:0.30999994 2:-0.39200002 3:-0.904 4:-1 5:-0.71599999 
-100 1:-0.018000007 2:0.546 3:-0.65200001 4:-0.848 5:-0.5 
-100 1:0.65400004 2:0.45599997 3:-0.72799999 4:-0.962 5:-0.944 
100 1:0.31799996 2:0.50399995 3:-0.734 4:-0.952 5:-0.664 
100 1:-0.64199999 2:-0.49000001 3:-0.918 4:-1 5:-0.66600001 
-100 1:0.25 2:-0.31599998 3:-0.908 4:-0.944 5:-1 
100 1:-0.032000005 2:-0.022000015 3:-0.878 4:-1 5:-0.74000001 
100 1:0.69799995 2:0.472 3:-0.58399999 4:-0.86 5:-0.62 
100 1:0.25 2:0.0080000162 3:-0.876 4:-0.934 5:-0.928 
100 1:0.69799995 2:0.48199999 3:-0.66600001 4:-0.926 5:-0.68799999 
100 1:0.16799998 2:0.50399995 3:-0.76199999 4:-0.912 5:-0.912 
-100 1:0.398 2:0.52199996 3:-0.69800001 4:-0.84999999 5:-0.81999999 
-100 1:0.065999985 2:0.093999982 3:-0.77599999 4:-0.884 5:-0.816 
-100 1:-0.19400001 2:0.25 3:-0.802 4:-0.976 5:-0.59400001 
-100 1:-0.44999999 2:-0.47600001 3:-0.918 4:-1 5:-0.71599999 
100 1:-0.032000005 2:-0.013999999 3:-0.878 4:-1 5:-0.74000001 
100 1:-0.051999986 2:0.31799996 3:-0.802 4:-0.98 5:-0.53 
100 1:0.17400002 2:0.50399995 3:-0.76800001 4:-0.916 5:-0.912 
46.47578490378524 1:0.71800005 2:0.18599999 3:-0.78200001 4:-0.888 5:-0.998 
-100 1:0.13 2:0.52400005 3:-0.8 4:-0.926 5:-0.928 
-64.3859566205339 1:0.93799996 2:0.58200002 3:-0.758 4:-0.97 5:-0.692 
-100 1:-0.486 2:-0.55000001 3:-0.938 4:-1 5:-0.65599999 
-19.54068518048116 1:0.27400005 2:-0.52000001 3:-0.93 4:-1 5:-0.604 
-39.90141374669633 1:0.45599997 2:0.55599999 3:-0.734 4:-0.966 5:-0.72 
-100 1:-0.25199997 2:0.046000004 3:-0.802 4:-0.954 5:-0.58399999 
-100 1:0.67799997 2:0.472 3:-0.41000003 4:-0.74399999 5:-0.502 
100 1:0.39999998 2:0.50399995 3:-0.758 4:-0.908 5:-0.906 
100 1:0.27400005 2:-0.13200003 3:-0.926 4:-0.952 5:-0.916 
100 1:0.30999994 2:-0.42199999 3:-0.918 4:-1 5:-0.68000001 
100 1:0.69200003 2:0.46599996 3:-0.588 4:-0.86 5:-0.61399999 
100 1:0.24600005 2:0.33399999 3:-0.788 4:-0.976 5:-0.69 
-61.07424486190764 1:0.067999959 2:0.024000049 3:-0.83 4:-0.996 5:-0.80599999 
-100 1:0.63800001 2:0.28199995 3:-0.69800001 4:-0.884 5:-1 
100 1:-0.16000003 2:-0.17199999 3:-0.878 4:-1 5:-0.65599999 
100 1:0.026000023 2:-0.082000017 3:-0.886 4:-1 5:-0.886 
100 1:0.33000004 2:0.46200001 3:-0.76800001 4:-0.902 5:-0.912 
100 1:0.15400004 2:0.52999997 3:-0.758 4:-0.912 5:-0.924 
-100 1:-0.13800001 2:0.046000004 3:-0.846 4:-0.986 5:-0.56999999 
100 1:0.352 2:0.55599999 3:-0.676 4:-0.94 5:-0.63600001 
100 1:0.71599996 2:0.46200001 3:-0.66999999 4:-0.926 5:-0.692 
-100 1:0.36600006 2:0.40199995 3:-0.81999999 4:-0.98 5:-0.676 
-100 1:0.70200002 2:0.47800004 3:-0.38999999 4:-0.634 5:-0.412 
-100 1:0.37399995 2:-0.236 3:-0.848 4:-0.926 5:-0.8 
-100 1:0.11399996 2:0.222 3:-0.808 4:-0.912 5:-0.796 
-100 1:0.34800005 2:0.54999995 3:-0.486 4:-0.922 5:-0.63600001 
100 1:0.71200001 2:0.50800002 3:-0.772 4:-0.97 5:-1 
100 1:0.16199994 2:0.52400005 3:-0.752 4:-0.908 5:-0.92 
-100 1:0.40199995 2:0.52600002 3:-0.69800001 4:-0.84999999 5:-0.81999999 
-0.7216713019370393 1:0.85800004 2:-0.20200002 3:-0.874 4:-1 5:-0.778 
-100 1:0.352 2:0.51400006 3:-0.77599999 4:-0.974 5:-0.932 
58.17424089618176 1:0.26199996 2:-0.10799998 3:-0.92 4:-0.948 5:-0.946 
100 1:-1 2:-0.968 3:0.40199995 4:0.59200001 5:-0.664 
-100 1:-1 2:-0.974 3:0.39199996 4:0.352 5:-0.822 
-40.86311961265533 1:-1 2:-1 3:0.70000005 4:0.69799995 5:-0.85600001 
100 1:-1 2:-0.958 3:0.5 4:0.51199996 5:-0.71200001 
100 1:-1 2:-1 3:-0.19 4:0.024000049 5:-1 
-45.95368360372253 1:-1 2:-1 3:0.45799994 4:0.58599997 5:-0.862 
1.661926389989583 1:-1 2:-1 3:0.40400004 4:0.32200003 5:-0.796 
-18.00235908267553 1:-1 2:-1 3:0.75199997 4:0.75199997 5:-0.82600001 
-100 1:-1 2:-0.968 3:0.37800002 4:0.39999998 5:-0.81 
100 1:-1 2:-1 3:0.36199999 4:0.27199996 5:-0.778 
-100 1:-0.39399999 2:-0.9 3:0.33000004 4:0.29400003 5:-0.814 
100 1:-0.13 2:-0.874 3:0.33000004 4:0.28600001 5:-0.81 
-100 1:-1 2:-1 3:-0.015999973 4:0.16799998 5:-0.926 
100 1:-1 2:-1 3:0.36800003 4:0.40600002 5:-1 
-100 1:-1 2:-1 3:0.75800002 4:0.75800002 5:-0.816 
100 1:-0.958 2:-0.938 3:0.528 4:0.676 5:-0.48799998 
24.84454563121895 1:-1 2:-1 3:0.51999998 4:0.74000001 5:-0.934 
-100 1:-1 2:-1 3:0.30400002 4:0.28600001 5:-0.978 
100 1:-1 2:-0.958 3:0.49399996 4:0.48599994 5:-0.72799999 
14.0178904287436 1:-1 2:-0.974 3:0.61600006 4:0.66799998 5:-0.68799999 
12.44612915454471 1:-1 2:-0.958 3:0.58599997 4:0.67999995 5:-0.68000001 
27.8892047697288 1:-1 2:-1 3:0.324 4:0.62 5:-0.964 
100 1:-0.528 2:-0.968 3:0.42999995 4:0.46000004 5:-0.786 
100 1:-1 2:-0.958 3:0.56599998 4:0.63999999 5:-0.48000002 
-56.74690750663072 1:-0.11199999 2:-0.86399999 3:0.33000004 4:0.28600001 5:-0.814 
-64.4763474186784 1:-1 2:-1 3:0.398 4:0.55799997 5:-0.758 
100 1:-0.758 2:-0.994 3:0.34200001 4:0.24399996 5:-0.8 
100 1:-1 2:-1 3:0.36199999 4:0.26800001 5:-0.78200001 
-100 1:-1 2:-1 3:0.54999995 4:0.57599998 5:-0.85600001 
100 1:-1 2:-1 3:0.36199999 4:0.25800002 5:-0.78200001 
-100 1:-1 2:-0.994 3:0.43400002 4:0.24800003 5:-0.18599999 
100 1:-1 2:-0.972 3:0.45000005 4:0.17200005 5:-0.41399997 
-100 1:-1 2:-1 3:0.33000004 4:0.25800002 5:-0.986 
-100 1:-1 2:-0.984 3:0.43400002 4:0.10000002 5:-0.36799997 
-100 1:-1 2:-0.98 3:0.38399994 4:0.34800005 5:-0.83 
100 1:-1 2:-1 3:0.41199994 4:0.57599998 5:-0.95 
100 1:-1 2:-0.972 3:0.45599997 4:0.19599998 5:-0.41000003 
-100 1:-1 2:-0.968 3:0.39199996 4:0.34399998 5:-0.83 
-100 1:-1 2:-0.978 3:0.44000006 4:0.12800002 5:-0.37599999 
-100 1:-1 2:-0.99 3:0.44400001 4:0.19599998 5:-0.32999998 
100 1:-1 2:-1 3:0.41199994 4:0.39199996 5:-1 
-100 1:-0.93 2:-1 3:0.51800001 4:0.51800001 5:-0.752 
-69.55000986028888 1:-0.42799997 2:-0.93 3:0.41400003 4:0.43599999 5:-0.774 
-26.05877458135561 1:-0.15799999 2:-0.86399999 3:0.31599998 4:0.28600001 5:-0.822 
-49.79775452654245 1:-0.906 2:-1 3:0.38800001 4:0.29799998 5:-0.80400001 
-100 1:-1 2:-1 3:0.55599999 4:0.59200001 5:-0.85600001 
100 1:-1 2:-1 3:0.42799997 4:0.36600006 5:-1 
91.57853959679173 1:-0.43800002 2:-0.912 3:0.33000004 4:0.30400002 5:-0.822 
-100 1:-0.938 2:-0.922 3:0.62600005 4:0.63199997 5:-0.384 
100 1:-1 2:-1 3:0.35599995 4:0.25399995 5:-0.786 
-100 1:-0.53200001 2:-0.912 3:0.31599998 4:0.27600002 5:-0.814 
-100 1:-0.892 2:-1 3:0.38199997 4:0.29799998 5:-0.80400001 
-10.00137560997429 1:-1 2:-1 3:0.27400005 4:-0.0019999743 5:-0.84999999 
14.52826187746003 1:-0.45200002 2:-0.912 3:0.34399998 4:0.33800006 5:-0.846 
100 1:-1 2:-1 3:0.38399994 4:0.472 5:-1 
100 1:-1 2:-1 3:0.36199999 4:0.26400006 5:-0.78200001 
-100 1:-0.968 2:-0.938 3:0.60000002 4:0.67999995 5:-0.39200002 
-100 1:-1 2:-0.984 3:0.48599994 4:0.26800001 5:-0.11400002 
-41.65164558974689 1:-1 2:-1 3:-0.015999973 4:0.17799997 5:-0.936 
100 1:-1 2:-1 3:0.42999995 4:0.38399994 5:-0.736 
100 1:-0.926 2:-0.984 3:0.65199995 4:0.57200003 5:-0.68200001 
100 1:-1 2:-0.948 3:0.57599998 4:0.676 5:-0.66800001 
13.56907929582079 1:-0.888 2:-0.994 3:0.60599995 4:0.70200002 5:-0.69400001 
-40.63693514102381 1:-1 2:-1 3:-0.015999973 4:0.21800005 5:-0.956 
-100 1:-1 2:-1 3:0.54999995 4:0.58200002 5:-0.85600001 
-100 1:-1 2:-1 3:0.23800004 4:-0.040000021 5:-0.846 
-100 1:-0.92 2:-1 3:0.53199995 4:0.54799998 5:-0.74000001 
-82.39121558114529 1:-1 2:-1 3:0.33000004 4:0.27600002 5:-0.99 
-46.05597142804866 1:-1 2:-1 3:0.64400005 4:0.99199998 5:-0.884 
16.41492038147799 1:-1 2:-0.964 3:0.38399994 4:0.57799995 5:-0.648 
63.45300957866395 1:-1 2:-1 3:-0.11199999 4:0.074000001 5:-1 
-100 1:-1 2:-0.964 3:0.38399994 4:0.38800001 5:-0.814 
28.1831634877977 1:-0.954 2:-0.946 3:0.37800002 4:-0.0019999743 5:-0.58000001 
100 1:-1 2:-1 3:0.45599997 4:0.42200005 5:-0.72400001 
100 1:-1 2:-1 3:0.37199998 4:0.28799999 5:-0.774 
-100 1:-0.948 2:-0.938 3:0.34399998 4:0.48000002 5:-0.74599999 
100 1:-1 2:-1 3:-0.05400002 4:0.046000004 5:-1 
70.05303896144413 1:-0.86399999 2:-1 3:0.29999995 4:0.31200004 5:-0.774 
-1.708501416956894 1:-1 2:-1 3:0.71200001 4:0.72399998 5:-0.846 
-8.198277330386635 1:-1 2:-1 3:0.42200005 4:0.26199996 5:-0.994 
68.33716923309686 1:-0.926 2:-1 3:0.61600006 4:0.62399995 5:-0.66 
-100 1:-1 2:-1 3:0.38399994 4:0.574 5:-0.79799999 
100 1:-1 2:-1 3:0.32000005 4:0.47800004 5:-0.972 
-100 1:-1 2:-0.978 3:0.48599994 4:0.27199996 5:-0.13599998 
-100 1:-1 2:-1 3:0.57000005 4:0.59800005 5:-0.852 
-68.45113232398207 1:-1 2:-1 3:0.41799998 4:0.63600004 5:-0.82600001 
-46.70577594276427 1:-0.968 2:-0.938 3:0.61600006 4:0.66799998 5:-0.39999998 
100 1:-1 2:-1 3:0.41999996 4:0.36399996 5:-0.74399999 
-100 1:-1 2:-1 3:0.38800001 4:0.57799995 5:-0.80599999 
24.0429386453776 1:-0.968 2:-1 3:0.21800005 4:0.10399997 5:-0.774 
100 1:-1 2:-0.968 3:0.61000001 4:0.67200005 5:-0.68399999 
-100 1:-1 2:-1 3:-0.352 4:-0.086000025 5:-1 
-54.02681840227552 1:-1 2:-0.984 3:0.46000004 4:0.20000005 5:-0.38999999 
100 1:-1 2:-0.972 3:0.46000004 4:0.19599998 5:-0.41000003 
-100 1:-1 2:-0.974 3:0.38399994 4:0.34800005 5:-0.82600001 
-100 1:-1 2:-0.99 3:0.45599997 4:0.20000005 5:-0.37599999 
-100 1:-1 2:-1 3:0.324 4:0.26199996 5:-0.982 
100 1:-0.912 2:-1 3:0.28999996 4:0.53400004 5:-0.76199999 
89.59778938535173 1:-0.952 2:-0.926 3:0.63399994 4:0.63600004 5:-0.39999998 
2.231323066485077 1:-1 2:-0.99 3:0.53199995 4:0.79799998 5:-0.69800001 
100 1:-1 2:-1 3:0.75800002 4:0.90999997 5:-0.916 
-100 1:-0.934 2:-0.922 3:0.60000002 4:0.62800002 5:-0.384 
-95.52421442512342 1:-0.934 2:-0.922 3:0.32599998 4:0.53400004 5:-0.67199999 
100 1:-1 2:-0.964 3:0.45599997 4:0.61800003 5:-0.69999999 
100 1:-1 2:-1 3:0.28999996 4:-0.18000001 5:-0.72400001 
100 1:-0.93 2:-0.978 3:0.65799999 4:0.57200003 5:-0.68200001 
-100 1:-0.968 2:-0.938 3:0.59599996 4:0.68400002 5:-0.39200002 
-53.46185908629414 1:-1 2:-0.978 3:0.33200002 4:-0.13599998 5:-0.74000001 
-18.10005438122426 1:-0.92 2:-0.938 3:0.34399998 4:0.48000002 5:-0.75399999 
-81.17110790282476 1:-0.882 2:-0.93 3:-0.808 4:-0.908 5:-0.59599999 
-100 1:-0.21200001 2:-0.66800001 3:-0.59 4:-0.816 5:-0.25 
-100 1:-0.30199999 2:-0.72799999 3:-0.646 4:-0.892 5:-0.528 
-100 1:-0.796 2:-0.854 3:-0.816 4:-0.97 5:-1 
100 1:-1 2:-1 3:-0.978 4:-0.99 5:-0.778 
100 1:-1 2:-1 3:-0.96 4:-0.98 5:-0.964 
100 1:-1 2:-1 3:-1 4:-0.998 5:-0.748 
-100 1:-0.962 2:-0.968 3:-0.956 4:-0.984 5:-1 
100 1:-0.906 2:-0.898 3:-0.956 4:-0.992 5:-0.846 
100 1:-0.35600001 2:-0.844 3:-1 4:-0.99 5:-0.838 
-100 1:-1 2:-1 3:-1 4:-0.958 5:-0.946 
100 1:-0.774 2:-0.9 3:-0.868 4:-0.988 5:-1 
-100 1:-1 2:-1 3:-1 4:-0.97 5:-0.922 
100 1:-0.78200001 2:-0.896 3:-0.878 4:-0.992 5:-1 
-100 1:-1 2:-0.922 3:-0.956 4:-0.98 5:-0.876 
100 1:-0.778 2:-0.9 3:-0.874 4:-0.992 5:-1 
-3.346149756302632 1:-0.692 2:-0.974 3:-1 4:-1 5:-1 
-100 1:-1 2:-0.974 3:-0.982 4:-1 5:-0.952 
-100 1:-0.902 2:-0.946 3:-0.958 4:-0.974 5:-0.79000001 
-7.287761405549881 1:-0.968 2:-0.94 3:-0.982 4:-0.984 5:-0.84199999 
-100 1:-0.51800001 2:-0.78 3:-0.858 4:-0.984 5:-1 
100 1:-0.53600001 2:-0.86 3:-0.95 4:-0.986 5:-0.816 
100 1:-0.962 2:-0.914 3:-0.97 4:-0.986 5:-0.816 
100 1:-0.97 2:-0.922 3:-0.97 4:-0.992 5:-0.852 
100 1:-0.83 2:-0.898 3:-0.884 4:-0.956 5:-0.71000001 
-100 1:-1 2:-1 3:-1 4:-0.984 5:-0.824 
-100 1:-1 2:-0.936 3:-0.964 4:-0.986 5:-0.906 
-41.41256666800268 1:-0.888 2:-0.962 3:-0.952 4:-0.974 5:-0.69 
42.8534164217746 1:-0.648 2:-0.796 3:-0.63600001 4:-0.892 5:-0.59599999 
100 1:-1 2:-0.994 3:-0.956 4:-0.984 5:-1 
-24.08677338303398 1:-0.528 2:-0.928 3:-0.99 4:-1 5:-0.902 
100 1:-0.86399999 2:-0.946 3:-0.932 4:-0.97 5:-0.68200001 
-100 1:-1 2:-0.964 3:-0.912 4:-1 5:-1 
-100 1:-1 2:-1 3:-1 4:-0.974 5:-0.9 
-100 1:-0.912 2:-0.994 3:-0.994 4:-0.998 5:-0.868 
-80.52288725629353 1:-0.758 2:-0.85600001 3:-0.71399999 4:-0.884 5:-0.58000001 
-100 1:-0.514 2:-0.76000001 3:-0.67199999 4:-0.86 5:-0.41799998 
-100 1:-0.76800001 2:-0.874 3:-0.84 4:-0.974 5:-0.998 
100 1:-0.962 2:-0.914 3:-0.97 4:-0.986 5:-0.822 
-100 1:-1 2:-1 3:-1 4:-0.978 5:-0.912 
-96.77230206858934 1:-0.56999999 2:-0.924 3:-0.858 4:-0.95 5:-0.71399999 
100 1:-0.528 2:-0.86 3:-0.95 4:-0.986 5:-0.816 
100 1:-1 2:-1 3:-0.96 4:-0.984 5:-0.964 
-100 1:-1 2:-0.958 3:-0.898 4:-1 5:-1 
100 1:-0.63800001 2:-0.818 3:-0.884 4:-0.942 5:-0.52399999 
-100 1:-0.78200001 2:-0.874 3:-0.84999999 4:-0.98 5:-0.996 
-100 1:-1 2:-0.984 3:-1 4:-0.984 5:-0.876 
64.33362264445569 1:-0.84 2:-0.946 3:-0.958 4:-0.99 5:-0.824 
-4.113089937946317 1:-0.572 2:-0.936 3:-0.99 4:-1 5:-1 
100 1:-0.72 2:-0.884 3:-0.95 4:-0.986 5:-0.81 
100 1:-0.99 2:-1 3:-0.966 4:-0.98 5:-0.998 
100 1:-1 2:-1 3:-0.966 4:-0.984 5:-0.998 
-100 1:-1 2:-0.968 3:-0.956 4:-0.98 5:-1 
-32.56691478678891 1:-0.692 2:-0.87 3:-0.844 4:-0.984 5:-1 
100 1:-0.778 2:-0.892 3:-0.926 4:-0.966 5:-0.71000001 
-100 1:-0.57600001 2:-0.924 3:-0.844 4:-0.946 5:-0.72 
-100 1:-0.59400001 2:-0.802 3:-0.84999999 4:-0.98 5:-1 
100 1:-0.778 2:-0.906 3:-0.878 4:-0.992 5:-1 
-100 1:-0.398 2:-0.748 3:-0.68200001 4:-0.884 5:-0.56200001 
100 1:-0.81 2:-0.892 3:-0.74399999 4:-0.892 5:-0.58399999 
-100 1:-0.84199999 2:-0.838 3:-0.924 4:-0.932 5:-0.72600001 
-30.93932209955042 1:-0.926 2:-0.952 3:-0.968 4:-0.984 5:-0.81200001 
100 1:-0.604 2:-0.908 3:-0.932 4:-0.98 5:-0.77 
-100 1:-0.59999999 2:-0.908 3:-0.932 4:-0.974 5:-0.774 
100 1:-1 2:-1 3:-0.956 4:-0.98 5:-1 
-100 1:-0.604 2:-0.78 3:-0.69400001 4:-0.83 5:-0.36799997 
-100 1:-0.80599999 2:-0.808 3:-0.898 4:-0.854 5:-0.61000001 
-100 1:-0.906 2:-0.952 3:-0.958 4:-0.974 5:-0.796 
100 1:-0.884 2:-0.89 3:-0.956 4:-0.986 5:-0.816 
100 1:-0.788 2:-0.886 3:-0.874 4:-0.992 5:-1 
100 1:-1 2:-0.994 3:-0.956 4:-0.988 5:-0.972 
100 1:-0.74200001 2:-0.928 3:-0.99 4:-1 5:-1 
-100 1:-0.25999999 2:-0.69600001 3:-0.63600001 4:-0.84 5:-0.30400002 
-100 1:-1 2:-0.966 3:-0.976 4:-1 5:-0.966 
100 1:-0.958 2:-1 3:-0.96 4:-0.984 5:-1 
-100 1:-0.66999999 2:-0.906 3:-0.964 4:-0.98 5:-0.796 
-100 1:-1 2:-0.982 3:-0.982 4:-1 5:-0.976 
-34.23431426557228 1:-1 2:-0.974 3:-0.932 4:-1 5:-1 
-100 1:-0.33200002 2:-0.69999999 3:-0.62599999 4:-0.888 5:-0.49599999 
100 1:-0.62200001 2:-0.884 3:-0.956 4:-0.986 5:-0.816 
100 1:-0.34600002 2:-0.69 3:-0.616 4:-0.878 5:-0.41799998 
100 1:-0.788 2:-0.896 3:-0.874 4:-0.992 5:-1 
80.53429637176397 1:-0.49400002 2:-0.74399999 3:-0.67199999 4:-0.84999999 5:-0.34200001 
-100 1:-0.948 2:-0.89 3:-0.944 4:-0.958 5:-0.796 
100 1:-0.906 2:-0.906 3:-0.964 4:-0.992 5:-0.892 
-100 1:-0.65599999 2:-0.898 3:-0.956 4:-0.98 5:-0.80599999 
100 1:-0.33999997 2:-0.68399999 3:-0.60600001 4:-0.868 5:-0.338 
100 1:-0.56200001 2:-0.86 3:-0.92 4:-0.97 5:-0.748 
100 1:-0.934 2:-0.906 3:-0.964 4:-0.992 5:-0.87199999 
100 1:-0.976 2:-0.922 3:-0.97 4:-1 5:-0.886 
100 1:-0.706 2:-0.824 3:-0.69800001 4:-0.898 5:-0.61399999 
100 1:-0.926 2:-0.906 3:-0.956 4:-0.986 5:-0.816 
-100 1:-1 2:-0.952 3:-0.898 4:-1 5:-1 
-100 1:-1 2:-0.968 3:-0.916 4:-1 5:-1 
100 1:-0.472 2:-0.906 3:-0.976 4:-1 5:-0.942 
-100 1:-0.61399999 2:-0.952 3:-0.996 4:-1 5:-1 
83.54558772471488 1:-0.30199999 2:-0.69999999 3:-0.646 4:-0.854 5:-0.32999998 
-100 1:-0.82799999 2:-0.822 3:-0.904 4:-0.892 5:-0.65000001 
-100 1:-1 2:-0.982 3:-0.99 4:-1 5:-0.982 
-100 1:-0.56200001 2:-0.888 3:-0.92 4:-0.97 5:-0.766 
47.87077396763176 1:-1 2:-0.994 3:-0.96 4:-0.98 5:-1 
100 1:-0.912 2:-0.906 3:-0.964 4:-0.992 5:-0.81 
-100 1:-1 2:-1 3:-1 4:-0.97 5:-0.926 
100 1:-0.81 2:-0.956 3:-0.968 4:-0.99 5:-0.752 
-100 1:-0.916 2:-0.984 3:-0.994 4:-0.994 5:-0.888 
-100 1:-0.51800001 2:-0.76000001 3:-0.66800001 4:-0.86399999 5:-0.43599999 
100 1:-1 2:-1 3:-0.96 4:-0.984 5:-1 
-38.61640691004398 1:-1 2:-1 3:-1 4:-0.98 5:-0.912 
100 1:-0.37 2:-0.706 3:-0.65799999 4:-0.86 5:-0.338 
-100 1:-0.774 2:-0.874 3:-0.84 4:-0.974 5:-0.998 
-100 1:-0.796 2:-0.87 3:-0.816 4:-0.97 5:-1 
-100 1:-1 2:-0.958 3:-0.956 4:-0.992 5:-1 
-100 1:-0.63600001 2:-0.958 3:-0.99 4:-1 5:-0.896 
-70.40720904566102 1:-0.848 2:-0.924 3:-0.92 4:-0.956 5:-0.648 
100 1:-0.778 2:-0.9 3:-0.878 4:-0.992 5:-1 
100 1:-1 2:-1 3:-0.96 4:-0.97 5:-0.992 
-100 1:-0.64199999 2:-0.958 3:-0.996 4:-1 5:-1 
100 1:-0.71000001 2:-0.85600001 3:-0.91 4:-0.96 5:-0.69400001 
100 1:-0.93 2:-0.948 3:-0.898 4:-1 5:-1 
-100 1:-0.848 2:-0.838 3:-0.912 4:-0.908 5:-0.66600001 
100 1:-1 2:-1 3:-0.966 4:-0.98 5:-1 
-100 1:-0.796 2:-0.88 3:-0.81999999 4:-0.974 5:-1 
-100 1:-0.912 2:-0.994 3:-0.994 4:-0.998 5:-0.862 
100 1:-0.948 2:-0.914 3:-0.964 4:-0.986 5:-0.816 
100 1:-0.604 2:-0.908 3:-0.932 4:-0.98 5:-0.774 
100 1:-1 2:-1 3:-0.96 4:-0.98 5:-0.96 
-100 1:-0.586 2:-0.898 3:-0.926 4:-0.974 5:-0.766 
100 1:-0.788 2:-0.89 3:-0.874 4:-0.992 5:-1 
37.02823268122471 1:-0.542 2:-0.802 3:-0.868 4:-0.988 5:-1 
-100 1:-0.71399999 2:-0.914 3:-0.964 4:-0.98 5:-0.81 
100 1:-0.912 2:-0.898 3:-0.956 4:-0.992 5:-0.846 
-100 1:-0.65000001 2:-0.958 3:-0.996 4:-1 5:-0.892 
100 1:-1 2:-0.946 3:-0.926 4:-0.97 5:-0.72799999 
100 1:-0.34600002 2:-0.84 3:-1 4:-0.994 5:-0.84199999 
-100 1:-1 2:-0.974 3:-0.982 4:-1 5:-0.956 
100 1:-1 2:-1 3:-0.97 4:-0.974 5:-1 
100 1:-0.648 2:-0.796 3:-0.632 4:-0.892 5:-0.59599999 
100 1:-0.72 2:-0.906 3:-0.956 4:-0.986 5:-0.816 
-100 1:-0.63600001 2:-0.958 3:-0.99 4:-1 5:-0.886 
100 1:-0.58000001 2:-0.802 3:-0.874 4:-0.946 5:-0.63800001 
100 1:-0.734 2:-0.884 3:-0.956 4:-0.98 5:-0.8 
-100 1:-0.902 2:-0.952 3:-0.962 4:-0.98 5:-0.8 
-100 1:-0.926 2:-0.946 3:-0.854 4:-0.926 5:-0.61000001 
-100 1:-0.796 2:-0.874 3:-0.81 4:-0.97 5:-1 
100 1:-0.97 2:-0.922 3:-0.97 4:-0.992 5:-0.84199999 
100 1:-1 2:-1 3:-0.966 4:-0.974 5:-1 
-100 1:-0.984 2:-0.962 3:-0.92 4:-0.946 5:-0.63800001 
-100 1:-0.82799999 2:-0.816 3:-0.898 4:-0.876 5:-0.63 
-63.91589736110154 1:-0.758 2:-0.88 3:-0.858 4:-0.984 5:-1 
100 1:-0.662 2:-0.81200001 3:-0.9 4:-0.956 5:-0.648 
-100 1:-1 2:-0.966 3:-0.982 4:-1 5:-0.992 
-100 1:-0.664 2:-0.898 3:-0.956 4:-0.98 5:-0.8 
100 1:-1 2:-1 3:-0.97 4:-0.98 5:-1 
100 1:-0.72799999 2:-0.898 3:-0.964 4:-0.986 5:-0.816 
-100 1:-0.11000001 2:-0.906 3:0.60800004 4:0.65799999 5:0.824 
100 1:0.30200005 2:-0.86 3:0.62199998 4:0.75800002 5:0.71800005 
-100 1:0.96200001 2:-0.65000001 3:0.50800002 4:0.63999999 5:0.898 
-100 1:0.46599996 2:-0.808 3:0.54400003 4:0.66999996 5:0.69799995 
-24.91643680185767 1:0.51800001 2:-0.69800001 3:0.56599998 4:0.88800001 5:1 
100 1:0.36199999 2:-0.766 3:0.47599995 4:0.52999997 5:0.71000004 
-30.37809913907292 1:0.71599996 2:-0.46799999 3:0.59200001 4:0.78600001 5:0.95000005 
-100 1:0.54999995 2:-0.786 3:0.78400004 4:1 5:0.99000001 
88.57491113517518 1:0.60800004 2:-0.786 3:0.62800002 4:0.89600003 5:0.94799995 
-100 1:0.63600004 2:-0.816 3:0.49199998 4:0.64199996 5:0.84399998 
35.53363724457421 1:0.16799998 2:-0.83 3:0.69200003 4:0.648 5:1 
-100 1:0.19200003 2:-0.922 3:0.23800004 4:0.39199996 5:0.54200006 
-0.5755898652551658 1:0.65799999 2:-0.816 3:0.52999997 4:0.90799999 5:1 
-20.63460183676992 1:0.51999998 2:-0.87199999 3:0.19000006 4:0.38800001 5:0.60000002 
100 1:0.76400006 2:-0.792 3:0.69200003 4:0.94000006 5:1 
-19.688531049849 1:0.28799999 2:-0.868 3:0.56200004 4:0.72399998 5:0.71200001 
-100 1:0.54999995 2:-0.792 3:0.49800003 4:0.61000001 5:0.85399997 
-13.68986407070741 1:0.81400001 2:-0.75399999 3:0.10800004 4:0.46599996 5:0.81200004 
100 1:0.21000004 2:-0.846 3:0.84800005 4:1 5:1 
-100 1:0.23000002 2:-0.69600001 3:0.38999999 4:0.40199995 5:0.55999994 
-26.92309236427928 1:0.19200003 2:-0.916 3:0.25399995 4:0.40600002 5:0.55599999 
100 1:0.37399995 2:-0.24000001 3:0.90799999 4:0.96200001 5:1 
-52.24084756458246 1:0.36600006 2:-0.384 3:0.84800005 4:0.90799999 5:1 
84.91115788003518 1:0.86800003 2:-0.676 3:0.57599998 4:0.796 5:0.99800003 
-23.91169631227586 1:0.46599996 2:-0.808 3:0.75800002 4:0.99000001 5:1 
17.1698048665099 1:0.77600002 2:-0.764 3:0.222 4:0.54799998 5:0.80599999 
100 1:0.39400005 2:-0.72799999 3:0.5 4:0.66199994 5:0.84800005 
71.00895032904066 1:0.83399999 2:-0.74399999 3:0.20599997 4:0.55200005 5:0.85000002 
100 1:0.27999997 2:-0.866 3:0.28799999 4:0.41400003 5:0.57799995 
-30.87675675601313 1:0.472 2:-0.778 3:0.54999995 4:0.40999997 5:0.92400002 
-17.14712208018652 1:0.40799999 2:-0.822 3:0.56200004 4:0.56400001 5:0.78199995 
-36.39345617168687 1:0.796 2:-0.83 3:0.33599997 4:0.38399994 5:0.59000003 
51.83617953995212 1:0.81599998 2:-0.68200001 3:0.56599998 4:0.82200003 5:1 
100 1:0.36800003 2:-0.892 3:0.26999998 4:0.40999997 5:0.59000003 
46.37449575035332 1:0.75800002 2:-0.84199999 3:0.33599997 4:0.47800004 5:0.648 
-23.8184185665305 1:0.42999995 2:-0.8 3:0.62800002 4:0.86800003 5:1 
-100 1:0.23000002 2:-0.66999999 3:0.39600003 4:0.40600002 5:0.55999994 
-100 1:0.44400001 2:-0.816 3:0.56200004 4:0.56400001 5:0.78199995 
-100 1:0.46599996 2:-0.808 3:0.54999995 4:0.676 5:0.69200003 
-100 1:-0.16799998 2:-0.78 3:0.58599997 4:0.76999998 5:0.88800001 
-100 1:-0.14600003 2:-0.884 3:0.87399995 4:1 5:1 
100 1:0.26600003 2:-0.868 3:0.602 4:0.73599994 5:0.79200006 
-100 1:0.99600005 2:-0.706 3:0.46000004 4:0.71200001 5:1 
24.57101722126147 1:0.83000004 2:-0.722 3:0.14400005 4:0.56200004 5:0.99800003 
-100 1:0.17999995 2:-0.922 3:0.23800004 4:0.39199996 5:0.54200006 
-6.602991722940811 1:0.53600001 2:-0.786 3:0.12399995 4:0.43599999 5:0.75600004 
100 1:0.18200004 2:-0.868 3:0.60800004 4:0.67999995 5:0.81400001 
-13.38173306796001 1:0.60800004 2:-0.792 3:0.49800003 4:0.63199997 5:0.82799995 
-22.67605603293646 1:0.39999998 2:-0.878 3:0.16199994 4:0.39199996 5:0.56400001 
100 1:0.26600003 2:-0.766 3:0.53799999 4:0.62800002 5:0.78400004 
100 1:0.13199997 2:-0.808 3:0.82200003 4:0.99000001 5:1 
-32.06227909804161 1:0.59399998 2:-0.48799998 3:0.59599996 4:0.79200006 5:0.96200001 
65.82291714080959 1:0.88999999 2:-0.68200001 3:0.50800002 4:0.574 5:0.90199995 
100 1:0.82000005 2:-0.73199999 3:0.32599998 4:0.56599998 5:0.87399995 
12.93779594771978 1:0.24600005 2:-0.876 3:0.59599996 4:0.73000002 5:0.78799999 
55.19009096821515 1:0.33800006 2:-0.854 3:0.62800002 4:0.76400006 5:0.722 
100 1:0.25199997 2:-0.838 3:0.70000005 4:0.76400006 5:1 
43.53040082798449 1:0.72000003 2:-0.73800001 3:0.52400005 4:0.66799998 5:0.76800001 
-100 1:0.17999995 2:-0.928 3:0.24399996 4:0.39199996 5:0.54200006 
33.20901110175471 1:0.29400003 2:-0.91 3:0.16199994 4:0.39199996 5:0.59000003 
-100 1:0.018000007 2:-0.884 3:0.62199998 4:0.74800003 5:0.84399998 
38.12363187522534 1:0.33800006 2:-0.892 3:0.25 4:0.40600002 5:0.56799996 
0.4621703403476022 1:0.75600004 2:-0.8 3:0.70599997 4:0.92999995 5:1 
18.0680907905396 1:0.24199998 2:-0.84199999 3:0.31400001 4:0.37399995 5:0.54999995 
-59.80647423659592 1:-0.023999989 2:-0.62599999 3:0.83599997 4:0.90799999 5:1 
100 1:0.36800003 2:-0.892 3:0.26600003 4:0.40999997 5:0.59000003 
-100 1:0.54400003 2:-0.786 3:0.778 4:1 5:0.99399996 
-100 1:0.46599996 2:-0.808 3:0.602 4:0.60399997 5:0.81400001 
-100 1:0.50600004 2:-0.866 3:0.19000006 4:0.38800001 5:0.60000002 
-10.08500788956261 1:0.86800003 2:-0.73199999 3:0.26999998 4:0.83200002 5:1 
-26.69808494203556 1:0.63 2:-0.8 3:0.58200002 4:0.57599998 5:0.79799998 
100 1:0.23000002 2:-0.786 3:0.59599996 4:0.54799998 5:0.79999995 
0.05559574226359384 1:0.36000001 2:-0.846 3:0.62800002 4:0.76400006 5:0.73199999 
-82.38649937491026 1:0.51199996 2:-0.70199999 3:0.75600004 4:0.78600001 5:0.93799996 
-10.40092967109346 1:0.95200002 2:-0.65000001 3:0.5 4:0.61800003 5:0.88800001 
-65.82365190170756 1:0.5 2:-0.86 3:0.19599998 4:0.398 5:0.60000002 
-54.90342581779075 1:0.602 2:-0.884 3:0.39999998 4:0.40999997 5:0.64400005 
-100 1:0.36600006 2:-0.846 3:0.49199998 4:0.61000001 5:0.84399998 
100 1:0.31799996 2:-0.766 3:0.528 4:0.64999998 5:0.69000006 
-73.37885927626442 1:0.63199997 2:-0.808 3:0.11399996 4:0.44200003 5:0.77400005 
73.10999647009395 1:0.83000004 2:-0.71200001 3:0.63999999 4:0.52999997 5:0.79200006 
18.9843498347062 1:0.14600003 2:-0.868 3:0.60800004 4:0.62 5:0.81400001 
100 1:0.27600002 2:-0.766 3:0.53799999 4:0.62199998 5:0.77600002 
100 1:0.35000002 2:-0.898 3:0.26600003 4:0.41400003 5:0.59000003 
100 1:0.324 2:-0.898 3:0.26600003 4:0.40999997 5:0.59000003 
-100 1:0.42400002 2:-0.822 3:0.54999995 4:0.66999996 5:0.73199999 
27.37339031140111 1:0.24199998 2:-0.916 3:0.33000004 4:0.398 5:0.64400005 
71.90391954507758 1:0.80200005 2:-0.734 3:0.528 4:0.51600003 5:0.71399999 
100 1:0.14400005 2:-0.796 3:0.58599997 4:0.61800003 5:0.824 
100 1:0.324 2:-0.898 3:0.26600003 4:0.40999997 5:0.58599997 
-100 1:0.046000004 2:-0.868 3:0.63399994 4:0.75199997 5:0.84800005 
22.36140766995746 1:0.75600004 2:-0.8 3:0.66600001 4:0.97800004 5:1 
-9.713590325442944 1:1 2:-0.71599999 3:0.45000005 4:0.67799997 5:1 
-100 1:-0.026000023 2:-0.822 3:0.48000002 4:0.66799998 5:0.74600005 
-39.80147685436002 1:0.472 2:-0.808 3:0.54999995 4:0.676 5:0.68200004 
-23.95820350906618 1:0.89199996 2:-0.72799999 3:0.31599998 4:0.84599996 5:1 
-100 1:-0.12400001 2:-0.914 3:0.60800004 4:0.72000003 5:0.89400005 
-100 1:0.91600001 2:0.46800005 3:0.42999995 4:-0.015999973 5:0.0080000162 
-100 1:0.25399995 2:-0.36000001 3:-0.30000001 4:-0.48799998 5:-0.32200003 
100 1:0.20000005 2:0.33399999 3:0.046000004 4:-0.36199999 5:-0.40200001 
25.12587211190313 1:0.14199996 2:0.10599995 3:-0.092000008 4:-0.31800002 5:-0.41000003 
100 1:0.21800005 2:0.19799995 3:-0.13200003 4:-0.069999993 5:0.06400001 
100 1:0.46000004 2:-0.25400001 3:-0.148 4:-0.26999998 5:-0.21600002 
-100 1:0.24199998 2:0.17400002 3:-0.047999978 4:-0.296 5:-0.48000002 
-45.15669797111439 1:-0.12800002 2:0.10000002 3:0 4:-0.36199999 5:-0.458 
100 1:-0.68200001 2:-0.36400002 3:-0.39399999 4:-0.61199999 5:-0.68599999 
-100 1:-0.089999974 2:0.10599995 3:0.016000032 4:-0.34399998 5:-0.44 
100 1:0.40400004 2:-0.24800003 3:-0.32800001 4:-0.588 5:-0.63600001 
-100 1:0.88600004 2:0.45799994 3:0.42400002 4:0.046000004 5:0.019999981 
-100 1:0.25999999 2:0.016000032 3:-0.52200001 4:-0.42400002 5:-0.075999975 
100 1:0.20200002 2:0.22000003 3:-0.086000025 4:-0.0099999905 5:0.13 
-100 1:0.44599998 2:0.11600006 3:-0.032000005 4:-0.204 5:-0.086000025 
100 1:0.39999998 2:0.37 3:0.33000004 4:-0.05400002 5:0.14600003 
96.83630528240063 1:0.76600003 2:0.45200002 3:0.51199996 4:0.33000004 5:0.12199998 
-10.05374495128092 1:0.60399997 2:0.324 3:0.41999996 4:-0.093999982 5:-0.055999994 
100 1:0.25199997 2:0.046000004 3:-0.542 4:0.067999959 5:0.62800002 
-100 1:0.85399997 2:0.69200003 3:0.50199997 4:0.38399994 5:0.81599998 
-100 1:0.59800005 2:0.27600002 3:0.30599999 4:0.21000004 5:0.38399994 
100 1:0.35000002 2:0.029999971 3:-0.078000009 4:-0.204 5:-0.14399999 
-100 1:0.067999959 2:-0.36400002 3:-0.28799999 4:-0.54800001 5:-0.542 
-21.14103279113743 1:0.38 2:0.48399997 3:0.13999999 4:0.19000006 5:0.71200001 
-100 1:-0.16600001 2:0.075999975 3:-0.026000023 4:-0.36199999 5:-0.47000003 
-100 1:0.17799997 2:-0.46200001 3:-0.38599998 4:-0.53600001 5:-0.62799999 
100 1:0.778 2:0.65400004 3:0.60000002 4:0.39600003 5:0.62399995 
-6.54559105075264 1:0.21000004 2:0.10000002 3:-0.398 4:0.44400001 5:0.84399998 
0.6290953817321181 1:0.15999997 2:0.15999997 3:-0.516 4:-0.24599999 5:0.48599994 
-100 1:-0.102 2:-0.33999997 3:-0.61199999 4:-0.52200001 5:-0.544 
100 1:0.40799999 2:0.38600004 3:-0.24199998 4:-0.26800001 5:-0.25199997 
100 1:0.37399995 2:0.074000001 3:-0.026000023 4:-0.22799999 5:-0.23799998 
100 1:0.91999996 2:0.42999995 3:0.41400003 4:0.021999955 5:0.046000004 
-100 1:0.33000004 2:0.32200003 3:0.075999975 4:-0.32200003 5:-0.10600001 
-100 1:0.36199999 2:0.34000003 3:0.082000017 4:-0.32599998 5:-0.10600001 
-100 1:-0.35399997 2:-0.15600002 3:-0.222 4:-0.398 5:-0.56400001 
-49.70907413699393 1:0.61600006 2:0.102 3:0.0019999743 4:-0.28600001 5:-0.102 
-100 1:0.43799996 2:0.31200004 3:-0.19 4:-0.036000013 5:0.25399995 
100 1:0.44400001 2:0.31799996 3:-0.18400002 4:-0.27399999 5:-0.278 
-100 1:0.17799997 2:-0.46200001 3:-0.38999999 4:-0.53999999 5:-0.632 
22.9110237244556 1:0.44599998 2:0.44599998 3:0.15600002 4:-0.26599997 5:0.10599995 
85.31317369081734 1:0.25199997 2:0.15999997 3:-0.528 4:-0.05400002 5:0.56200004 
-14.32146574536404 1:-0.082000017 2:-0.33999997 3:-0.62 4:-0.58399999 5:-0.62400001 
-100 1:0.26199996 2:0.204 3:-0.06400001 4:-0.296 5:-0.48799998 
100 1:0.30200005 2:0.11399996 3:-0.27399999 4:-0.13599998 5:0.28999996 
10.97601600175597 1:0.21800005 2:0.22000003 3:-0.086000025 4:-0.013999999 5:0.12 
100 1:0.55599999 2:0.42999995 3:0.45000005 4:0.38800001 5:0.61600006 
100 1:0.067999959 2:-0.022000015 3:-0.47000003 4:-0.45599997 5:-0.604 
100 1:0.16199994 2:-0.458 3:-0.33200002 4:-0.44199997 5:-0.43599999 
100 1:-0.32999998 2:-0.52000001 3:-0.808 4:-0.914 5:-0.946 
100 1:-0.018000007 2:-0.24000001 3:-0.53400001 4:-0.58399999 5:-0.58399999 
100 1:0.34399998 2:-0.04400003 3:-0.11400002 4:-0.30599999 5:-0.35600001 
-100 1:0.11000001 2:0.037999988 3:-0.49000001 4:0.0080000162 5:0.64199996 
40.71479654053623 1:0.88199997 2:0.41400003 3:0.40400004 4:0.12800002 5:-0.0080000162 
-83.94156978697592 1:-0.0080000162 2:-0.058000028 3:-0.13999999 4:-0.28200001 5:-0.44 
-100 1:0.28799999 2:-0.18400002 3:-0.23199999 4:-0.44 5:-0.28799999 
-100 1:-0.068000019 2:0.046000004 3:-0.44999999 4:-0.37400001 5:-0.092000008 
100 1:0.17200005 2:-0.458 3:-0.34200001 4:-0.42799997 5:-0.42400002 
-100 1:0.72000003 2:0.17400002 3:0.049999952 4:-0.15399998 5:-0.16000003 
100 1:0.36600006 2:0.47800004 3:0.12199998 4:0.16799998 5:0.70799994 
100 1:0.69200003 2:0.61800003 3:0.55799997 4:0.36000001 5:0.56799996 
-13.84964732251673 1:-0.060000002 2:-0.09799999 3:-0.47600001 4:-0.35600001 5:0.15400004 
-10.68435697195792 1:0.69200003 2:0.102 3:-0.041999996 4:-0.23400003 5:-0.25 
-100 1:0.24399996 2:-0.46799999 3:-0.38599998 4:-0.40200001 5:-0.38 
100 1:0.067999959 2:0.20599997 3:-0.29400003 4:-0.29000002 5:-0.19800001 
26.71099161263936 1:-0.17799997 2:-0.17400002 3:-0.12400001 4:-0.45200002 5:-0.52000001 
100 1:0.69000006 2:0.676 3:0.59399998 4:0.49399996 5:0.70599997 
100 1:0.40799999 2:0.40999997 3:0.398 4:-0.06400001 5:0.024000049 
-100 1:-0.046000004 2:0.0080000162 3:0.016000032 4:-0.31800002 5:-0.46600002 
-100 1:0.10399997 2:0.17400002 3:-0.28200001 4:-0.26800001 5:-0.28399998 
-100 1:-0.222 2:-0.19999999 3:-0.15600002 4:-0.48400003 5:-0.586 
72.44771732328536 1:0.52999997 2:0.41600001 3:-0.20999998 4:-0.036000013 5:0.51600003 
100 1:0.88199997 2:0.41400003 3:0.398 4:0.031999946 5:0.0080000162 
100 1:0.42200005 2:-0.222 3:-0.30800003 4:-0.59400001 5:-0.61399999 
-100 1:0.016000032 2:-0.50999999 3:-0.41000003 4:-0.57600001 5:-0.71200001 
-52.54514412839868 1:0.67999995 2:0.16999996 3:0.067999959 4:-0.15600002 5:-0.037999988 
100 1:-0.116 2:0.037999988 3:-0.53400001 4:-0.49000001 5:-0.075999975 
-55.12028029824743 1:0.62600005 2:0.31599998 3:0.23800004 4:0.046000004 5:0.12399995 
54.62284488361922 1:0.87199998 2:0.426 3:0.40400004 4:0.042000055 5:0.016000032 
-100 1:0.64600003 2:0.546 3:0.47599995 4:0.22800004 5:0.42200005 
100 1:-0.23799998 2:-0.43000001 3:-0.75 4:-0.832 5:-0.862 
-2.780894212206748 1:0.18799996 2:-0.11199999 3:-0.56799999 4:0.35000002 5:0.76800001 
55.31993708558227 1:0.17799997 2:0.38800001 3:0.15999997 4:-0.29000002 5:-0.086000025 
100 1:0.37800002 2:0.036000013 3:-0.046000004 4:-0.22399998 5:-0.26200002 
100 1:1 2:0.72399998 3:0.67200005 4:0.71599996 5:0.98399997 
100 1:0.324 2:-0.013999999 3:-0.55399999 4:-0.62200001 5:-0.17199999 
-100 1:0.64600003 2:0.51800001 3:0.41799998 4:0.15600002 5:0.31599998 
100 1:0.38399994 2:0.39400005 3:0.093999982 4:-0.36799997 5:-0.102 
-100 1:0.89999998 2:0.39400005 3:0.45000005 4:0.28799999 5:0.25399995 
100 1:0.33599997 2:-0.35399997 3:-0.222 4:-0.44999999 5:-0.17000002 
6.606089074515236 1:-0.12800002 2:-0.10799998 3:-0.18400002 4:-0.31800002 5:-0.37800002 
72.65039203244422 1:0.039999962 2:0.15999997 3:-0.25599998 4:-0.264 5:-0.28799999 
100 1:0.70000005 2:0.324 3:0.28999996 4:0.080000043 5:0.22000003 
-100 1:0.25199997 2:0.21200001 3:-0.22399998 4:-0.19199997 5:-0.26800001 
-100 1:0.58000004 2:0.42999995 3:0.21200001 4:-0.12199998 5:-0.12800002 
-100 1:0.39400005 2:0.32599998 3:-0.10600001 4:0.50999999 5:0.94799995 
-46.48080373981453 1:-0.366 2:-0.14999998 3:-0.19599998 4:-0.62400001 5:-0.69600001 
66.6340032747942 1:0.21000004 2:-0.48400003 3:-0.37 4:-0.41600001 5:-0.39999998 
100 1:0.30200005 2:0.28799999 3:-0.15200001 4:0.49399996 5:0.93799996 
100 1:-0.34399998 2:-0.46799999 3:-0.76800001 4:-0.86399999 5:-0.786 
-100 1:-0.023999989 2:0.062000036 3:-0.45599997 4:-0.36199999 5:-0.26200002 
100 1:0.57000005 2:0.45799994 3:0.48599994 4:0.43200004 5:0.64600003 
-45.09920039973654 1:0.17799997 2:-0.44199997 3:-0.366 4:-0.46399999 5:-0.558 
22.43633785278938 1:-0.037999988 2:0.062000036 3:-0.53400001 4:-0.32999998 5:0.31599998 
32.46941362704987 1:0.59399998 2:0.11600006 3:0 4:-0.412 5:-0.37599999 
-100 1:0.83399999 2:0.60800004 3:0.50800002 4:0.29400003 5:0.61600006 
-100 1:0.89199996 2:0.46200001 3:0.42400002 4:0.052000046 5:0.029999971 
100 1:0.21800005 2:0.16799998 3:-0.204 4:-0.33999997 5:-0.56 
-100 1:0.71599996 2:0.148 3:0.036000013 4:-0.18400002 5:-0.19599998 
100 1:0.55599999 2:-0.055999994 3:-0.065999985 4:-0.16799998 5:-0.16399997 
100 1:0.16799998 2:0.093999982 3:-0.079999983 4:-0.31800002 5:-0.41799998 
100 1:0.28199995 2:-0.37400001 3:-0.43400002 4:-0.62 5:-0.75 
-50.26800836586376 1:0.45200002 2:0.59800005 3:0.26800001 4:-0.13200003 5:-0.050000012 
-100 1:0.75199997 2:0.426 3:0.38199997 4:0.31599998 5:0.72599995 
-100 1:0.77199996 2:0.46599996 3:0.35000002 4:0.12600005 5:0.31599998 
-100 1:0.84399998 2:0.722 3:0.54200006 4:0.21399999 5:0.50999999 
-100 1:-0.34799999 2:-0.21200001 3:-0.29799998 4:-0.49199998 5:-0.664 
-100 1:-0.13800001 2:-0.36199999 3:-0.71000001 4:-0.59999999 5:-0.34399998 
68.35875182106885 1:0.24600005 2:0.19799995 3:-0.24800003 4:0.33800006 5:0.81799996 
-100 1:0.64600003 2:0.51400006 3:0.41199994 4:0.148 5:0.30400002 
100 1:-0.20999998 2:-0.45999998 3:-0.75 4:-0.838 5:-0.876 
100 1:0.13199997 2:-0.25599998 3:-0.72400001 4:-0.65000001 5:-0.33399999 
100 1:-0.764 2:-0.41399997 3:-0.41000003 4:-0.59400001 5:-0.692 
-63.21118579558381 1:-0.39200002 2:-0.48000002 3:-0.49800003 4:-0.76800001 5:-0.88 
-100 1:0.34399998 2:0.23399997 3:0.09800005 4:-0.22799999 5:-0.19400001 
-40.22186132387787 1:0.88600004 2:0.40400004 3:0.41999996 4:0.22399998 5:0.12199998 
-100 1:0.73399997 2:0.27600002 3:0.28999996 4:0.23000002 5:0.36800003 
100 1:0.51199996 2:0.17999995 3:0.088000059 4:-0.13599998 5:0.33000004 
-100 1:0.37 2:0.51400006 3:0.16999996 4:-0.21200001 5:-0.208 
100 1:0.18200004 2:-0.46200001 3:-0.34600002 4:-0.42000002 5:-0.42000002 
7.256969764274086 1:0.40799999 2:0.19799995 3:-0.20999998 4:-0.075999975 5:0.19000006 
-100 1:0.26800001 2:-0.18400002 3:-0.23799998 4:-0.44400001 5:-0.31800002 
100 1:0.69000006 2:0.77199996 3:0.61000001 4:0.35000002 5:0.66799998 
-100 1:0.24000001 2:-0.17199999 3:-0.21200001 4:-0.44999999 5:-0.352 
-100 1:0.44599998 2:0.11600006 3:-0.032000005 4:-0.208 5:-0.089999974 
-100 1:0.398 2:0.324 3:0.352 4:-0.093999982 5:0.024000049 
-100 1:0.63600004 2:0.080000043 3:0.036000013 4:-0.14399999 5:-0.12400001 
100 1:0.69000006 2:0.79799998 3:0.60000002 4:0.31599998 5:0.62 
-100 1:-0.706 2:-0.39600003 3:-0.38999999 4:-0.59 5:-0.69600001 
100 1:0.43799996 2:-0.31599998 3:-0.21600002 4:-0.33200002 5:-0.19199997 
100 1:-0.29799998 2:-0.36400002 3:-0.44400001 4:-0.78200001 5:-0.876 
59.42783685468293 1:0.32599998 2:0.45200002 3:0.21200001 4:-0.19400001 5:0.26199996 
-100 1:0.13399994 2:-0.352 3:-0.28799999 4:-0.54800001 5:-0.50600001 
-100 1:0.86199999 2:0.41400003 3:0.49600005 4:0.36399996 5:0.23199999 
100 1:0.68599999 2:0.25399995 3:0.16999996 4:-0.0059999824 5:0.11800003 
-100 1:0.89199996 2:0.46200001 3:0.42400002 4:0.046000004 5:0.034000039 
-100 1:-0.096000016 2:-0.096000016 3:-0.162 4:-0.296 5:-0.42199999 
100 1:-0.35799998 2:-0.134 3:-0.18199998 4:-0.616 5:-0.664 
-100 1:0.87199998 2:0.69200003 3:0.55799997 4:0.28999996 5:0.60800004 
-100 1:0.66799998 2:0.51400006 3:0.43599999 4:0.15199995 5:0.32000005 
-100 1:0.59800005 2:0.49000001 3:0.35599995 4:0.11800003 5:0.55400002 
55.7976983877988 1:0.59399998 2:0.5 3:0.352 4:0.090000033 5:0.55400002 
-17.37980915580117 1:0.352 2:0.24399996 3:-0.49000001 4:-0.092000008 5:0.59599996 
-100 1:0.86199999 2:0.65999997 3:0.54200006 4:0.30400002 5:0.61600006 
100 1:-0.15399998 2:-0.12 3:-0.19999999 4:-0.33600003 5:-0.40399998 
100 1:0.61199999 2:0.29400003 3:0.21399999 4:-0.019999981 5:0.14600003 
-100 1:0.67999995 2:0.15400004 3:0.055999994 4:-0.176 5:-0.047999978 
-100 1:0.35000002 2:0.32799995 3:0.092000008 4:-0.31800002 5:-0.092000008 
100 1:0.34399998 2:0.28999996 3:0.027999997 4:-0.37599999 5:-0.162 
-31.40746208629153 1:0.23399997 2:-0.412 3:-0.43000001 4:-0.542 5:-0.58399999 
100 1:0.16799998 2:-0.46200001 3:-0.33200002 4:-0.43800002 5:-0.43199998 
-100 1:0.15400004 2:-0.32200003 3:-0.27399999 4:-0.53999999 5:-0.51800001 
100 1:0.58399999 2:0.49000001 3:0.51199996 4:0.48000002 5:0.65799999 
35.52036095789523 1:1 2:0.87800002 3:0.23800004 4:-0.25599998 5:-0.18199998 
93.38146831180875 1:0.26800001 2:0.35599995 3:0.055999994 4:-0.35399997 5:-0.25800002 
-65.96219973990969 1:0.090000033 2:-0.30800003 3:-0.58000001 4:-0.20200002 5:0.41999996 
20.05238788229282 1:0.18799996 2:0.14400005 3:-0.17799997 4:-0.34600002 5:-0.68000001 
100 1:0.16199994 2:-0.458 3:-0.32800001 4:-0.45599997 5:-0.44 
100 1:0.26600003 2:-0.22600001 3:-0.68399999 4:-0.62799999 5:-0.34399998 
100 1:-0.32200003 2:-0.45999998 3:-0.83400001 4:-0.936 5:-1 
100 1:-0.13999999 2:-0.14399999 3:-0.086000025 4:-0.43000001 5:-0.514 
100 1:0.78600001 2:0.27600002 3:0.26400006 4:0.19200003 5:0.29200006 
100 1:-0.20999998 2:-0.50600001 3:-0.87199999 4:-0.77 5:-0.47399998 
100 1:0.796 2:0.64400005 3:0.57599998 4:0.42400002 5:0.64199996 
100 1:0.11000001 2:-0.25599998 3:-0.72999999 4:-0.65000001 5:-0.34799999 
100 1:0.85800004 2:0.51600003 3:0.49600005 4:0.070000052 5:0.26199996 
12.79192654051791 1:-0.676 2:-0.40799999 3:-0.38999999 4:-0.58199999 5:-0.692 
-100 1:0.37399995 2:0.26600003 3:-0.204 4:-0.047999978 5:0.19400001 
-80.391636963952 1:0.73399997 2:0.44599998 3:0.50600004 4:-0.0019999743 5:0.11800003 
-100 1:-0.31999999 2:-0.24400002 3:-0.162 4:-0.58399999 5:-0.632 
-50.75173226958477 1:0.27999997 2:0.11399996 3:-0.28799999 4:-0.33999997 5:0.20000005 
30.38185414998951 1:-0.029999971 2:-0.43000001 3:-0.32200003 4:-0.544 5:-0.57800001 
-100 1:0.49000001 2:-0.11799997 3:-0.19199997 4:-0.38999999 5:-0.472 
100 1:0.41600001 2:-0.16799998 3:-0.24800003 4:-0.61399999 5:-0.49599999 
100 1:0.70200002 2:0.090000033 3:-0.061999977 4:-0.23799998 5:-0.15200001 
-100 1:-0.63800001 2:-0.30400002 3:-0.23199999 4:-0.43000001 5:-0.63 
9.693477967658803 1:0.38399994 2:0.046000004 3:-0.068000019 4:-0.19999999 5:-0.09799999 
-92.9419469956507 1:0.44000006 2:0.10599995 3:-0.041999996 4:-0.19999999 5:-0.079999983 
100 1:-0.31999999 2:-0.39999998 3:-0.28799999 4:-0.62 5:-0.602 
-100 1:0.278 2:-0.19400001 3:-0.22799999 4:-0.44 5:-0.296 
-100 1:0.18599999 2:-0.458 3:-0.38 4:-0.53600001 5:-0.632 
100 1:0.83800006 2:0.67999995 3:0.61000001 4:0.28999996 5:0.352 
100 1:0.80599999 2:0.62800002 3:0.56200004 4:0.41799998 5:0.65400004 
49.76561515458674 1:0.352 2:0.15999997 3:-0.236 4:-0.13599998 5:0.59599996 
100 1:-0.12800002 2:-0.10799998 3:-0.19 4:-0.32200003 5:-0.37800002 
-100 1:-0.41000003 2:-0.25400001 3:-0.236 4:-0.646 5:-0.736 
-100 1:0.33000004 2:0.32200003 3:0.075999975 4:-0.32200003 5:-0.102 
-100 1:0.89600003 2:0.49000001 3:0.44000006 4:-0.012000024 5:0.011999965 
100 1:0.37800002 2:0.062000036 3:-0.032000005 4:-0.22399998 5:-0.24599999 
100 1:-0.096000016 2:0.037999988 3:-0.53400001 4:-0.49400002 5:-0.102 
-100 1:0.26199996 2:0.19799995 3:-0.075999975 4:-0.30000001 5:-0.49199998 
81.45617512236579 1:0.062000036 2:-0.34399998 3:-0.23799998 4:-0.52200001 5:-0.352 
100 1:0.15799999 2:-0.44599998 3:-0.32800001 4:-0.45200002 5:-0.46399999 
100 1:0.69000006 2:0.74600005 3:0.63600004 4:0.38800001 5:0.722 
39.12604268736969 1:0.73000002 2:0.26800001 3:0.15199995 4:-0.033999979 5:-0.037999988 
-12.49441240449263 1:0.58399999 2:0.0019999743 3:-0.027999997 4:-0.162 5:-0.13999999 
100 1:0.39400005 2:0.47000003 3:-0.16399997 4:-0.296 5:-0.27200001 
1.925091876907929 1:0.31799996 2:0.28400004 3:0.21200001 4:-0.086000025 5:0.014000058 
-100 1:0.13199997 2:-0.082000017 3:-0.50799999 4:-0.30199999 5:-0.022000015 
2.590514258181678 1:-0.20200002 2:-0.24800003 3:-0.58000001 4:-0.39600003 5:0.014000058 
-68.49942911408031 1:0.574 2:0.41400003 3:0.21200001 4:-0.11199999 5:-0.15200001 
-40.32666498968693 1:-0.25199997 2:-0.42199999 3:-0.756 4:-0.66 5:-0.42400002 
-100 1:0.28199995 2:-0.17000002 3:-0.22600001 4:-0.45200002 5:-0.45999998 
100 1:0.57799995 2:0.47800004 3:0.12800002 4:-0.33999997 5:-0.26599997 
-100 1:0.63800001 2:-0.0019999743 3:-0.032000005 4:-0.25599998 5:-0.075999975 
100 1:0.34800005 2:-0.296 3:-0.366 4:-0.57600001 5:-0.676 
-100 1:0.25800002 2:-0.34399998 3:-0.29000002 4:-0.47799999 5:-0.27999997 
100 1:0.72599995 2:0.36199999 3:0.22800004 4:0.046000004 5:0.06400001 
100 1:0.85399997 2:0.75399995 3:0.65799999 4:0.29799998 5:0.40199995 
-15.877583145656 1:0.40799999 2:0.53199995 3:0.222 4:-0.12599999 5:0.27400005 
100 1:0.046000004 2:-0.082000017 3:-0.50799999 4:-0.49400002 5:-0.58000001 
78.61940843738526 1:0.574 2:0.22599995 3:0.026000023 4:-0.28200001 5:-0.26999998 
-5.155706104061323 1:-0.051999986 2:0.05400002 3:-0.44999999 4:-0.34600002 5:-0.23199999 
-100 1:-0.033999979 2:-0.069999993 3:-0.14600003 4:-0.28600001 5:-0.43599999 
-100 1:0.18200004 2:-0.29000002 3:-0.25999999 4:-0.53200001 5:-0.53400001 
100 1:0.74000001 2:0.33200002 3:0.25199997 4:0.042000055 5:0.016000032 
-100 1:0.35000002 2:-0.17199999 3:-0.22799999 4:-0.41600001 5:-0.28799999 
-100 1:0.49000001 2:-0.14999998 3:-0.264 4:-0.514 5:-0.558 
100 1:-0.14399999 2:-0.53999999 3:-0.42000002 4:-0.66800001 5:-0.62799999 
-100 1:0.352 2:0.42400002 3:-0.204 4:-0.264 5:-0.31400001 
100 1:-0.116 2:-0.14399999 3:-0.20599997 4:-0.35799998 5:-0.46200001 
100 1:0.34399998 2:-0.09799999 3:-0.134 4:-0.35399997 5:-0.27999997 
100 1:0.92400002 2:0.43599999 3:0.41400003 4:-0.0059999824 5:0.029999971 
-100 1:0.41600001 2:0.17400002 3:0.13 4:-0.14600003 5:0.12600005 
-100 1:0.41199994 2:0.33399999 3:0.35599995 4:-0.102 5:0.016000032 
100 1:1 2:0.72399998 3:0.63600004 4:0.68799996 5:0.95000005 
100 1:0.28199995 2:-0.37800002 3:-0.42400002 4:-0.616 5:-0.71599999 
100 1:-0.24400002 2:-0.544 3:-0.886 4:-0.77599999 5:-0.47399998 
100 1:0.15400004 2:0.324 3:0.042000055 4:-0.41600001 5:-0.44400001 
100 1:0.12399995 2:0.31200004 3:-0.033999979 4:-0.15200001 5:-0.222 
100 1:0.13 2:-0.49800003 3:-0.39399999 4:-0.55399999 5:-0.68000001 
100 1:0.37399995 2:0.029999971 3:-0.051999986 4:-0.23799998 5:-0.27600002 
8.195081588028932 1:0.40400004 2:-0.338 3:-0.25 4:-0.398 5:-0.18400002 
100 1:0.27999997 2:0.075999975 3:-0.664 4:-0.62200001 5:-0.28399998 
-100 1:0.61399996 2:0.46200001 3:0.37800002 4:0.17200005 5:0.574 
18.95245681609904 1:0.40199995 2:-0.065999985 3:-0.21200001 4:-0.40200001 5:-0.31800002 
71.47160326970997 1:0.43799996 2:0.38600004 3:-0.20999998 4:-0.25199997 5:-0.26800001 
100 1:0.43200004 2:0.019999981 3:-0.19199997 4:-0.41600001 5:-0.41399997 
-100 1:0.28799999 2:-0.18800002 3:-0.23199999 4:-0.44 5:-0.28799999 
100 1:0.40799999 2:0.41400003 3:0.39400005 4:-0.074000001 5:0.0039999485 
100 1:0.62199998 2:0.36800003 3:0.31599998 4:0.031999946 5:0.23000002 
100 1:0.796 2:0.64400005 3:0.57599998 4:0.42400002 5:0.63999999 
-100 1:-0.398 2:-0.17400002 3:-0.23799998 4:-0.412 5:-0.58000001 
100 1:-0.25400001 2:-0.53600001 3:-0.42000002 4:-0.65599999 5:-0.62799999 
-100 1:0.27600002 2:-0.176 3:-0.22000003 4:-0.45999998 5:-0.45999998 
100 1:0.77199996 2:0.64400005 3:0.59599996 4:0.39999998 5:0.62 
88.21861211514816 1:0.30599999 2:-0.31599998 3:-0.264 4:-0.47399998 5:-0.22000003 
-100 1:0.57000005 2:-0.17799997 3:-0.11400002 4:-0.34799999 5:-0.15200001 
-100 1:-0.027999997 2:0.10599995 3:-0.05400002 4:-0.32200003 5:-0.49800003 
26.81983692953439 1:-0.083999991 2:-0.18599999 3:-0.13 4:-0.42000002 5:-0.634 
-100 1:0.17799997 2:-0.296 3:-0.25999999 4:-0.53200001 5:-0.53400001 
100 1:0.85800004 2:0.84800005 3:0.63 4:0.25800002 5:0.41400003 
100 1:-0.17199999 2:-0.16799998 3:-0.12400001 4:-0.45599997 5:-0.52399999 
-100 1:0.26199996 2:0.19799995 3:-0.05400002 4:-0.28600001 5:-0.48400003 
100 1:0.54200006 2:0.0099999905 3:-0.14399999 4:-0.51199999 5:-0.46200001 
-100 1:0.84399998 2:0.61800003 3:0.51800001 4:0.29799998 5:0.62 
100 1:0.40799999 2:0.47800004 3:-0.17799997 4:-0.27999997 5:-0.25199997 
-100 1:-0.072000027 2:-0.040000021 3:-0.086000025 4:-0.24599999 5:-0.48799998 
100 1:0.49800003 2:0.17999995 3:-0.041999996 4:-0.33600003 5:-0.42400002 
-98.53258686789117 1:0.80999994 2:0.83200002 3:0.62600005 4:0.21000004 5:0.34399998 
-97.83297394220995 1:0.12399995 2:0.22000003 3:-0.28799999 4:-0.25800002 5:-0.11199999 
100 1:0.63 2:0.018000007 3:-0.14399999 4:-0.34399998 5:-0.26200002 
-100 1:0.37399995 2:0.22800004 3:-0.21600002 4:-0.25199997 5:-0.278 
-100 1:0.78600001 2:0.81200004 3:0.62600005 4:0.19200003 5:0.32000005 
100 1:-0.57800001 2:-0.56600001 3:-0.892 4:-0.73199999 5:-0.40399998 
100 1:0.38800001 2:0.47000003 3:-0.16399997 4:-0.296 5:-0.27200001 
-45.65627996680607 1:0.39400005 2:0.43200004 3:-0.19 4:-0.264 5:-0.30800003 
-28.65472541162267 1:0.64999998 2:0.59200001 3:0.26199996 4:-0.13200003 5:-0.0059999824 
100 1:0.86800003 2:0.426 3:0.40400004 4:0.031999946 5:0.011999965 
100 1:0.15799999 2:-0.49800003 3:-0.41399997 4:-0.558 5:-0.66 
100 1:0.63 2:0.16400003 3:0.016000032 4:-0.26999998 5:-0.093999982 
-100 1:0.37399995 2:0.296 3:-0.22399998 4:0.046000004 5:0.55599999 
-48.67732188964939 1:0.30999994 2:0.27400005 3:-0.16399997 4:0.41600001 5:0.85800004 
-100 1:-0.71399999 2:-0.30400002 3:-0.23799998 4:-0.42000002 5:-0.62 
-100 1:0.19599998 2:0.34800005 3:-0.10000002 4:-0.15200001 5:-0.20200002 
100 1:0.30599999 2:-0.0019999743 3:-0.078000009 4:-0.38200003 5:-0.22399998 
10.19715131919496 1:0.35599995 2:0.30799997 3:0.047999978 4:-0.35799998 5:-0.13599998 
100 1:-0.30199999 2:-0.41399997 3:-0.76800001 4:-0.68200001 5:-0.47399998 
100 1:-0.30000001 2:-0.472 3:-0.35600001 4:-0.60600001 5:-0.59 
-100 1:-0.338 2:-0.42199999 3:-0.788 4:-0.51800001 5:-0.18800002 
100 1:0.90600002 2:0.73399997 3:0.55400002 4:0.43200004 5:0.83200002 
32.0888167539563 1:0.16199994 2:0.027999997 3:-0.13 4:-0.33200002 5:-0.44 
100 1:0.16199994 2:0.088000059 3:-0.079999983 4:-0.31800002 5:-0.41000003 
-100 1:-0.22399998 2:-0.42199999 3:-0.75 4:-0.65000001 5:-0.40399998 
-100 1:-0.324 2:-0.20200002 3:-0.148 4:-0.58000001 5:-0.64399999 
-100 1:0.38800001 2:0.49199998 3:0.13999999 4:0.19000006 5:0.71200001 
-100 1:0.26600003 2:0.25800002 3:0.0039999485 4:-0.20200002 5:-0.25800002 
-47.25615710193922 1:0.016000032 2:-0.50999999 3:-0.41000003 4:-0.57600001 5:-0.708 
1.012705367370728 1:0.33599997 2:0.11000001 3:0.026000023 4:-0.324 5:-0.25400001 
100 1:0.66999996 2:0.80400002 3:0.58399999 4:0.28199995 5:0.60399997 
100 1:0.71000004 2:0.68599999 3:0.59000003 4:0.45599997 5:0.62600005 
-100 1:0.60399997 2:0.47399998 3:0.39400005 4:0.14199996 5:0.53199995 
68.32406254354579 1:0.426 2:0.37800002 3:0.26999998 4:-0.12599999 5:-0.148 
-100 1:0.37399995 2:0.24399996 3:-0.49000001 4:-0.13 5:0.61600006 
-100 1:0.65600002 2:0.45799994 3:0.38800001 4:0.20599997 5:0.60800004 
-100 1:0.26199996 2:0.204 3:-0.05400002 4:-0.29000002 5:-0.48799998 
100 1:0.65999997 2:0.23199999 3:0.093999982 4:-0.14999998 5:-0.0019999743 
100 1:-0.35799998 2:-0.49800003 3:-0.788 4:-0.892 5:-0.852 
100 1:-0.31 2:-0.23000002 3:-0.39999998 4:-0.586 5:-0.57600001 
-100 1:0.27400005 2:0.27199996 3:0.082000017 4:-0.26800001 5:-0.11000001 
100 1:0.44400001 2:0.32599998 3:-0.19 4:-0.27399999 5:-0.278 
78.90227237987827 1:0.39400005 2:0.36399996 3:0.324 4:-0.05400002 5:0.14199996 
-100 1:-0.060000002 2:-0.33999997 3:-0.678 4:-0.528 5:-0.29400003 
-100 1:0.57799995 2:0.25199997 3:0.088000059 4:-0.18000001 5:-0.12 
-100 1:0.19599998 2:-0.26999998 3:-0.24599999 4:-0.52200001 5:-0.52599999 
100 1:0.15400004 2:-0.458 3:-0.32800001 4:-0.45200002 5:-0.44 
44.35204419057354 1:-0.116 2:-0.13800001 3:-0.20599997 4:-0.35799998 5:-0.458 
25.01149802063981 1:0.27400005 2:-0.074000001 3:-0.65200001 4:0.102 5:0.65799999 
-100 1:0.67799997 2:0.15799999 3:0.059999943 4:-0.11000001 5:-0.12800002 
-100 1:0.324 2:-0.39399999 3:-0.33200002 4:-0.412 5:-0.32200003 
-12.50949284321124 1:1 2:0.84200001 3:0.37199998 4:-0.093999982 5:0.16799998 
100 1:0.61199999 2:0.29400003 3:0.21000004 4:-0.026000023 5:0.13800001 
100 1:-0.24400002 2:-0.19599998 3:-0.22600001 4:-0.63800001 5:-0.65599999 
100 1:0.36800003 2:0.062000036 3:-0.046000004 4:-0.21399999 5:-0.22799999 
100 1:0.78199995 2:0.65999997 3:0.59599996 4:0.39999998 5:0.63600004 
-100 1:0.57799995 2:-0.023999989 3:-0.12400001 4:-0.366 5:-0.35000002 
-14.61391697190117 1:0.83000004 2:0.49000001 3:0.528 4:0.070000052 5:0.24800003 
100 1:0.11800003 2:0.093999982 3:-0.102 4:-0.31800002 5:-0.39999998 
-100 1:0.04400003 2:-0.49800003 3:-0.42799997 4:-0.58000001 5:-0.704 
100 1:0.059999943 2:-0.41399997 3:-0.82600001 4:-0.77 5:-0.5 
100 1:0.88600004 2:0.41400003 3:0.398 4:0.036000013 5:0.0039999485 
100 1:-0.13999999 2:-0.11400002 3:-0.19400001 4:-0.33999997 5:-0.41399997 
-100 1:0.85399997 2:0.70599997 3:0.54200006 4:0.24600005 5:0.55999994 
-100 1:-0.61199999 2:-0.30400002 3:-0.22600001 4:-0.43000001 5:-0.63 
-100 1:0.23399997 2:-0.14600003 3:-0.21200001 4:-0.45999998 5:-0.37199998 
-4.836017041870897 1:1 2:0.78799999 3:0.45599997 4:0.45200002 5:0.676 
-100 1:0.35599995 2:0.33399999 3:0.09800005 4:-0.31400001 5:-0.083999991 
100 1:0.62800002 2:0.43599999 3:0.21200001 4:-0.12199998 5:0.042000055 
100 1:1 2:0.71800005 3:0.60000002 4:0.74600005 5:0.954 
-100 1:0.62800002 2:0.47800004 3:0.42999995 4:0.15199995 5:0.088000059 
-100 1:0.41600001 2:0.24399996 3:-0.27399999 4:-0.22399998 5:-0.278 
-100 1:-0.10600001 2:-0.48799998 3:-0.38599998 4:-0.56200001 5:-0.57800001 
0.6440013016914171 1:0.44400001 2:0.39400005 3:-0.28799999 4:-0.16399997 5:0.60599995 
-100 1:0.30999994 2:0.13800001 3:-0.236 4:-0.18599999 5:0.43599999 
100 1:-0.102 2:0.05400002 3:-0.45599997 4:-0.352 5:-0.25199997 
100 1:-0.36199999 2:-0.12800002 3:-0.17799997 4:-0.61000001 5:-0.67199999 
100 1:-0.027999997 2:-0.046000004 3:-0.28600001 4:-0.53200001 5:-0.43599999 
100 1:0.63999999 2:0.04400003 3:-0.12400001 4:-0.31800002 5:-0.22799999 
-100 1:0.24800003 2:-0.46200001 3:-0.38 4:-0.398 5:-0.366 
100 1:0.22399998 2:0.18200004 3:-0.16399997 4:-0.09799999 5:0.034000039 
-100 1:0.44599998 2:0.12199998 3:-0.026000023 4:-0.21399999 5:-0.089999974 
-100 1:-0.27999997 2:-0.42199999 3:-0.65799999 4:-0.572 5:-0.634 
100 1:0.13 2:-0.49800003 3:-0.40399998 4:-0.55399999 5:-0.676 
44.22030662741747 1:0.41799998 2:-0.23199999 3:-0.31199998 4:-0.588 5:-0.62 
100 1:0.19799995 2:0.15600002 3:-0.037999988 4:-0.398 5:-0.22000003 
100 1:0.68599999 2:0.65400004 3:0.57000005 4:0.42799997 5:0.61600006 
-100 1:0.23800004 2:0.22800004 3:-0.21600002 4:-0.18000001 5:-0.25199997 
100 1:0.86800003 2:0.78999996 3:0.67400002 4:0.30799997 5:0.41400003 
100 1:-0.15799999 2:-0.16000003 3:-0.23000002 4:-0.62400001 5:-0.60600001 
100 1:-0.11000001 2:-0.14399999 3:-0.20599997 4:-0.35799998 5:-0.46200001 
100 1:0.49399996 2:0.40199995 3:-0.24199998 4:-0.069999993 5:0.57599998 
-100 1:0.18599999 2:-0.45200002 3:-0.38 4:-0.53200001 5:-0.62799999 
-79.74427738433334 1:0.27400005 2:0.28400004 3:0.10399997 4:-0.24199998 5:-0.096000016 
100 1:0.11000001 2:-0.20200002 3:-0.52200001 4:-0.15799999 5:0.51600003 
54.48031006936504 1:1 2:0.68200004 3:0.65199995 4:0.18599999 5:0.40600002 
-100 1:-0.21600002 2:-0.29799998 3:-0.30800003 4:-0.72799999 5:-0.81 
-100 1:0.88600004 2:0.45799994 3:0.42400002 4:0.052000046 5:0.024000049 
-50.59565201923629 1:0.20599997 2:-0.41000003 3:-0.33200002 4:-0.45599997 5:-0.50999999 
60.26887672262007 1:0.91999996 2:0.51600003 3:0.47000003 4:0.042000055 5:0.14400005 
100 1:0.11800003 2:-0.075999975 3:-0.23799998 4:-0.43000001 5:-0.59 
91.17075654643368 1:0.23599994 2:0.19200003 3:-0.026000023 4:-0.38999999 5:-0.19400001 
100 1:0.52600002 2:0.17999995 3:0.072000027 4:-0.13200003 5:0.44400001 
-70.44676540032397 1:0.24600005 2:-0.17199999 3:-0.65200001 4:0.19599998 5:0.73199999 
2.46244881429815 1:0.90600002 2:0.68200004 3:0.55400002 4:0.44599998 5:0.86199999 
-100 1:-0.19800001 2:0.021999955 3:-0.075999975 4:-0.33600003 5:-0.52000001 
100 1:0.38 2:0.25800002 3:-0.14600003 4:-0.30199999 5:-0.30400002 
-86.77107019614917 1:0.18200004 2:0.20599997 3:-0.16399997 4:-0.14200002 5:0.29999995 
2.501079916691577 1:0.095999956 2:-0.134 3:-0.528 4:-0.14200002 5:0.54200006 
-100 1:0.324 2:0.31599998 3:0.075999975 4:-0.32200003 5:-0.10600001 
100 1:-0.57800001 2:-0.59599999 3:-0.898 4:-0.748 5:-0.458 
49.1303854075103 1:0.32599998 2:-0.24199998 3:-0.25800002 4:-0.62400001 5:-0.5 
100 1:0.41199994 2:0.43599999 3:0.39400005 4:-0.074000001 5:0.0080000162 
-100 1:0.46599996 2:-0.14399999 3:-0.21200001 4:-0.39399999 5:-0.47600001 
